<?xml version="1.0"?>
<opencv_storage>
<my_nn type_id="opencv-ml-ann-mlp">
  <layer_sizes type_id="opencv-matrix">
    <rows>1</rows>
    <cols>3</cols>
    <dt>i</dt>
    <data>
      440 20 35</data></layer_sizes>
  <activation_function>SIGMOID_SYM</activation_function>
  <f_param1>1.</f_param1>
  <f_param2>1.</f_param2>
  <min_val>-9.4999999999999996e-01</min_val>
  <max_val>9.4999999999999996e-01</max_val>
  <min_val1>-9.7999999999999998e-01</min_val1>
  <max_val1>9.7999999999999998e-01</max_val1>
  <training_params>
    <train_method>RPROP</train_method>
    <dw0>1.0000000000000001e-01</dw0>
    <dw_plus>1.2000000000000000e+00</dw_plus>
    <dw_minus>5.0000000000000000e-01</dw_minus>
    <dw_min>1.1920928955078125e-07</dw_min>
    <dw_max>50.</dw_max>
    <term_criteria><epsilon>9.9999997764825821e-03</epsilon>
      <iterations>1000</iterations></term_criteria></training_params>
  <input_scale>
    7.5065994991501990e+00 -2.4136186736776790e+00
    7.2100130668634037e+00 -2.4092336194119977e+00
    7.2912279668747111e+00 -2.4671103185309957e+00
    6.3715015513883957e+00 -2.2966099883804332e+00
    4.2487211505213018e+00 -2.0497669964601637e+00
    3.6243426817652180e+00 -2.6802010281076512e+00
    3.6432010407956379e+00 -2.9487225147872307e+00
    3.6742451156963285e+00 -2.8956968672531613e+00
    4.5204025646017421e+00 -3.0174004767004412e+00
    4.6011730199784138e+00 -3.1704199730659579e+00
    4.7564878818304184e+00 -3.2944837130687570e+00
    4.6090412042157531e+00 -3.4635110116253212e+00
    4.3563609511912160e+00 -3.5314591444051611e+00
    4.3706542296514002e+00 -3.4866224488047695e+00
    4.4934313940371506e+00 -3.1597231277160240e+00
    4.7352713519997982e+00 -2.3681609526177079e+00
    4.1853895963347533e+01 -1.6857819650464287e-01
    9.1861355609358284e+01 -9.1132298888238247e-02
    5.3883560806319004e+01 -1.7105892504267153e-01
    4.9005446636072847e+01 -1.6140683006068579e-01
    5.5197218833631547e+00 -4.1006203941387476e+00
    5.5939076659766123e+00 -4.4935862650069289e+00
    5.6256344026799985e+00 -4.2265343281826251e+00
    6.2993442056040863e+00 -4.5844060255455288e+00
    6.0286948644610785e+00 -4.2882169583768173e+00
    6.1523209578412237e+00 -4.3709820796161729e+00
    6.1642472380785813e+00 -4.3678319957053633e+00
    6.0851006535135648e+00 -4.2379057143352528e+00
    5.1272940626521981e+00 -3.6639871663791084e+00
    4.9222492198983803e+00 -3.6153520946872968e+00
    5.2698161327734692e+00 -3.8016100280180884e+00
    5.4344173502195323e+00 -3.6841235375431185e+00
    5.4755102001644609e+00 -3.6447083065508949e+00
    5.4772109563335025e+00 -3.6995359027687784e+00
    5.4751963970915831e+00 -3.7879175620295942e+00
    5.2368689217890507e+00 -3.5509311693321730e+00
    5.2327691132013809e+00 -3.6392165408653945e+00
    4.8640403282931493e+00 -3.6630998718893952e+00
    4.8738153778204056e+00 -3.6632756710777481e+00
    4.8730425756035132e+00 -3.5182958625394560e+00
    1.3975041899007583e+00 -5.7397493513781139e-01
    1.0892715459226430e+00 -5.5241628400362608e-01
    1.1541315622236794e+00 -6.3848206781588546e-01
    2.8069930146693828e-01 -1.7984805243988830e-01
    6.3919371561019650e-02 -2.8409877824174629e-01
    1.2463815981638779e-02 -7.9849882222653890e-01
    9.1664715719091162e-03 -1.1666070157373318e+00
    9.5451959996285789e-03 -1.0394138913838402e+00
    8.8073925529237075e-03 -1.0087389785624152e+00
    8.4338154605320230e-03 -1.1831950313427884e+00
    8.4891201599869570e-03 -1.2091842119312850e+00
    9.0071294637492725e-03 -1.1232565976005124e+00
    1.0478784108691064e-02 -1.0583235131717339e+00
    9.1636155079430990e-03 -1.0002511780497048e+00
    1.3497655207016257e-02 -7.0569597895197278e-01
    7.2267843647201735e-02 -2.7598573289983147e-01 1. 0. 1. 0. 1. 0.
    3.7429944092882145e+01 -2.6735674352058675e-02
    1.0343040692835497e+00 -6.7673037675980818e-01
    9.1805528827421834e-01 -6.3411390268654944e-01
    8.1620599807760785e-01 -6.5442230917293920e-01
    7.5441558423454103e-01 -6.1161549150443151e-01
    4.3030273446394401e-02 -3.6294498856553448e-01
    1.1054436164374104e-02 -9.6575897146179601e-01
    1.0059072263986486e-02 -1.6447768685134732e+00
    9.6470055633563114e-03 -1.5154274317928642e+00
    8.7147358523207465e-03 -1.1042939783381465e+00
    8.6864974793480609e-03 -1.0712157668326745e+00
    8.6581684252088949e-03 -1.1693011068395065e+00
    8.5092626823273770e-03 -1.2594377354769559e+00
    1.1058961328931919e-02 -1.9425894996368585e+00
    9.9471885576596954e-03 -1.4897264840685362e+00
    1.0462517704861576e-02 -8.0364840459121389e-01
    4.3474182075350747e-02 -3.4760713867962589e-01 1. 0. 1. 0. 1. 0.
    3.7429944092882145e+01 -2.6735674352058675e-02
    1.0482437711249200e+00 -5.5070235261598477e-01
    8.2000475957664321e-01 -5.8659626194000580e-01
    9.6382995295786122e-01 -6.4473339353216930e-01
    7.9886101662339093e-01 -6.7389632902301755e-01
    4.7541784879505326e-02 -3.5929703922686151e-01
    1.1300330031642599e-02 -9.8021080610544975e-01
    9.4121954375815595e-03 -1.5315255496163067e+00
    9.2794488405983505e-03 -1.1595963820987578e+00
    1.2062151738984089e-02 -7.4342056705293691e-01
    1.2852693951278858e-02 -5.1144541430410373e-01
    1.1631961557404182e-02 -5.7687051635152120e-01
    1.0759808786990347e-02 -1.0674229879245249e+00
    9.4493520833994343e-03 -1.4793500649538009e+00
    9.6931045209669581e-03 -1.5517898736998594e+00
    1.1593483864840088e-02 -7.9607899116909986e-01
    6.4625825963726194e-02 -3.0494157594026805e-01 1. 0.
    1.8714972046441073e+01 -2.6735674352058675e-02 1. 0. 1. 0.
    1.1232838001259611e+00 -6.0857911599681536e-01
    6.9109829806219403e-01 -6.0791968147399422e-01
    9.4499303136653601e-01 -5.9433311722731064e-01
    8.4296829755029568e-01 -7.0719018962344449e-01
    3.9012084843495276e-02 -3.5845139527450109e-01
    1.0956105770077683e-02 -1.1081279278500820e+00
    9.2943598878024707e-03 -1.4743277954454039e+00
    1.0592282247718594e-02 -1.0260479006308809e+00
    1.2046309456959401e-02 -5.3829364033760829e-01
    1.2758480989422555e-02 -5.0976055133202480e-01
    1.1978136738205742e-02 -5.2549797032899759e-01
    1.1358769987515073e-02 -7.0973245915204441e-01
    1.0115692721725885e-02 -1.2794472664334924e+00
    9.0413648732641915e-03 -1.4191390886253141e+00
    1.1192603862497008e-02 -9.1071019742320292e-01
    5.4812477288189519e-02 -3.2987323385117201e-01
    2.9706304835620750e-01 -2.6735674352058675e-02
    1.8714972046441073e+01 -2.6735674352058675e-02 1. 0. 1. 0.
    1.1068353156513566e+00 -6.2101367174581468e-01
    7.3669202720209936e-01 -6.4565794098355422e-01
    1.0734025008483057e+00 -5.8577107903436110e-01
    7.6565447901264783e-01 -5.3158296685735262e-01
    3.7256435940623632e-02 -4.0979418360690234e-01
    1.0475321979238334e-02 -1.1074098865944439e+00
    8.9339233337296965e-03 -1.3351206005485197e+00
    1.1474200322306356e-02 -9.2771778155927465e-01
    1.0725521980742909e-02 -5.0252517968988630e-01
    1.0820990275217882e-02 -6.0118330257603347e-01
    1.0380511133881162e-02 -6.2031339408290354e-01
    1.0074264273601067e-02 -6.5215749775156506e-01
    1.0434664122732737e-02 -1.0675593063995119e+00
    8.9700081049402716e-03 -1.2832878023846337e+00
    1.0681604575677328e-02 -8.8326951208031224e-01
    4.3301569757794513e-02 -3.4237623316707599e-01
    2.9706304835620750e-01 -2.6735674352058675e-02
    1.8714972046441073e+01 -2.6735674352058675e-02 1. 0. 1. 0.
    9.2810957728213206e-01 -6.6359834775672444e-01
    9.6942640157915239e-01 -5.8269451209204060e-01
    7.5310801574207198e-01 -6.0921059130564037e-01
    5.8846825913467748e-01 -6.8178251165460491e-01
    3.4311139908263226e-02 -4.2846035960443707e-01
    1.0167731144137078e-02 -1.0903983818949148e+00
    9.0081396886573985e-03 -1.3246823303372759e+00
    1.1280687531302812e-02 -9.0208435134248222e-01
    1.0450946692525599e-02 -5.3143810427684990e-01
    1.0373892812574805e-02 -6.6133937176336255e-01
    9.5037881904261236e-03 -6.5191235092227995e-01
    1.0183535157880572e-02 -6.9584823129166362e-01
    9.8852957089970873e-03 -9.6632649064475062e-01
    8.6884488727817753e-03 -1.1117584026738832e+00
    1.0279079877130047e-02 -8.1646731464043976e-01
    4.0296091547560905e-02 -3.7138604945584164e-01
    5.2924477864882647e+01 -1.8901599237458089e-02
    1.7647097766571125e+01 -3.1512674583162724e-02 1. 0. 1. 0.
    9.9925141538774231e-01 -6.8056158898015162e-01
    8.8566468121274611e-01 -5.7504942515884727e-01
    8.1941295126152869e-01 -6.0548764148575096e-01
    1.0221497162897555e+00 -5.1472539284591257e-01
    3.5547447582414043e-02 -4.2222750417711652e-01
    1.0201689185121770e-02 -1.0413374235713047e+00
    9.0453295829836383e-03 -1.3807630998927503e+00
    1.1113279126367632e-02 -1.0072679297313680e+00
    1.0490877548114791e-02 -6.3675130626679022e-01
    9.3690464757632923e-03 -7.1360680917861941e-01
    9.0220653922253088e-03 -7.2150101374868092e-01
    9.8205391929319912e-03 -7.6348379021279345e-01
    1.0032725932592003e-02 -9.4702841505780866e-01
    8.6170713083944892e-03 -1.0395542500683093e+00
    1.0255842636018343e-02 -7.7702659171604693e-01
    4.1061851037626121e-02 -3.7401480316557734e-01
    2.6462238932441323e+01 -1.8901599237458089e-02
    5.2924477864882647e+01 -1.8901599237458089e-02 1. 0.
    3.7429944092882145e+01 -2.6735674352058675e-02
    1.2593717302208394e+00 -6.1169484039297917e-01
    9.1744537595132847e-01 -5.8061185935205506e-01
    9.7780456048002007e-01 -5.9576235006389799e-01
    2.8618702181742439e-01 -2.0114859247738973e-01
    3.5871365591112619e-02 -3.9033170243929260e-01
    1.0431033545999028e-02 -9.9097798982289620e-01
    9.1476982168864282e-03 -1.4478650034180092e+00
    9.7940519498189767e-03 -1.0877099201684137e+00
    1.0052768587961934e-02 -7.6291178868942255e-01
    8.8509067311607521e-03 -8.1780165469242549e-01
    8.7501355659434388e-03 -8.2310025230096806e-01
    9.9793093294796870e-03 -8.8352884360262285e-01
    9.5194489945980426e-03 -9.3494588339802198e-01
    8.7705259182515732e-03 -1.0317490073696896e+00
    1.0412623545542444e-02 -7.4304853500403212e-01
    4.3617653726232629e-02 -3.5306932918037948e-01
    5.2924477864882647e+01 -1.8901599237458089e-02 1. 0. 1. 0.
    3.7429944092882145e+01 -2.6735674352058675e-02
    1.6640850450967606e+00 -5.9075019100935000e-01
    1.1175673343240007e+00 -5.0649748116327031e-01
    1.0793283803488567e+00 -5.2578711099851450e-01
    2.8218152523191448e-01 -1.5147101157984552e-01
    3.7951438025030426e-02 -3.7083976584458306e-01
    1.0602885846335864e-02 -9.7362892656451638e-01
    8.9144201791593203e-03 -1.3717764469409768e+00
    9.1337720558265570e-03 -1.1143332390566341e+00
    9.5389512176990415e-03 -9.2301617397089553e-01
    9.2565000136515928e-03 -1.0554558845923128e+00
    9.0184107682371190e-03 -1.0968803139917829e+00
    9.4121937174008810e-03 -1.1299809167425627e+00
    9.2475113015379490e-03 -1.1431641363656906e+00
    9.2193664053447470e-03 -1.1423815691788448e+00
    1.0511365946658704e-02 -6.9368257941267453e-01
    4.3953593402653507e-02 -3.4806536661322723e-01 1. 0. 1. 0.
    1.8714972046441073e+01 -2.6735674352058675e-02 1. 0.
    1.1349412002847221e+00 -5.5693186042543152e-01
    8.5784543210426845e-01 -4.9601848377743235e-01
    1.0201058154433558e+00 -5.9020407893508442e-01
    8.6833682736297413e-01 -5.7000110310469521e-01
    4.1200778667022757e-02 -3.6882054188890195e-01
    1.0813803418457035e-02 -9.8887983981875194e-01
    8.9339797686742960e-03 -1.3963969913790937e+00
    8.9486489622695540e-03 -1.1592175744105719e+00
    9.1217423253437784e-03 -9.9552089526709042e-01
    8.9120211469472608e-03 -1.1484348736425773e+00
    8.9900566696285902e-03 -1.3267493525692624e+00
    9.0197038336039658e-03 -1.3039173780909687e+00
    9.0909590944361508e-03 -1.3120624116178128e+00
    9.1210753812989518e-03 -1.1951182195769923e+00
    1.0566957603401610e-02 -7.5246172919793930e-01
    3.6877009693131568e-02 -3.5230714617545339e-01
    1.8714972046441073e+01 -2.6735674352058675e-02 1. 0. 1. 0. 1. 0.
    9.0029273517193442e-01 -5.9194247337554684e-01
    8.7979853699185118e-01 -4.7571963750202240e-01
    9.0346844052147945e-01 -5.1013700159444964e-01
    8.6740949513230559e-01 -5.9479508237643808e-01
    4.1383833420001265e-02 -3.6126608581610387e-01
    1.0680195673819464e-02 -9.7141338315665149e-01
    8.5966444053929385e-03 -1.2977525096682627e+00
    9.2249517255834045e-03 -1.1475905839138081e+00
    9.0106294530260984e-03 -8.8934269084978079e-01
    9.0644399370375436e-03 -1.0229382333945742e+00
    8.6858871969484556e-03 -1.0912204169629158e+00
    9.3970392673255031e-03 -1.1530804837244391e+00
    9.4755289484750940e-03 -1.2034903158633032e+00
    8.6600577766487007e-03 -1.1616106641152186e+00
    1.0424273215654242e-02 -8.2284745218710731e-01
    3.3464173380072862e-02 -3.7108182831352937e-01 1. 0. 1. 0. 1. 0.
    5.3471348704117343e+00 -2.6735674352058671e-02
    1.0383660417388383e+00 -5.5367160725574494e-01
    8.0006926613768969e-01 -5.5404796680035007e-01
    9.5424991573109819e-01 -5.6743789631867092e-01
    8.9343589035386395e-01 -5.3318977599332373e-01
    3.9911796381087175e-02 -3.6540675008184637e-01
    1.0673841248640984e-02 -9.6758370918930525e-01
    8.4590459152724708e-03 -1.2694278728901516e+00
    9.6824312909305401e-03 -1.0475802794887037e+00
    1.1517114492220695e-02 -6.7379233034666852e-01
    1.0278592631062742e-02 -7.3976866628728388e-01
    9.0847440703914900e-03 -7.8217375260053124e-01
    1.0308808927551706e-02 -8.2712728430211113e-01
    9.8967589621352069e-03 -9.8510217975030545e-01
    8.4193590119436366e-03 -1.1104382808270448e+00
    1.0013437329259772e-02 -8.7653696529960701e-01
    3.3080812192028172e-02 -3.8545053491604253e-01
    3.7429944092882145e+01 -2.6735674352058675e-02
    7.4859888185764296e+00 -2.6735674352058675e-02 1. 0. 1. 0.
    1.0244927592528725e+00 -5.0200145203390756e-01
    9.5458258956594499e-01 -5.0967891835753132e-01
    8.8923918683388026e-01 -5.2528629107972791e-01
    1.1385956449047225e+00 -5.6035171381382420e-01
    3.1889545145354817e-02 -4.3451783085199180e-01
    9.9513031224851122e-03 -9.8370408384180064e-01
    8.5222482108403240e-03 -1.2737169556317429e+00
    1.0825536079988400e-02 -1.0063031713668646e+00
    1.1248828312262130e-02 -5.6235303196208164e-01
    1.0014171532889981e-02 -6.4667585620586998e-01
    9.4017478101466878e-03 -6.9368781556922299e-01
    1.0512651257178828e-02 -6.4703491228782617e-01
    1.0657014278203709e-02 -9.0091353846711808e-01
    8.4604049462696142e-03 -1.1074065760027905e+00
    9.6759516799303450e-03 -8.9265837792900249e-01
    3.0953571304308120e-02 -3.9940056344762431e-01 1. 0. 1. 0.
    1.8714972046441073e+01 -2.6735674352058675e-02 1. 0.
    1.0286959421631456e+00 -5.1802188516072689e-01
    8.5614902098881696e-01 -5.9624663961721180e-01
    8.8996318852944800e-01 -5.4700951694970712e-01
    8.6182000139554160e-01 -6.0942985812970440e-01
    2.9082791018951726e-02 -4.3676120083818570e-01
    9.8010128713271732e-03 -9.8485827873705067e-01
    8.4576334123972838e-03 -1.2419219108597785e+00
    1.0991075961477716e-02 -1.0197952069328942e+00
    1.0742712867687321e-02 -5.4826586125192345e-01
    1.0027599257269574e-02 -6.5526421732262741e-01
    1.0081924211435174e-02 -6.7248954971325470e-01
    1.0342673923501473e-02 -6.7705729171721529e-01
    1.0695016297848532e-02 -8.5323694129632244e-01
    8.5095926032310552e-03 -1.0989895715855673e+00
    9.4612831958425722e-03 -9.0497849574176770e-01
    2.9739287725827606e-02 -4.4625925467441879e-01
    3.7429944092882145e+01 -2.6735674352058675e-02
    1.2476648030960714e+01 -2.6735674352058675e-02 1. 0.
    3.7429944092882145e+01 -2.6735674352058675e-02
    1.1204102348819278e+00 -5.1058694989619280e-01
    6.9586570464062891e-01 -5.8303605110246981e-01
    8.9293868191609116e-01 -4.5603654112143222e-01
    8.7791675970193772e-01 -5.7284068570551439e-01
    2.8661539050634417e-02 -4.5426492142466224e-01
    9.9032161186150200e-03 -1.0312325050200806e+00
    8.7992070996572823e-03 -1.3412002867214763e+00
    1.0563337613883754e-02 -1.0114584396322515e+00
    1.0816758390991362e-02 -5.8122305962793375e-01
    1.0562861144328329e-02 -6.7099820929263976e-01
    9.9312000555136573e-03 -7.0523934394216359e-01
    9.5289445715182903e-03 -7.1462319814101427e-01
    9.6711725461557287e-03 -8.8628697607088136e-01
    8.7384419137965935e-03 -1.1719623790130542e+00
    9.1550882634478942e-03 -9.8902091542589621e-01
    2.5490448407105033e-02 -4.9512464911329340e-01 1. 0. 1. 0.
    3.7429944092882145e+01 -2.6735674352058675e-02 1. 0.
    1.6087873589566311e+00 -5.1251368721046964e-01
    1.0617554095421780e+00 -4.8954508347105419e-01
    1.2241209473059020e+00 -5.6921624049724451e-01
    1.7170614031339659e-01 -2.0813237150845287e-01
    2.6537065755513949e-02 -4.4716851302737826e-01
    9.9577412470971422e-03 -1.1253456763514063e+00
    9.5305538651398337e-03 -1.6569548648393111e+00
    1.0451709713211068e-02 -1.1057236980952889e+00
    1.1334772403821844e-02 -5.6674266832409348e-01
    1.0263130430328520e-02 -6.0253739135341211e-01
    9.5932969403244410e-03 -6.5839139519194501e-01
    9.9775733148112725e-03 -7.2435044214105226e-01
    9.5297018218168539e-03 -9.5421244688345785e-01
    8.5720805853366482e-03 -1.1901415455534365e+00
    9.2497711694876257e-03 -1.0047101444297459e+00
    2.5827287884489385e-02 -4.9181612954038911e-01
    2.9242143822564176e-01 -2.6735674352058675e-02 1. 0.
    1.8714972046441073e+01 -2.6735674352058675e-02
    3.7429944092882145e+01 -2.6735674352058675e-02
    1.3898638525206883e+00 -4.7751750933032222e-01
    1.2005342340969574e+00 -5.0593942722657492e-01
    1.0679150698730453e+00 -6.0032082856434765e-01
    5.4570782425911235e-02 -1.9154344631494843e-01
    2.1043551938257677e-02 -3.5538049891159018e-01
    1.0525190093525890e-02 -1.1133734030754785e+00
    9.7125497961860884e-03 -1.7716315206444608e+00
    1.0099128158749353e-02 -1.3357106902761893e+00
    1.2926035772319693e-02 -7.4038024683173576e-01
    1.0828534646285437e-02 -6.0155217093777180e-01
    1.0547854856831573e-02 -6.3468702928167753e-01
    1.0997501502232169e-02 -8.2781335950587898e-01
    9.1229840024411660e-03 -1.0841200293043791e+00
    8.7201828867318129e-03 -1.2737820290731638e+00
    1.0002253549554216e-02 -9.1218409031888115e-01
    2.9681511749188639e-02 -4.0454840460153069e-01
    8.4270097160038446e+00 -1.2038585308576921e-01 1. 0.
    4.2135048580019223e+00 -1.2038585308576921e-01
    8.4270097160038446e+00 -1.2038585308576921e-01
    1.0857114721832457e+00 -5.8705970317336931e-01
    7.1667014755553538e-01 -6.0379459931553858e-01
    9.5114320062628510e-01 -6.2265910240999311e-01
    5.4665760177565755e-02 -2.0581658706853506e-01
    2.1421471375810741e-02 -3.2425222190035236e-01
    1.0843702252450077e-02 -9.5384690488274881e-01
    9.6488865896374818e-03 -1.6854709555088001e+00
    9.3195315570040529e-03 -1.3565576702457649e+00
    9.9387140102442841e-03 -1.0206100912527034e+00
    9.4866641010190062e-03 -8.8806695506231992e-01
    9.4472108601947428e-03 -8.6125497806965379e-01
    1.0097953466836368e-02 -1.0195795423106109e+00
    8.7334929952183876e-03 -1.1992645434755422e+00
    9.3297703938251264e-03 -1.3276929682584142e+00
    1.1414328880567206e-02 -7.3744717660521697e-01
    3.0520322778319162e-02 -3.2957588554473505e-01 1. 0. 1. 0.
    2.8090032386679478e+00 -1.2038585308576918e-01
    8.4270097160038446e+00 -1.2038585308576921e-01
    1.3209010869503033e+00 -5.1232092158143905e-01
    8.1474651300548229e-01 -5.3976956486613203e-01
    8.3420159988156106e-01 -5.3120766163886546e-01
    5.4686509944562846e-02 -2.0525019035978964e-01
    2.1784713405585045e-02 -3.1047106730352547e-01
    1.0944898022205798e-02 -7.5363049777973423e-01
    9.6106063950855952e-03 -1.3195328256858254e+00
    9.5205538457986023e-03 -1.4117383260352354e+00
    8.6792613491668072e-03 -1.2261936444655022e+00
    8.7409757091918023e-03 -1.3192504895720067e+00
    8.5497447029233876e-03 -1.2330258601741049e+00
    9.1039800121717578e-03 -1.2475281353321948e+00
    9.2296849795669780e-03 -1.4053085386728039e+00
    9.9551424847804139e-03 -1.2417155883507518e+00
    1.1307143304810028e-02 -6.8420735617045281e-01
    2.0899817886387329e-02 -3.0273386208432046e-01
    5.7108255408299502e-02 -1.6642977290418712e-01 1. 0.
    1.6572980333363243e+00 -1.4205411714311350e-01
    4.2135048580019223e+00 -1.2038585308576921e-01
    9.8364097724024180e-01 -5.5645975283876536e-01
    9.1747059231479877e-01 -6.4354008689509457e-01
    8.9600669785430187e-01 -5.7952433207647880e-01
    5.4175120895821917e-02 -2.0453042963919052e-01
    2.1974209714767989e-02 -2.6420063215988010e-01
    1.4863071960264146e-02 -6.1002293916912709e-01
    9.7451340737383565e-03 -8.4545302818727641e-01
    1.0549576408648493e-02 -9.6120958365056663e-01
    9.1525946329845745e-03 -1.0207365788760097e+00
    8.8898988918166937e-03 -1.2050511944968723e+00
    8.6854363510787524e-03 -1.1765788391819911e+00
    9.5437320666770676e-03 -9.8382584552061980e-01
    1.0613355995030837e-02 -9.0697949849249593e-01
    9.8244244573687245e-03 -7.0720417711764672e-01
    1.4161725899116545e-02 -5.9180840980558103e-01
    3.6122090991312000e-02 -3.0601861443032569e-01
    2.3530242590848500e+00 -1.6807316136320358e-01
    4.2135048580019223e+00 -1.2038585308576921e-01 1. 0.
    8.4270097160038446e+00 -1.2038585308576921e-01</input_scale>
  <output_scale>
    5.2631578947368418e-01 4.9999999999999994e-01 5.2631578947368418e-01
    4.9999999999999994e-01 5.2631578947368418e-01 4.9999999999999994e-01
    5.2631578947368418e-01 4.9999999999999994e-01 5.2631578947368418e-01
    4.9999999999999994e-01 5.2631578947368418e-01 4.9999999999999994e-01
    5.2631578947368418e-01 4.9999999999999994e-01 5.2631578947368418e-01
    4.9999999999999994e-01 5.2631578947368418e-01 4.9999999999999994e-01
    5.2631578947368418e-01 4.9999999999999994e-01 5.2631578947368418e-01
    4.9999999999999994e-01 5.2631578947368418e-01 4.9999999999999994e-01
    5.2631578947368418e-01 4.9999999999999994e-01 5.2631578947368418e-01
    4.9999999999999994e-01 5.2631578947368418e-01 4.9999999999999994e-01
    5.2631578947368418e-01 4.9999999999999994e-01 5.2631578947368418e-01
    4.9999999999999994e-01 5.2631578947368418e-01 4.9999999999999994e-01
    5.2631578947368418e-01 4.9999999999999994e-01 5.2631578947368418e-01
    4.9999999999999994e-01 5.2631578947368418e-01 4.9999999999999994e-01
    5.2631578947368418e-01 4.9999999999999994e-01 5.2631578947368418e-01
    4.9999999999999994e-01 5.2631578947368418e-01 4.9999999999999994e-01
    5.2631578947368418e-01 4.9999999999999994e-01 5.2631578947368418e-01
    4.9999999999999994e-01 5.2631578947368418e-01 4.9999999999999994e-01
    5.2631578947368418e-01 4.9999999999999994e-01 5.2631578947368418e-01
    4.9999999999999994e-01 5.2631578947368418e-01 4.9999999999999994e-01
    5.2631578947368418e-01 4.9999999999999994e-01 5.2631578947368418e-01
    4.9999999999999994e-01 5.2631578947368418e-01 4.9999999999999994e-01
    5.2631578947368418e-01 4.9999999999999994e-01 5.2631578947368418e-01
    4.9999999999999994e-01</output_scale>
  <inv_output_scale>
    1.8999999999999999e+00 -9.4999999999999996e-01
    1.8999999999999999e+00 -9.4999999999999996e-01
    1.8999999999999999e+00 -9.4999999999999996e-01
    1.8999999999999999e+00 -9.4999999999999996e-01
    1.8999999999999999e+00 -9.4999999999999996e-01
    1.8999999999999999e+00 -9.4999999999999996e-01
    1.8999999999999999e+00 -9.4999999999999996e-01
    1.8999999999999999e+00 -9.4999999999999996e-01
    1.8999999999999999e+00 -9.4999999999999996e-01
    1.8999999999999999e+00 -9.4999999999999996e-01
    1.8999999999999999e+00 -9.4999999999999996e-01
    1.8999999999999999e+00 -9.4999999999999996e-01
    1.8999999999999999e+00 -9.4999999999999996e-01
    1.8999999999999999e+00 -9.4999999999999996e-01
    1.8999999999999999e+00 -9.4999999999999996e-01
    1.8999999999999999e+00 -9.4999999999999996e-01
    1.8999999999999999e+00 -9.4999999999999996e-01
    1.8999999999999999e+00 -9.4999999999999996e-01
    1.8999999999999999e+00 -9.4999999999999996e-01
    1.8999999999999999e+00 -9.4999999999999996e-01
    1.8999999999999999e+00 -9.4999999999999996e-01
    1.8999999999999999e+00 -9.4999999999999996e-01
    1.8999999999999999e+00 -9.4999999999999996e-01
    1.8999999999999999e+00 -9.4999999999999996e-01
    1.8999999999999999e+00 -9.4999999999999996e-01
    1.8999999999999999e+00 -9.4999999999999996e-01
    1.8999999999999999e+00 -9.4999999999999996e-01
    1.8999999999999999e+00 -9.4999999999999996e-01
    1.8999999999999999e+00 -9.4999999999999996e-01
    1.8999999999999999e+00 -9.4999999999999996e-01
    1.8999999999999999e+00 -9.4999999999999996e-01
    1.8999999999999999e+00 -9.4999999999999996e-01
    1.8999999999999999e+00 -9.4999999999999996e-01
    1.8999999999999999e+00 -9.4999999999999996e-01
    1.8999999999999999e+00 -9.4999999999999996e-01</inv_output_scale>
  <weights>
    <_>
      4.1307208994730843e-01 -2.5915563716048556e-01
      2.1463341088560134e-01 2.9255865260141406e-01
      2.1731563131685314e-01 -1.1289147693517315e-01
      2.4525051064587791e-01 4.2321077891593506e-01
      -4.1076931686568757e-02 1.8734022727336519e-01
      -8.8153912007948296e-02 -3.9917088059097626e-03
      7.4939807153433680e-02 4.0336478706524004e-03
      6.8588191845885854e-02 -2.6020773484001458e-01
      2.0714745097541531e-01 3.5790016832039345e-01
      -2.5774607903485836e-01 1.2327725673879866e-01
      -2.1764878582448227e-01 1.6859613311456703e-02
      1.6376868904870437e-01 7.5768434436604040e-02
      2.3649097063649052e-01 -3.1326797587463096e-01
      1.7622121170643926e-01 3.1718613034502335e-01
      3.5412642567029295e-01 1.3766492554231527e-01
      6.8228735500838122e-01 -7.4674911424406396e-02
      9.4016349291855539e-02 8.4711229245179720e-01
      4.7688482586886231e-02 -9.3054906348462821e-02
      -8.5077449337185237e-02 2.3678657984962026e-01
      -2.0221373656232028e-01 -1.5682071275100370e-01
      3.1026672170016412e-01 3.3094184367912427e-01
      -2.8647305899645503e-01 2.6289404583803500e-01
      -1.1574299402003078e-01 -8.5028743317482794e-02
      -5.9046045912547425e-02 1.6093068117493145e-01
      1.1064086786861894e-01 -3.0421021416503918e-02
      9.1324458055533547e-02 -1.8133929149349742e-01
      7.9035486823004514e-02 -2.1802075966897996e-02
      -3.6134235193391248e-02 -4.7923318033806922e-02
      7.6816125706971716e-02 -1.0277408600915791e-01
      -2.2813212537730837e-01 1.1366779231113951e-02
      2.0999088715020012e-01 1.2758125265040398e-02
      2.5410502649786143e-01 1.4007395750986315e-01
      -1.1488036849191144e-01 -6.1940129717777359e-01
      2.4436888537666020e-02 7.8421155772548268e-01
      -1.4446379337740409e-01 7.2128987737826777e-02
      7.3257327953116305e-02 -3.8929029863175874e-01
      -2.5368548495107679e-01 4.4965129711306243e-02
      8.1027330262566491e-02 -4.1357780391743912e-02
      -3.4062970499488510e-01 1.6718220690490937e-01
      -1.3789029722542190e-01 -1.7145794864228336e-01
      -5.5967590154175836e-02 3.9363806841283586e-02
      2.1818131985901483e-02 1.0207136092491867e-01
      9.2984390563047720e-02 -2.3693263474107618e-01
      2.4932561879829659e-02 6.8590371882339268e-02
      8.9521908160793556e-02 1.2079886722404959e-01
      1.9138399074416007e-01 -6.6726610114619903e-02
      1.0969050147697820e-01 -2.9773285965753626e-01
      -1.9448717955831141e-02 2.2090307317730964e-01
      1.8368032201111995e-01 1.8562596943402468e-02
      -2.0700672172325771e-01 4.6243853082197243e-02
      -4.9361997119546017e-02 9.6175062570991510e-02
      -3.7004246347872756e-02 4.8352268371664076e-01
      -6.5762515918101283e-02 -2.1711475892299686e-01
      -3.0367852484654800e-01 4.5729368863517800e-01
      1.8680347281681972e-01 2.1426885072493296e-01
      -8.3887987245505925e-03 2.5163932373221724e-02
      9.3600688202849835e-02 9.6065845775800385e-01
      5.6680854502906747e-02 1.9455916646364393e-01
      -1.9793615623053809e-01 -2.9583571121851528e-02
      -1.5773310966488488e-01 4.0328496747649722e-01
      -1.2802059460622839e-01 1.0121727552282160e-01
      5.8068591578927034e-03 5.2224446982711403e-01
      -6.9469595268828233e-02 -6.0238078234178372e-01
      4.8425428540045237e-02 3.7129677843579206e-02
      1.0700726829671539e-01 3.5571259380115261e-01
      1.7201725256739644e-01 -9.3851186897125155e-02
      1.6238364683238143e-01 2.4635570863942893e+00
      2.7788696252154510e-01 2.5563821953049898e-01
      1.1430210339137639e-01 -2.3015517458271691e-02
      -1.4976557919554573e-01 4.0278685197977260e-01
      -1.0024062932554488e-01 9.8081665137487339e-02
      -1.0235794202563173e-01 2.8088523572862584e-01
      8.9852889811944930e-03 -4.0625062767103115e-01
      -6.9820833391896139e-02 4.5229728028025040e-01
      7.7256646561528419e-02 -1.0286325769878722e-01
      2.0624496950326834e-01 -1.6244058581696258e-01
      3.3855681702716572e-01 5.8188686525892042e-01
      5.3537190124982585e-02 6.5102687796349173e-02
      -7.9531262798570434e-03 1.9084272580933540e-01
      -2.8687388274177975e-03 3.9923456644783112e-01
      3.3131879767500072e-01 -5.0126328688312835e-02
      -7.8061464433985109e-02 -2.3813626484396663e-01
      -4.7972234666189578e-02 8.6260789969853447e-04
      4.1233090769656033e-01 2.1966026171272282e-01
      1.9704193244779920e-02 7.7230719121200364e-01
      1.0918275358550077e-01 3.1161107287351963e-01
      2.1407002082596105e-01 -3.7469425161572353e-02
      4.4677736728387991e-02 -7.9330102831035559e-02
      -3.9519027892010741e-02 1.6932121623902938e-01
      -1.7235390858617258e-01 -1.6820439944637547e-01
      2.1463275519846728e-01 6.2238468592717899e-03
      -6.0642333265905686e-02 -2.2723386991237490e-01
      5.0723393309956666e-01 1.2617357634262763e-01
      -1.4759268568362609e-02 -8.4728172809960756e-02
      -2.7056309843345547e-02 1.1173661568805211e-01
      -1.9557001501463997e-01 5.1478677303411026e-02
      -1.3140143200118706e-01 1.6355528751491072e-02
      1.1866434442324745e+00 1.8573926413535717e-02
      -2.1080442687547216e-01 -2.4795493142458772e-02
      -4.2738112001679002e-01 1.5247789312679486e-01
      1.4995571699733634e-01 -2.7628833741061658e-02
      -1.0015934632096025e-01 -2.2783419137377658e-01
      4.1687327596582591e-01 2.0268347086536986e-01
      2.4678297299662977e-01 -6.5027895696172747e-02
      -1.1823741447580269e-01 1.1924441302063496e-01
      -6.1963566710313306e-02 3.2499464904884277e-02
      1.0132185966779954e-01 -7.8380671602775856e-02
      4.3828112600274322e-01 -3.4386401313096648e-01
      6.4761659414065337e-02 2.5033692928319068e-01
      4.3509691683498629e-02 2.6940927320911812e-01
      9.3351958328552670e-02 -1.0017561171906052e-01
      -1.0207748145935468e-01 -2.4279894395536145e-01
      2.8558050530542167e-02 2.5317358060532946e-01
      1.5596619087618488e-01 -8.0473007946216965e-02
      1.0629673146544366e-01 -2.5511431991358274e-01
      1.4281698282686914e-01 -2.6579187389205527e-01
      -2.5403044309933126e-01 -4.0217489838444059e-02
      3.3480781573792084e-01 -3.6273694299996379e-01
      2.0936130634430572e-01 2.4383678059758535e-01
      9.0409889890099071e-02 -1.5575662259126025e-01
      2.0935473762451409e-01 -2.0865529190615895e-02
      -8.6720765533010580e-01 8.9937631435175634e-04
      3.3723737934519288e-01 -8.3353932564165331e-02
      1.7995224612195873e-01 3.8012226138788595e-02
      9.3101245593480111e-02 1.8121083557367934e-01
      -4.0389457376828738e-02 4.4306136768051028e-02
      5.5710960515925376e-02 4.4796637303520660e-02
      6.1819128626497008e-02 4.4902979172100933e-03
      9.6199068103092436e-02 7.9992901014155682e-02
      -3.2412616947461437e-01 4.3029978502940144e-02
      5.8446013407242170e-01 2.1897073299614869e-01
      -5.6166099220004828e-01 -7.9869983607569653e-02
      5.0895250310438100e-01 -1.3772753576826610e-01
      3.6833535971985165e-01 1.4528753225756155e-01
      4.7114210315278779e-02 3.2215081965156955e-01
      -4.6112291795355136e-02 -2.0971447692753298e-01
      -2.5619803338179825e-01 2.7889027980514978e-02
      1.0639238645433041e-01 -1.1975659976006578e-01
      2.6543589844782772e-01 3.9082730343073668e-01
      -8.6891155770287443e-02 -5.4572208430372138e-02
      -1.5722114071473578e-01 2.1850339091314136e-01
      -2.6926864913761789e-01 -3.6068129134033933e-01
      8.0604477377322947e-01 -1.9049953644926572e-02
      1.3736361911042547e-01 9.1465138969061416e-02
      3.6303816023091284e-01 3.2514490106067440e-01
      -2.3584961682012628e-02 -2.2452103740714591e-01
      8.2207384085545759e-02 7.2384702033188628e-02
      -2.6750175742930959e-01 -4.6989488438490316e-02
      2.2995748370207916e-01 2.7098879952854249e-01
      1.2002458353265075e-01 2.2021753708676713e-02
      2.7529310186179268e-01 5.3868246120521346e-01
      -2.5940600473428055e-01 -7.3012849137161176e-02
      6.3438284657355526e-01 6.1045930711798853e-04
      1.0660833060972640e-01 3.2831504265346818e-02
      -5.6722172567523925e-02 1.2373537222745859e-01
      -2.7011254718266767e-02 2.4730174392129484e-01
      -9.7104141561189530e-02 7.8638734879865849e-02
      -2.4247484480585962e-01 -6.1200028499015097e-02
      1.5003845044178873e-01 4.7679928223069640e-01
      7.5043857441727743e-02 2.6788019447383460e-01
      -1.5942288774465430e-01 2.5891250818134641e+00
      -4.9031592337721780e-02 -8.2510173375841600e-02
      -8.1980701221373228e-02 2.5533202351391129e-02
      3.4435642228485835e-01 -1.4027633254634583e-01
      -1.5242219294626416e+00 -4.6048320161275219e-01
      1.6175418482650866e-01 2.2715185124720034e+00
      -3.2586745640151037e-02 -1.3848943752664422e+00
      2.4032043524210792e-01 2.6514457171828411e-02
      2.2929818698051757e-01 5.9828907190178316e-03
      1.7776977153030754e-01 3.9162056093034703e-01
      4.2370436026377682e-02 2.5808210658920063e+00
      -5.5177506687461589e-02 -9.0335957189816962e-02
      -8.8432338807225050e-02 2.9972305126772500e-02
      3.4491545161309362e-01 -1.3919127874850820e-01
      -1.5237801288117867e+00 -2.3363859936801230e+00
      1.6910630110317004e-01 2.2780818623080497e+00
      -3.0984875410792947e-02 -1.3851218270278518e+00
      2.4632862070600783e-01 -4.1336153669977289e-02
      2.3034014106136230e-01 -1.0726959132387304e-01
      1.7565256520734335e-01 4.9727856447889374e-01
      -1.7526848599625663e-01 2.5856307010330428e+00
      -5.4383376470658856e-02 -7.8467022459451585e-02
      -8.1066994771053377e-02 2.7998208893091417e-02
      3.8668460829133483e-01 -1.4137431420394600e-01
      -1.5246856557893811e+00 -4.5712153837739616e-01
      1.6597148340459844e-01 2.2771401658877042e+00
      -3.2071122725161376e-02 -1.3919913774970827e+00
      2.3620067600785744e-01 2.2096074827692730e-01
      6.1669403993472344e-02 7.9999764202635902e-03
      1.7491918883423951e-01 3.9284435347193492e-01
      -1.2723242240834046e-01 2.5840617078770030e+00
      -5.3919619399275989e-02 -7.8613681243644457e-02
      -8.3667387800701029e-02 2.4621455657951753e-02
      3.9289348043321243e-01 -1.3876486200100360e-01
      -1.5295119759533840e+00 -4.6150548780432882e-01
      1.6165957041992912e-01 2.2750179603040155e+00
      -3.5706786337337669e-02 -1.3918493049070610e+00
      2.3794322896299469e-01 2.1792017717882745e-01
      6.7814259627062140e-02 4.6018720901938271e-03
      1.7477836482673292e-01 3.8767230593333901e-01
      7.6950951976339277e-01 1.0123974804971213e-01
      -2.6196360314166299e-02 4.3830260109531893e-02
      -1.3751681374578109e-01 2.6420778120872801e-01
      6.2578151041917621e-02 -1.1918262262122239e-01
      1.1954899744715661e-01 -1.2355936828922824e-01
      1.9785444271697641e-01 -3.5322031223821312e-02
      -4.4972548968525616e-01 -1.1728757599072694e-02
      1.4190288458412983e-01 1.1306692025833515e-01
      3.8139908922077692e-01 2.2990391325471490e-01
      2.6723317376565875e-01 3.4879783744910353e-01
      3.7789777532147556e-01 9.7581743266242263e-02
      -4.8682039996258940e-02 1.9612021218978783e-02
      -5.3370928616191408e-02 2.3592125582715504e-01
      -1.4196573629607867e-01 -2.1080566142874382e-01
      1.1469683112311972e-01 2.1062282003838384e-01
      3.6720145487882661e-01 -1.4144727648767988e-01
      -9.6934356213828718e-02 3.0114951850418181e-02
      1.4722818411105063e-01 4.5791667828227821e-02
      2.3056776124185932e-01 -2.9378265135945002e-02
      1.1573131924260509e+00 2.1199941873813763e-01
      3.9234965411211464e-02 -1.5898191980772133e-01
      -2.0388209339569024e-01 -3.1558018745729964e-02
      -1.3032246794131858e-01 7.2893041061908204e-01
      -2.6161013990547088e-01 -3.5923744944974728e-01
      1.2423413826529506e-01 4.1757819548283681e-01
      5.4942773385294552e-01 -2.6296211002188602e-01
      1.1016083976621346e-01 6.8413370872930646e-02
      1.9853221322979722e-01 1.0656105314011464e-01
      3.5454563240146653e-01 2.7488470853915103e-01
      6.1953336652839121e-02 6.2998582026025485e-02
      -1.3766383072536259e-01 -5.8168842059114330e-02
      -8.0144612117273084e-01 -3.0848089028221320e-01
      -1.4141264400841808e-01 2.0355791744242691e-01
      1.3954800637672571e-01 -6.1955667255163027e-01
      5.6756974863912291e-01 -5.4939420542081774e-01
      6.3161492242108497e-01 -5.8398712816380682e-01
      8.7101392863733765e-02 1.5447027732218080e-01
      -5.9225938644056009e-02 -3.7906819102482125e-01
      2.7660398010638665e-01 2.9650084062918713e-01
      -6.9994987612577853e-01 -1.0529604091533055e-01
      2.7294799066090933e-02 2.0154058372863431e-01
      9.9867010329921180e-01 -4.3455174186978396e-01
      1.8024513935138314e-01 3.2922771644593263e-01
      -1.0788982149456779e-02 -1.0519966952015018e-01
      3.7838840965761088e-02 5.7394999971694782e-01
      1.5562122577321466e-01 -5.6222896801025901e-01
      1.4051048899088306e-01 -7.6294594123594017e-02
      3.8824975639288606e-02 2.6275340257661938e-02
      -4.9772900816737471e-02 1.0307473513590105e-02
      -4.2227921258476642e-01 9.7760533110620662e-02
      -9.3578559625024593e-01 2.7977119447649357e-01
      1.0904418132864473e+00 -5.8153581786367189e-02
      2.5976717156029616e-02 6.4222238768490347e-01
      -4.0501291728107264e-02 -1.3527850992542878e-01
      4.9092688603949869e-01 2.1251122282981069e-01
      1.2967360788984899e+00 -5.7353815982671164e-01
      3.9748819478359843e-01 1.3037758544879646e-01
      -8.4981263316750211e-02 4.0367843076900761e-01
      -1.2062195556824784e-02 2.4986892403920469e-01
      3.6463684153874532e-01 -1.3893393448670968e-01
      6.3392777123992161e-02 5.5808513787118222e-02
      1.8668584478244044e-01 3.1221175261463885e-01
      2.4687457531190057e-01 2.3918504731866561e-01
      -2.3343415939696111e-01 -2.4351605709411830e-01
      -2.6723600212891119e-01 5.3282461515502555e-01
      4.1708886641106202e-01 -7.1262699316457800e-01
      3.4762682788672578e-01 -1.2421263906141147e-01
      3.6858741635532571e-01 -3.9527429608606696e-02
      -2.3210111841615960e-01 4.5180817421642833e-01
      3.4848428833817377e-02 -5.7028368364782540e-04
      -6.3891028656016258e-01 1.1167316267614209e-01
      1.4047101303461662e-01 2.7234876728217627e-01
      5.1619899029878391e-01 1.0782518339318457e-02
      -3.0461924219106201e-01 -1.0640827768506875e-01
      1.1822227514468431e-01 1.8563789698449373e+00
      -3.0612233515304188e-01 -5.6550103901360678e-02
      4.1023767376978659e-01 2.0667897764907314e-01
      5.5662985833413149e-02 -9.9756704407162861e-02
      -3.3118644867221197e-01 7.2501045899866723e-01
      -1.2185097151713938e-01 -1.3730903037308770e-01
      -6.8759614192068011e-02 -1.0269116578805523e-01
      6.3974863561218398e-02 1.2888544371370012e-01
      2.9263832615669660e-01 -9.3988704260020012e-02
      -3.3497464975379171e-01 5.5721922274980150e-02
      4.5566391871482960e-02 -8.3302866529749886e-02
      6.5089758534774000e-02 -4.1988664619063343e-01
      3.4241925824354169e-01 9.9181037271796293e-02
      2.1801007853078894e-01 1.5899579822727861e-01
      1.0941680285690843e-01 2.6532683469719825e-01
      1.1300537122883252e-02 2.7128737347213622e-01
      2.7232873344766406e-01 -1.8168627637329463e-01
      -1.3408667990224951e-01 8.8811211242474514e-02
      3.0556075004498512e-01 -8.4224179934946658e-02
      3.3097735053597299e-01 6.9939868436758368e-02
      -1.4838286881321339e-01 2.9304166141971302e-02
      1.2998751896242994e-01 1.7135630758167555e-01
      2.5880418832175961e-01 -4.5604759085213005e-02
      3.6105547352114310e-03 -2.9331949347644726e-01
      1.4928395801275446e-01 4.6488994326485811e-01
      -9.8929170077917850e-02 5.6261202438437560e-02
      2.6686065526567476e-01 -3.1615039459138722e-01
      -1.0381400337430427e-01 -4.5035595113759069e-02
      2.8361101566637470e-01 -1.8179964993544406e-01
      4.8804948067991107e-02 3.5178211412208241e-02
      -3.7410788849445466e-02 1.8553335116247630e-02
      4.7462348162783569e-01 1.5045689999215078e-01
      3.5566699616632036e-01 3.1803872183410736e-01
      -3.7782429203534348e-02 1.0956103375028906e-01
      7.4545025939609905e-02 6.5096196632072312e-01
      -7.5382829234801038e-02 1.2246576967967850e-01
      6.3318804536781154e-02 -1.0749596542718277e-01
      -3.2810222981605108e-01 1.1637726226229722e-02
      7.3218093821954933e-01 -2.9600434415350235e-01
      1.0083557700378441e-01 -1.3264830089656998e-01
      -1.2477610894456960e-01 2.0584740322175310e-01
      1.0952992801978237e-01 1.6228608831881552e-01
      8.3470914540359292e-02 7.7982139386482874e-01
      6.0524967015393977e-02 1.1519729458352072e-01
      -4.0107523963471858e-01 1.4777406509587909e-01
      -1.0979461182765479e-01 -1.5066730737843456e-01
      -1.5224294178376954e-01 -2.2846319931693290e-01
      -6.5480963891149624e-01 -5.8410131846697633e-01
      2.7825877311480990e-01 -3.8897208461510915e-02
      2.1633934647933159e-01 2.0598694557575969e-01
      -1.2462381617839094e-01 1.9249765072078005e-02
      1.3244740186403645e-01 8.2734175545700599e-03
      4.6858785963240342e-02 1.7353702207635072e-01
      2.1687793075632894e-01 -5.9044512115414061e-01
      -3.6108899981097825e-01 5.5584854590844135e-01
      -2.6531065825191497e-01 -3.5478005593338462e-02
      2.9167199033641920e-02 8.0801493142277511e-02
      -1.5506655418890644e-01 -1.1974807045434141e-01
      1.0674015328276565e-01 -1.6114971504554695e-02
      4.0843438841527017e-02 2.6886030685607792e-01
      -1.0446412014797386e-01 -5.9948778436386251e-03
      7.6684074110269701e-02 -3.2955740278410289e-01
      4.4713143256340453e-02 8.7659692998736494e-02
      9.6636584188989377e-02 -7.4019114961627035e-03
      -2.5430470121621757e-01 2.3859577032859641e-01
      -3.6047774031546498e-01 -1.8784747714333339e-01
      3.0624322654310926e-01 -7.8672535396584087e-02
      -3.3717325445512969e-01 -1.7776916775293028e-01
      4.1623953796933299e-03 -3.0448498748087683e-02
      1.9848266480662874e-02 3.7894737159155262e-01
      -2.4175974918942901e-03 -6.7120629425679021e-02
      2.4882736007417508e-01 1.6482963094304701e-01
      5.0046775355490025e-01 5.0547647952739742e-02
      1.2322569378815838e-01 -3.9408808003594908e-01
      -1.0608155991116053e-01 2.0945958834020015e-01
      -1.6219206462198624e-01 -1.4077720709808883e-01
      -5.3651821526779130e-02 -3.9296139089717082e-02
      -2.8935333620569170e-01 6.2090622220505665e-01
      3.5854101801994297e-02 1.0078042015884475e-01
      1.8489777690717524e-02 3.2691057716607413e-01
      -2.9914427148049601e-02 5.0204925119461086e-01
      2.6140750479141733e-01 -2.2563490988406903e-01
      3.1005485890337370e-01 6.4933648189126975e-02
      1.0430559148820753e-01 4.3222414051956613e-02
      -1.3932336806493806e-01 -4.1238794328015208e-04
      -4.6422954664406818e-01 -1.4604644786900189e-01
      -1.3719916651120243e-01 2.2045447289832623e-01
      -2.6704152236442502e-01 -9.5703240353272767e-02
      3.9469343070497799e-02 1.0071263244765417e-01
      5.0425431704827317e-01 4.9960757989592341e-01
      2.6683690164446422e-01 -2.1604058134503105e-02
      2.0810652886363912e-01 9.5763784740128061e-02
      -3.0333794545253517e-01 -1.0347545036769827e-01
      2.9687810146127724e-01 1.0123292303610341e-02
      4.0228678392992032e-02 -3.0684564601672348e-01
      -7.0201669839335079e-01 -5.4591154900752441e-02
      -3.3024940243721151e-01 -4.3117425579634362e-03
      -2.5518826671631195e-01 -4.3312089944121931e-02
      1.4990653291738895e-01 -5.7317457432656378e-02
      1.1107313796886868e-01 1.2232974617141044e-01
      9.9878897564268362e-02 -8.1936435757506157e-02
      9.6292704946597724e-02 -2.4327855502303508e-01
      -1.9313379898577479e-01 1.4253928270845373e-01
      5.9107928545677382e-02 1.2844118002566904e-03
      4.1864787266970077e-01 -9.2521513971039762e-02
      -3.6933932343403575e-01 -5.3450312987053689e-02
      -5.4827701526083894e-01 1.4885316970676163e-01
      -1.8953504527461495e-01 -3.7659035256082850e-02
      -5.5825578677473919e-01 -1.8483140247644442e-02
      8.2423137422852774e-02 1.1678445683596341e+00
      1.0672097873700695e-01 -1.4292313421064090e-01
      1.3698428947893590e-01 -3.1336008921356268e-01
      -2.4311093618199620e-01 1.0109907642703984e-01
      -1.9063769018533605e-01 4.1268665289679207e-01
      -7.9287842036139378e-01 2.6856896988406409e-01
      -6.7348555996017934e-01 -3.3094253264229112e-01
      -1.8237297313550443e-01 4.9995496270617043e-02
      -2.8783711186902095e-01 -1.3169470986318402e-01
      -1.1043535612522308e-01 -3.3139354108766644e-02
      7.7132028909218345e-02 8.1288440452563038e-01
      1.0863751594786311e-01 -6.0045782253552400e-02
      -8.9517848665888411e-02 -3.1865698025430855e-01
      -3.1382967916071580e-01 3.9387153045364121e-01
      1.0257297924329942e-01 5.0261216462134528e-01
      -5.2223662405642544e-02 -3.0098652925614316e-01
      -2.0686661681213825e+00 -1.1149666918454236e-01
      6.9705699409779789e-02 3.7304038000663758e-01
      9.6693123150348670e-02 -1.4389769453007395e-01
      7.1439575401472583e-02 8.2233360212040763e-01
      1.2291888902511963e-01 1.0312736012330331e-01
      2.6634630552118194e-01 -7.2423797326362005e-02
      -8.0750794761170988e-02 5.1358942901773597e-01
      -4.2502093610201019e-01 7.2847904146483122e-02
      -1.6132312131595850e-01 5.6019783883796963e-02
      1.5387037037162724e-01 -4.0946552536485270e-01
      4.3502693814093475e-02 -3.6078354995551487e-01
      -6.5309025735289170e-02 1.9785375953290399e-01
      -2.4942001745319059e-01 -8.6336773650743562e-02
      2.2925343285736971e-01 -6.4511881134665369e-02
      1.8515963692311788e-01 8.8428419536729219e-01
      -1.6752467477764152e-01 6.0934683518800832e-02
      6.7259111233779745e-01 6.6888542801887746e-02
      8.6069889849127619e-03 -2.4226337619730726e-02
      -5.3119777420231973e-01 2.9341768448875816e-02
      -4.0059372163917245e-01 1.5911672953092867e-02
      4.3331530727499229e-01 3.6386939130509438e-01
      1.1776178432823332e-01 9.6466691168942159e-02
      6.0935854869643058e-01 1.0213519342915358e+00
      -3.3945082227455251e-02 -3.1039569364664642e-02
      1.2955663769993240e+00 -8.4444706524035712e-02
      -2.0528346576623377e-02 -2.4125116275559874e-01
      1.9452020402276210e-01 1.1722904964262609e-01
      -4.9620443704376904e-01 1.6289119237029892e-01
      4.9273379624683637e-02 2.5187669977136184e-01
      8.6442041197169264e-03 -3.5677401888423521e-01
      -1.0984313120168798e-01 -1.9692993816384832e-01
      -2.5426168879328654e-02 1.0074436206182960e+00
      4.8146796299620598e-02 -7.2644624863396601e-01
      2.6418367070846219e-02 1.2625853480506912e+00
      2.2153968937443876e-02 -5.3031282029186788e-01
      8.5748293841208478e-01 -5.3443800733403823e-01
      3.2778539693463926e-01 1.2644370736476193e-01
      1.4936416693932175e+00 -1.0783727866963828e+00
      -6.2152450436616824e-02 -2.7966418057456266e-01
      -2.4607110073032482e-01 -3.5840085001801569e-01
      2.3912679313851531e-02 -5.8977483545730545e-03
      3.2405829165710179e-02 -4.5060823269146115e-02
      5.9223611008838017e-01 1.3388421491913219e-01
      -3.0993615031439864e-01 -3.7073123507376377e-03
      -3.1298638638816538e-02 -2.3041043493598323e-01
      4.7540157146832185e-01 1.2922923717329446e-01
      9.0281765190576707e-02 6.1161092125199663e-02
      -2.4320598330033238e-01 2.8765169794502593e-01
      -3.0312459078354087e-01 -2.8084552329794649e-01
      -1.2983988817249531e-01 7.1819769981150056e-02
      2.2409530715748771e-01 2.7624684674595901e-01
      3.1230230976382956e-01 1.4453002711387786e-01
      2.9965312406777390e-02 3.1187467743641439e-01
      -4.7939951233885891e-01 2.0475119303284856e-01
      7.4122302627103356e-02 8.8063310799071803e-01
      4.9685435700066322e-01 1.6382206778438707e-01
      7.1684210144697824e-01 -2.7885184344637570e-01
      7.2584775242871116e-02 2.6134073043350176e-01
      2.5606175005766278e-02 7.9434585439116107e-02
      -2.0213481206592815e-01 1.3011013646815267e-01
      2.6982076791991799e-01 2.5576249177386299e-02
      4.1781361175359710e-01 5.8473088971834522e-02
      -1.6843802769063349e-01 4.4937026744064462e-01
      -7.6769107611905557e-02 5.9566102868187698e-01
      -7.1545895044728125e-01 -1.1089614463930784e-01
      -1.8748525688611267e-02 3.4808792950435730e-01
      1.2069728648073896e+00 -2.1189131442220030e-01
      3.0388510026705073e-01 3.9501130990730166e-01
      -5.6491115175028661e-01 2.3478260705358254e-03
      2.5601141088588769e-01 5.0512530287548693e-02
      1.0886718363584167e+00 2.5541832843851170e-01
      1.3731578672108555e-01 4.3610588337575272e-02
      -2.4075422788370181e-02 1.3030445662724052e-01
      -7.3484774808482045e-01 3.3512791685283261e-01
      -2.3931619874770246e-01 -1.8563453021064760e-01
      -5.7569660723861722e-02 -1.3146567117214061e-01
      2.2271340330968117e-01 3.0098197709442385e-03
      1.9078547439126994e-01 -2.1821309783568429e-01
      -2.3573762641954599e-01 -2.8928349469665299e-01
      9.7494341508013144e-02 -1.6326676068553175e-01
      1.1448634178631232e+00 5.6852016916248659e-02
      4.2759955474117362e-01 -1.7659729659079923e-01
      -8.7186633462837448e-02 -1.5180978722319357e-02
      -2.0066809212693471e-01 2.2339204625182707e-01
      7.7293599305158070e-02 -2.7438007426996247e-01
      1.0818131431048567e-01 -9.7433661541357006e-02
      2.9875810652861595e-01 -7.8498481949112412e-03
      3.6852498684095861e-02 -9.3035713067676828e-02
      -1.0574662445052359e-01 -3.4507593912708984e-01
      -1.4670898546212899e-01 1.2667781533736755e-01
      4.3361609200661710e-01 3.0232183398924056e-01
      7.4208163196476917e-01 -1.7650374769448693e-01
      -1.0972654869457471e-01 -4.9942799011502649e-02
      -1.9299969850296278e-01 1.1320313635054717e-01
      6.2181265391771622e-02 -7.6764858997930160e-02
      1.8894482742925614e-01 1.5715346420398560e-01
      -2.1635538451376835e-02 1.2306662158454980e-01
      -2.7996334798476030e-01 -1.1431459764341489e+00
      6.7018718060232782e-02 -6.1552635869398142e-01
      -3.2244647207826577e-01 5.6318432207236702e-01
      -1.4993344493123958e-01 4.0436670015712461e-01
      6.6947307156796754e-01 -2.9097836722785037e-01
      3.4131670733613262e-01 8.1370968010933770e-02
      -1.8555151727511784e-01 2.3754779048319913e-01
      8.5500910385592946e-02 -2.6222671186871582e-01
      4.1524532980849865e-01 1.9832983216635447e-01
      7.0973182498138124e-02 1.1953145412120918e-01
      -7.7616297018195557e-02 -3.1871441264856526e+00
      6.6383492997979202e-02 -2.4924788195166139e-01
      -2.8356193679192060e-01 -9.2023479067202429e-02
      1.8178664457300905e-01 3.5274839010379744e-01
      7.4703466469691920e-02 -2.9383983510997191e-01
      1.6395182372689490e-01 5.8297343755711753e-03
      -1.8540222647514243e-01 1.3674791384467003e-01
      6.6986845090886393e-01 -1.2631898274962189e-01
      4.9686438283409712e-01 -6.1622851857823728e-02
      1.9528311047178895e-01 3.4311632825629512e-01
      5.2463503983801264e-02 -7.5659395925836755e-03
      1.1204572863700391e-01 -4.4850200003964136e-01
      3.8093564380855155e-01 -2.3301504819839378e-01
      1.6566286274694397e-01 4.4120521341223651e-01
      2.7462333223816898e-02 1.4797083076451757e-02
      8.2527659772294215e-01 2.1350441886044104e-02
      1.9181420520450992e-01 4.8047796358843448e-01
      1.3724008006430719e+00 7.2246815015411037e-01
      1.1603373103976547e-01 1.3292108975631192e-01
      7.7644124607498866e-02 8.9714691624128068e-02
      -1.7172014513049394e-01 6.3663170498502775e-01
      1.0154490499968311e-01 4.0138360770059972e-02
      -1.3403838840583054e-01 -2.9310746270177762e-01
      4.3352452734049102e-01 6.2848156521392606e-01
      8.1528236840367127e-03 1.3145307574210971e-01
      4.1223885553187267e-01 2.2271726897209052e-01
      4.0050884954678967e-01 5.5781607111909104e-01
      -2.3083072294626578e-01 8.0783306937820631e-01
      -5.3183561045093475e-01 -5.3313150259703201e-01
      2.6346901682959661e-01 2.0472202420773106e-01
      2.1676187177030301e-01 2.5339803589308413e-01
      -1.7677879746120478e-02 2.9387838248476528e-01
      1.7737839130863123e-01 -7.1627662853188750e-02
      4.6899801459478357e-01 -3.6688412238373339e-02
      2.5283161464374443e-01 1.2749761047262390e-01
      -2.3537128048311162e-01 2.9864336888056248e-01
      3.4577650485094857e-01 2.0215266911074872e-01
      -2.9269304503131838e-01 1.8684213092600124e-01
      -4.2653737355510973e-01 1.2386679171876180e-01
      2.3719284103436272e-01 1.5309359340412656e+00
      6.2718739626808481e-03 2.4727644961157708e-01
      -4.9616061297788512e-02 2.5837328000385122e+00
      4.7758287626554802e-01 -1.1989978598560647e-02
      2.8802500493801542e-01 1.1099415851928787e-01
      -3.1177800543941908e-01 4.6472474015721055e-01
      1.5736161479106264e-01 -3.7438047186490860e-02
      3.1331234579003725e-01 2.0537080695304175e-03
      -3.7416061265746781e-01 8.2273485661749912e-02
      -2.8534062806769267e-01 1.4547509083418439e-03
      1.1370435984071374e-01 -5.4643533947354869e-02
      9.7204074332127566e-01 1.4101751716304123e-02
      -3.5050714788436738e-01 -3.6622715812604692e-02
      2.3862293000746546e-01 1.7319897582192035e-02
      -9.8992325673892129e-02 -8.8030524208949718e-02
      1.9960513996964500e-03 2.6272979602458632e-04
      -3.4563001227085549e-03 -1.2831085590811001e-04
      -3.7304258947802978e-04 -3.9191092949760300e-04
      3.0894337195310758e-04 -9.6587886307352172e-06
      2.2134030157796537e-03 -2.0770844388661642e-03
      -2.7590345157362558e-03 -4.2679076277123851e-03
      -1.8140616459262303e-03 -2.2467190385757857e-03
      1.3072116422733634e-03 1.5961757130508053e-03
      -3.6165926088619145e-03 3.2661110405942315e-03
      2.4377416197766720e-03 2.5308503194020238e-03
      -3.3226487072147981e-03 -4.5775605746088193e-03
      -1.5914565202134765e-03 -5.2618908045371567e-04
      2.9122510298009092e-04 -5.1143533746634000e-04
      3.1713178207568912e-03 -4.0534396311376463e-03
      -1.1379029826142375e-03 -3.1714737116519134e-03
      3.3284470734431019e-03 -2.1951976033789669e-03
      -1.7135299714008759e-04 3.1546420820669223e-04
      -3.6413758389069587e-03 1.0665234681867947e-04
      2.6529115679118503e-04 -4.4037095422969751e-03
      3.4379473161650357e-04 -2.6155948262815806e-03
      4.1731487044473154e-03 -1.3465122691201955e-03
      3.7711628156652465e-03 -3.8655097763766024e-03
      3.3939068371355652e-03 3.8980460341542645e-04
      -2.9190309957619016e-04 -1.0124503584121147e-03
      -1.5661831624973644e-03 4.3353703359936000e-03
      4.2924076052867589e-03 -1.5973789775449111e-03
      3.4725412761171348e-03 -3.3213704212884296e-03
      2.0713671153643658e-03 -5.8464604904102913e-04
      -7.6548869234406569e-04 7.2568288553993322e-04
      -1.7133777924067707e-03 -4.3421897601334889e-03
      3.9291909553945716e-03 2.5844300848581541e+00
      -8.3059192629100262e-02 -1.2303652325321475e+00
      -5.7310688552742695e-01 9.8496359662318167e-01
      1.2955482332524165e-01 -1.2999157167964142e+00
      -4.0131622477922907e-01 -2.3326739842357020e+00
      1.6350834953702026e-01 2.2784351256657032e+00
      4.7478391951902027e-01 -3.5312848997730129e-01
      -1.5652247609613167e-02 9.9745252291635567e-01
      6.6597813443291548e-02 -7.4246326417465058e-01
      7.3997585876882710e-01 3.9065756303705668e-01
      3.9123960547453196e-01 -2.8426035361885094e-04
      1.0139902120172344e-01 -1.1882327880080268e-01
      2.0538912355455469e-01 -1.1503907006347641e-01
      2.4389749140594918e-01 -3.9118507877667248e-02
      1.0259175451483058e-02 -1.6586174765410835e-01
      7.0733588432735389e-02 7.2573691308824184e-02
      4.9683423593388606e-02 -4.2179920949524347e-01
      5.4001218343798479e-02 3.5827758084220125e-02
      -2.5738761529208437e-01 -6.4494244749342700e-01
      1.9045541714148312e-01 -1.2546995841287928e-01
      1.5424461432045286e-01 2.6061353444095958e-01
      4.9448230263514453e-01 1.1967787530261544e-01
      1.7657471221826868e-01 1.8697122653621392e-01
      -1.1615467049031683e-01 -2.1446788889252982e-01
      7.6418483152382233e-01 -3.5278208957584289e-01
      4.0559323876538711e-01 9.3924580209536326e-02
      -4.4427157756165786e-01 -1.2008013037955401e-01
      -6.8724045537637735e-01 -4.1481257493271147e-02
      1.3073916318411541e-01 -1.5760386942781487e-01
      -7.9652976567588607e-01 -1.8800285660587165e-01
      4.0595381190580321e-01 1.0665329970388460e-01
      6.2986593905965083e-01 3.8710241146807877e-03
      1.7291559236701479e-01 3.8591315731398729e-01
      -2.2013518273474023e-01 -2.9027204211349256e-01
      -2.5644532763583619e-03 -1.2191936400589823e-01
      6.9842434863609623e-02 9.0257774353968950e-02
      -4.7673594164122213e-01 -2.3833116988963447e-02
      8.0394472024434849e-01 1.2596355109573892e-02
      4.0673692379233528e-01 -9.4515081505004164e-02
      3.9816542766154056e-01 9.7870716175966266e-02
      1.2186031352819018e-01 6.5801563369625515e-01
      1.5356442146413637e-01 -2.4053036270066167e-01
      -3.0303268627505764e-01 4.4178372995907690e-02
      -4.9476718765195590e-02 -1.0303568314538308e-01
      1.5613439741629498e-01 -7.8805388610051846e-02
      1.4423413720533421e-01 -9.0409729815246836e-02
      -2.3544830044095880e-01 6.8856114277211417e-02
      2.2970804399371345e-01 -2.5389411374339382e-01
      -1.0642805566342971e-01 3.1788812599771199e-01
      2.5226105105860769e-01 -1.1548499204299603e-01
      7.3148768797935873e-02 3.1526380610175692e-01
      -2.0012383217140059e-01 8.7803968529654511e-02
      1.2777217029390560e-02 4.7643623213513966e-02
      -1.9341899597469833e-02 -8.4063947798344446e-02
      4.2575742961202628e-01 1.5029135577487757e-01
      -1.9240607804335558e-01 -4.6722396854719260e-02
      5.9534307154803671e-02 -8.7395982603972730e-02
      -3.5610567066315707e-01 -2.8729779093040794e-02
      -2.4487198242289326e-01 2.9818652171081372e-01
      2.4576281865739069e-01 1.3296059162267224e-01
      3.2306274930647511e-01 1.4440815057893353e-01
      3.2236217186499633e-02 1.6024990988590637e+00
      -2.2675793780121356e-01 2.6425629417093849e-01
      -2.8682895893460691e-01 1.8691689196584746e-01
      -7.5391312315433959e-02 1.9798769310307079e-01
      3.5887668610412221e-01 1.1768277770372614e-01
      7.7498691984312612e-02 3.1136581690263443e-01
      -5.0865643171419206e-01 6.1817962159333839e-01
      -1.2444385832126155e-02 -9.0793738222371051e-02
      6.4597396736888402e-01 3.0903325694155304e-01
      3.8245443937634299e-01 1.1964417501604221e-01
      2.1972431190908165e-02 3.4494608232786839e-01
      -2.0130542274499102e-02 2.1895165657862917e-01
      -2.5756500370188906e-01 1.1481999604668990e-02
      -2.5726402630559575e-01 1.9369013482062067e-01
      9.2504915237047391e-01 -4.5718343589708593e-01
      4.6590733717667460e-01 4.1045649422651515e-02
      -1.2753634485745419e-01 2.7298059195062491e-01
      2.7339291490475082e-01 -9.9448577132476165e-02
      5.2572480138913624e-01 1.3858554318551441e-01
      1.0632209239468057e-01 1.6591702374927375e-01
      -1.5240410471293786e-01 -9.9306923522278101e-02
      -8.3075316712326819e-02 1.5514684302006618e-01
      -3.4676566877858923e-02 -2.7397137558666684e-01
      -7.5226086440883397e-02 1.6977405307891949e-02
      1.0250670556186070e-01 -8.8421998224569176e-01
      4.1221835571148402e-01 7.5726884696721314e-02
      -2.1770183145519817e-01 -3.5950882042027878e-02
      4.9671335301315056e-01 -2.2263379100053579e-01
      1.2242238581188108e-01 1.8098536139786070e-01
      2.3910800215936834e-01 -1.5191332871173172e-01
      6.1130024340456085e-02 -3.8049712619748717e-02
      -1.1398229498690153e-01 1.3305851613248909e-01
      -2.0334585695528515e-01 -1.9963433924298674e-01
      1.7767309480935466e-03 5.9796033837418765e-02
      5.6492276451187109e-02 -8.4663426844204637e-02
      4.1057755323136255e-02 -5.4466089262780948e-01
      1.1037534934510596e-01 2.3440994488217935e-02
      -6.7547898562859421e-02 8.1130351231086861e-02
      4.2667720757095107e-01 9.0087649274513390e-02
      1.9875404649945722e-02 -2.0163376726352022e-01
      1.3305274201105463e-01 7.4092362130590395e-02
      -1.0817513895413292e-01 1.4616836748109757e-01
      -5.1950333766399959e-02 2.3994190790057970e-01
      1.0839319712288770e-01 2.0795827603757225e-01
      1.1689087256044384e-01 5.6925844101273959e-01
      -2.8015876081913726e-01 -4.4779857474752649e-01
      7.7648358814115526e-02 7.8261379552949512e-02
      -8.1293217361754405e-02 8.9053574412026548e-02
      1.0598711595711074e-01 3.2386473321554404e-01
      -1.2039275341052739e-01 -1.0276941730046851e-01
      5.3374379593322689e-02 -1.3754052976153026e-02
      -1.8732281400021444e-01 1.8155335558867566e-01
      1.9503409647106784e-01 1.0024711726260777e-01
      2.0817402666857218e-01 -5.6830730312335008e-02
      1.2385189037592087e-01 7.1666158445793793e-01
      -3.6458725891570831e-01 -3.8351246779898207e-01
      7.7352369944431468e-02 -5.4186992384477506e-01
      -9.3358067544263429e-02 -3.8560791754277085e-01
      2.0148529282801576e-02 3.1665375172489335e-01
      3.4198500921574573e-02 -1.3708962371133196e-01
      1.2142387785267231e-01 -2.1614691781104853e-02
      -1.9250475002910994e-01 1.1439752497459611e-01
      5.7293117067430244e-01 -9.9521783227458152e-02
      2.3425229186031568e-01 -1.2354852070250434e-01
      -1.8846963387682225e-01 4.3659768730605086e-01
      -1.5660054700837506e-01 7.6241454511161641e-02
      9.5433541188395282e-02 -1.5534027854279231e-01
      1.1710251645539391e+00 -9.7933191336067371e-01
      -1.9352844438189656e-01 7.2907280784016204e-01
      6.5935997411693620e-02 -1.1659545768947284e+00
      4.8668662310679023e-01 1.8739774820324148e-03
      6.5262327835140813e-02 2.7333453088057108e-01
      2.9269858899313256e-01 6.4031957278935667e-02
      4.9570379215216814e-01 3.3373626465070672e-01
      -1.7660851753934614e-01 5.0891729606373448e-02
      -2.4239797041158645e-01 4.8052060523453299e-01
      6.3091428610708711e-02 -1.6591619247520184e-01
      2.7959283073855268e-01 -7.6761105959799325e-01
      -7.7272857871412304e-02 5.6177668633266328e-02
      4.1316214884408575e-01 5.1386438713897364e-02
      -2.0417306233730440e-01 3.2777100720712660e-01
      1.2960454868434404e-01 3.8428355652560359e-01
      -2.5812661967885081e-01 1.9410977169507282e-01
      -3.9078075530196943e-01 1.0163454309227120e-01
      2.1588321863832766e-01 2.5838319283542260e-01
      2.7406784274865392e-01 2.3053680942519569e-01
      2.0667407946570109e-02 2.0981021564836486e+00
      3.2344905930660162e-01 -9.6595556250046510e-02
      9.7912654992257986e-01 2.6923775555217480e-02
      3.2243276844120822e-01 4.7461155164517194e-01
      1.0988973493077031e-01 1.5935498502685339e-01
      2.3682660928030377e-01 2.7416845049307470e-01
      -2.9319383708752372e-01 2.9165585431638363e-01
      -1.7185270106634021e-01 2.4619212341920699e-01
      -1.5174683212404996e-02 9.1644506202219617e-02
      7.0049198781549082e-02 2.4316781063369661e-01
      -1.6960052267016687e-01 9.8699647585112371e-01
      2.4398171666379354e-01 3.4870283621116931e-02
      3.3260108777014163e-01 -4.7761500683590435e-01
      -1.3069763605647944e-01 1.0717209561478501e-01
      1.3438678400189502e-01 2.1454877099850916e-01
      7.4005443853000313e-02 1.8530019683524393e-01
      -3.2752623033406751e-02 8.5879372488306460e-02
      4.3571006306365137e-02 -8.7223184140576870e-01
      9.6599743812456151e-01 -7.8044402332180088e-02
      2.0873953400810236e-01 -8.0842110728140348e-02
      1.3607833037549702e-01 1.9923614209931381e-01
      2.2060582733517370e-01 -8.3065033608977198e-02
      -5.8599211954964502e-02 -1.0065746150782252e-01
      -1.8530453379024402e-03 -4.4857502890599413e-04
      -1.3589878438691068e-03 1.0980235790960368e-04
      -5.8803495647727832e-04 -4.1380707081318810e-03
      -3.7276292452099050e-03 -4.7562075173782797e-04
      1.4917539593199886e-03 3.2512300125199685e-03
      -3.7463651802000062e-03 -2.8559821678612184e-03
      -8.4791866779508249e-04 -1.8250478663670970e-03
      -4.1186886297413993e-03 -2.8385081605804647e-03
      -3.4845985298674366e-03 -1.9295286129399215e-03
      9.6411975108468722e-04 -3.2129335491458380e-03
      6.0184426523950665e-05 4.1083751405018295e-04
      2.6507108104717272e-03 4.1227519391357588e-03
      7.1315088303786870e-04 3.1671482406925894e-03
      3.5721387332575787e-03 2.2465506980323866e-03
      -5.8764372118423668e-04 1.7652052427767897e-03
      -2.0919244113511946e-03 -4.5596891312857622e-03
      -9.2085784536595884e-04 3.6004282606300025e-03
      -1.4187674318833126e-03 -3.9193031219156562e-03
      -2.5112095081558775e-03 -4.0425499071573548e-03
      2.6691820606235470e-03 -9.0132502186483538e-04
      2.2581759107829823e-03 3.2397469581222672e-03
      3.3784360229636495e-03 3.5495524424720304e-04
      -1.8518368695444247e-03 -2.1245836725264857e-03
      2.3504018782099889e-03 4.1362706182992166e-03
      -4.1167257682731854e-03 -4.1400141170912508e-03
      -4.0827922204542713e-04 -2.3472002777947519e-03
      -3.3850880337056308e-03 -2.9011489757790657e-03
      6.4050005993884242e-04 2.2974885544565613e-03
      -2.2556051373081192e-03 -4.2059528900850274e-04
      -1.7333664921070939e-03 -1.1572306677263069e-03
      5.9124343635790356e-04 2.5879973423250280e+00
      -8.1992012089830493e-02 -1.2318490353487810e+00
      -5.7262774238134184e-01 9.8679749797899829e-01
      1.3431645332933007e-01 -1.3027987781425576e+00
      -4.0744481529937332e-01 -2.3344909337638202e+00
      1.6647373034866259e-01 2.2749522683150869e+00
      4.7373211851015024e-01 -3.5242447090710460e-01
      -1.3039355687528311e-02 9.9570720625034170e-01
      6.8263780727274931e-02 -7.4569300155603468e-01
      7.3549702080602408e-01 3.9502471846089182e-01
      -1.4622749430740098e-01 -5.6539979516989458e-01
      8.2236193443812361e-02 -2.8114016885105144e-02
      2.4146523430143490e-02 6.3918593931914591e-01
      -1.4854516532878387e-01 7.8269993758369918e-02
      1.9983347211284977e-01 1.3930950875027132e-01
      -1.6087628640960644e-01 -3.0615526403418231e-01
      1.5039185972176192e-01 9.7770838709302282e-02
      1.0140320802494181e-01 4.5218536551764049e-01
      -3.2463045516284023e-01 -4.4438541759923539e-01
      2.9572428620843871e-01 -6.5690957976320241e-02
      7.3564726805820824e-02 1.1763957464251208e-01
      -2.8764399923977413e-01 5.0591174298145913e-02
      4.8812436882074928e-01 -1.2615614489006913e-01
      -8.9031217292371595e-02 1.8557640752051757e-01
      -2.8089019744373084e-01 -1.4958922739949240e-01
      -3.0422325671085948e-01 4.4898142846919557e-03
      -4.5712766521760068e-02 -3.3429635544225768e-02
      -5.3113112785696193e-01 -5.4303869757166549e-02
      -5.7186741880024393e-02 -8.6148157897558711e-02
      1.3304622124587742e-01 -4.0554058228684235e-02
      -9.1634667770235751e-04 -6.0891160422454661e-02
      -1.6433526583906352e-01 -2.3198522353699852e-01
      -2.2802682831839960e-01 -6.1431265080996014e-02
      -3.8112634504382342e-01 -5.0760676084623209e-02
      1.5642661734617905e-01 5.6978437541090242e-02
      4.5782549662365313e-01 -7.7892915050891132e-02
      -2.5362197847459730e-02 -3.3002493565992080e-02
      -7.6092360653243940e-01 -4.7498234364441606e-03
      -1.4542099930726299e-01 -1.5393919729251618e-01
      -8.3713454734813220e-01 8.3143089271851572e-02
      6.4052302572110184e-02 1.2609146468118021e-01
      6.1016751421987078e-02 9.4342693748845893e-02
      -7.5465975265764196e-01 2.4550389941445611e-01
      -7.9574659187437946e-02 -2.4889647779160323e-01
      -2.6593656714478398e-01 -1.1333817131425955e-01
      -2.2085472976959417e-01 -1.2221168055554171e-01
      1.9297726338562990e-01 2.3012754465991943e-02
      3.4738242993123822e-02 -4.9082520506443494e-01
      5.8136993463724251e-01 5.6734975724574344e-01
      2.0678468561085980e-01 2.6112006686261824e-01
      -9.8983890703806393e-02 5.2606552697136322e-02
      4.9059922983122423e-01 2.6744544799127856e-01
      -2.1917638081225040e-02 -7.7935906818010006e-02
      -1.9893994110333078e-02 2.6384101103647524e-03
      -2.2844188618240540e-02 1.2490786722719416e-01
      8.5186612944420370e-02 5.7574307441573859e-02
      -1.7589444991370684e-01 1.3288758640976370e-01
      -2.7235933770361748e-01 7.7647129547241886e-02
      8.4461149552550283e-02 8.8223453419995129e-02
      3.7886045108125266e-01 3.1924163779286768e-01
      -9.3438949684574946e-02 1.1318577941864646e-01
      -4.3096543997776751e-02 6.4497988048799670e-01
      -9.7168932013999010e-02 -9.0411496628514221e-02
      -2.6284584994870541e-01 -2.7662849317328275e-01
      -1.3906288863985575e-01 1.7461062079648199e-01
      5.8560764422623098e-02 -3.6262361353190070e-01
      6.9017753044146757e-01 1.9947991493319822e-01
      4.7842038888664273e-01 1.5962889650769813e-01
      -2.6141980035298704e-02 4.2310014824376720e-02
      -1.2928019095699783e-01 1.9890909945937751e-01
      -2.2403753642663313e-01 8.8151643417895414e-02
      6.2803708252016061e-02 2.6902510725691958e-01
      1.2127627526637834e-01 -3.4327376253801201e-01
      -4.4382236318829743e-01 -6.0456645376905849e-01
      -7.8193457126860613e-02 1.5365374340704990e-01
      -6.7344173086276854e-02 -3.2540085279781028e-01
      2.9928807201518037e-01 7.6870914571802465e-02
      4.1513994436390633e-01 4.3917202310895054e-01
      1.0745131492092752e-01 -3.9742877631723753e-02
      1.4968964401668330e-01 4.6741582698448952e-01
      -2.2182059772270882e-01 -8.0561957870082329e-02
      1.6490015299544111e-01 5.8703630721843064e-02
      6.5933050814914296e-01 -2.7175592030224960e-01
      -1.5645564163537526e-01 -3.2985931913569139e-01
      -1.1206125725370283e-01 9.8890206486462337e-02
      2.7470389855816400e-03 -1.2934783966326133e-01
      -1.7298040111080895e-01 2.8281526265661501e-02
      1.7839891608707117e-01 1.6242177237328118e-01
      2.7024329320631602e-01 1.9182996850657996e-02
      2.1549052429779689e-01 9.7580231990348570e-02
      -2.8036575895759819e-01 -1.0139649836663912e-01
      2.3676877185329304e-01 -1.7042328353123129e-01
      1.2461356520793808e-01 2.6318509007935365e-01
      1.5441569077953101e-02 -2.8751080529063472e-01
      4.6074066907997042e-02 6.0712406849151912e-01
      4.1758945119165905e-02 -2.0645741020547048e-01
      -4.9722850206739710e-01 -2.9195023172662482e-01
      5.1104437751077092e-01 1.9917024121857466e-01
      -1.8831810810406477e-01 -2.7371604921611098e-01
      -2.4790017920553922e-01 6.7403196228378925e-02
      -6.6359997898444920e-02 7.6954248838816497e-01
      -2.1163091928020256e-01 -3.0128654548544721e-02
      1.2521125983889925e-02 -5.3975752809976831e-02
      -1.6509194131809790e-01 1.4671886023089925e-01
      2.6382244884849904e-01 3.5333104488353562e-01
      -4.5732084567850573e-01 1.1433506119452947e+00
      -1.7555747942421937e-01 -2.5666544575801387e-01
      1.1101191477001664e-02 -2.2245625023463295e-01
      -1.7328930300508932e-01 -1.5561841429922252e-01
      4.3192031318160551e-01 -4.0231936999405388e-01
      8.4006116106993975e-02 3.8016173928696090e-01
      -1.4499958458992400e-02 8.9435369811547816e-02
      9.6215328723294052e-02 -3.0293607174215897e-01
      2.0045487567701398e-01 1.2896912401345614e-01
      6.1090155998408578e-02 5.7906611410783526e-01
      -1.5517992821007787e-01 1.2494703489784222e+00
      -9.5993785547502292e-02 -3.2310780843337356e-01
      -7.0820770373241956e-02 -5.4510014182030364e-01
      -1.7649599503318000e-01 -3.7517723270012254e-01
      2.5666574871402947e-01 5.6135026330308695e-02
      3.1412078832876522e-01 -1.4526217468976610e-01
      2.4950264828581867e-01 9.5594324571803002e-02
      1.3780697505069996e-03 1.9943941301310464e-01
      1.4931574219622337e-01 -6.3619416601943507e-02
      4.0188837059030180e-01 4.0667615230857362e-01
      1.2123943684440690e-01 4.8447219369704995e-02
      -4.6723551578381556e-01 -1.9270641109794756e-01
      2.6336215187206715e-02 -3.3291015850533179e-01
      6.6606879211902170e-02 1.2982609225133707e-01
      -6.0869186974443767e-01 -7.3790216333695846e-01
      -2.7073578068760823e-01 -1.3266253424674684e-01
      -5.5212662881347935e-02 -1.4751487259551629e-01
      -7.6337668566638950e-01 8.9643654714938470e-01
      1.5613275949400909e+00 -1.9585519245090294e-01
      4.5204458903620293e-01 5.8482409884477692e-02
      3.6166392333285774e-01 -1.0645388954033143e-02
      1.4337361643448313e-01 4.7343890753825801e-01
      -9.7438487416959318e-02 -5.3360438430323054e-01
      6.0029279202201558e-01 6.2701304163833281e-04
      -1.5686611823776367e-01 2.6820306369654968e-02
      4.5489867500066394e-01 2.2415342099647112e-01
      -2.9700188654626669e-01 -7.0855470727507183e-02
      -1.2760628652986541e-01 -1.3140719524407909e-01
      4.3359300914345472e-01 -3.4326973156180635e-01
      -4.9694719176861961e-02 9.4797844880768117e-02
      7.9467362906627959e-01 -1.8154062420432910e+00
      1.5792690774545792e-01 2.2301338195303380e-01
      -1.1361998564946029e-02 -2.7462034923625906e+00
      2.7336409603159173e-01 6.6131846834002403e-02
      1.1623715341053752e-01 -7.4227476086223265e-02
      1.7473496075356643e-01 3.6953685999088931e-01
      -1.9524822719346249e-01 -1.1469206564109494e-01
      -1.1659523943886396e-01 9.3262392352288309e-02
      9.9064161891449301e-02 1.4471374100205775e-01
      -2.2892495879118638e-01 -4.3445614347124595e-01
      1.9724877020046908e-01 -8.9231103616378732e-02
      7.2197714710739547e-02 2.2745082379811996e-01
      -1.2890584935335656e-01 -9.4325287531072249e-02
      3.4201881448457905e-01 -6.2431899784556033e-01
      2.1409073337116100e-01 -9.2739283634364816e-02
      -8.3364543805899749e-01 2.2552180154820728e-01
      1.4990511308498156e-01 -4.6857188629050021e-02
      1.8791482607944766e-02 2.7915080272742795e-02
      -2.3827259879297713e-01 -8.8356200123632600e-02
      1.4521789135812316e-01 8.0711158983768239e-01
      -2.1086674225647171e-02 -9.0917919090365285e-02
      -1.6836325243137365e-01 2.1203337558252225e-01
      -1.4930361054911190e-02 -2.8676268721788073e-01
      3.7422574725520630e-01 -1.7042652054721977e-01
      -3.1794239104958549e-01 -1.6253175483100973e-01
      -4.8721736390430054e-04 1.5695034972931410e-03
      3.0665569151314895e-03 -2.9583785422823286e-03
      -3.7910523057307311e-03 4.5718479974535828e-03
      3.5665455969571846e-04 -2.4202448106231305e-03
      -1.4261086448235461e-03 -2.0171180192568592e-03
      -4.5968751129071778e-03 4.4171951750943553e-03
      1.2320904960413388e-03 3.5341343560189938e-03
      -3.9385954484308719e-03 -1.7297231128445725e-03
      3.7629149970956808e-03 2.5196187096226982e-03
      -4.3568334708215103e-03 -2.8389498786241421e-03
      1.7688645723002746e-03 2.5812467413186302e+00
      -8.1257088965541471e-02 -1.2331523532340596e+00
      -5.6985638208316070e-01 9.8830704215543730e-01
      1.2791727743602027e-01 -1.3002524077411191e+00
      -4.0375782982391278e-01 -2.3364178432817084e+00
      1.6667471112216281e-01 2.2773599752204823e+00
      4.7233841285964934e-01 -3.5229628592214868e-01
      -1.8709107973415011e-02 9.9771632639797325e-01
      6.8025087657079292e-02 -7.4028604310025592e-01
      7.3823911241622631e-01 3.9335788308967257e-01
      6.9740956971346484e-04 7.5770217491872693e-04
      3.1800740337747549e-03 3.1697533301201070e-03
      -2.6720210168049673e-03 1.5808308206613985e-04
      2.6303286344783695e-03 -1.3425655107604901e-03
      1.8950587424748004e-04 3.5340524617963071e-03
      -8.0832420078749993e-04 -4.1059135871605312e-03
      -3.1948757896183124e-03 -1.8877700197161211e-03
      -1.7026362123634742e-03 -3.9309810223866464e-03
      -2.3738150603211366e-03 -2.0079748124298860e-03
      7.6645665699533454e-04 2.1946705014267241e-03
      -2.7747214411098873e-03 3.9224348551470762e-03
      -3.8865670288729557e-03 -3.4632495707114341e-03
      -1.5903927018402534e-03 3.1304677534544868e-03
      -2.7420621774814249e-03 2.3568989667577776e-03
      2.8921690358275571e-03 1.2019459714684233e-03
      -7.6321421684904286e-04 2.6462575665205036e-03
      -4.5613512034619174e-03 3.4748561887344731e-03
      2.4003236370224042e-03 -1.7309331084959950e-03
      2.4257610714700705e-03 -1.3859810556925379e-03
      -1.8050230713111232e-03 3.1460267832794332e-03
      -9.9452529139916635e-03 -1.5667970826105376e-01
      1.1598581098173076e-01 -1.7671280941854850e-01
      5.6179122626450265e-03 6.1534068119838881e-01
      -3.2120668251113399e-01 -6.9596995644093190e-02
      -1.5406376125270563e-01 -2.2403144585730198e-01
      8.4816115048456323e-04 -1.0344893613283636e-01
      -1.4481217169110755e-01 5.5148226226215558e-01
      1.0964112506261467e-01 1.3786734747408941e-01
      5.5262692488970658e-02 -6.8890586223573462e-03
      2.7436024803664977e-01 5.7270912956012568e-02
      4.0350868477125912e-01 1.7021882962479651e-01
      3.7450705983526089e-01 8.8525809795506213e-02
      1.3362031321147194e-01 -1.0930073345939589e-01
      -7.1423471155999702e-02 8.1902353719647825e-02
      1.8982144613204546e-02 -5.0666972031315226e-02
      1.7990626431551693e-01 -8.2230805436402335e-02
      -8.3424182009085107e-02 -7.2828612226944656e-01
      3.8080681132491806e-01 7.2089816676896096e-02
      2.7442223350522865e-01 -6.8557271783103613e-02
      8.3563939970338466e-02 1.5849319329256950e-01
      1.8021092562539384e-01 2.8288519520705857e-01
      2.0588328172872622e-01 2.3588179782124530e-01
      -7.3254257945642456e-02 2.7003353699678218e-01
      -2.0794260186387648e-01 -1.5191832975539224e-01
      1.6273671233990400e-01 -7.9471325590906611e-02
      -5.7855326918425612e-02 1.0757550371866196e+00
      -1.8350445164223791e-02 -2.7661739388248213e-01
      -1.6760107126885901e-01 1.4597682816150612e-01
      7.5117409279545599e-01 -6.3905477420028534e-01
      -1.7192016238938670e-01 -1.4135969883380617e-02
      3.0209873919122160e-01 1.9931132613934444e-01
      8.4337086973366837e-02 8.2654406470163616e-02
      3.5081257746346994e-01 2.9674034035762757e-03
      1.0523235045083849e-01 1.0862283380855757e-01
      1.0426407003471452e-01 -3.1883428662053176e-01
      4.2547890752565176e-01 -6.2243635851905767e-02
      -1.3691877783135079e-01 -2.2341102089186268e-01
      6.4520255925655957e-03 2.1350822838540445e-01
      2.0060177975388879e-03 -2.0480073288098335e-01
      6.5407968118353610e-01 2.8781976788019548e-01
      -4.1220305582364325e-01 -1.7514980679273331e-01
      1.2187732865239709e+00 -2.2202651243304852e-02
      1.2593915617446527e+00 4.5135690178863666e-02
      1.5587008233418201e-01 -9.7450030916486047e-02
      -8.8110445010739613e-02 -2.1619198414185897e-03
      -8.1903928839013290e-02 -4.2447161352080508e-02
      8.2841909089225479e-02 1.2527530597384365e-01
      1.2402193579747685e-01 2.3952378903297128e-01
      1.2416826450579486e-01 8.7209325609651625e-02
      1.8214840591493395e-01 3.0170211550519238e-01
      -1.0089569416629285e-01 3.4025522406064934e-02
      -4.8898702501037138e-02 1.2599467255396338e-01
      -2.1384015769531667e-02 -2.2500054914817391e-01
      -2.8802890377403456e-01 -1.7744553718678951e-01
      -8.0751517741011219e-02 2.9909445630856756e-02
      -4.6851076936201615e-02 -1.6718970179277481e-01
      1.7699502586243526e-01 1.5375233998697024e-01
      2.7183334184124164e-01 2.0522095324676992e-01
      3.8603520122142210e-01 4.8862147394769996e-02
      5.3119559750260968e-02 4.0904268559780127e-01
      -2.2609646870744671e-01 1.2654723248509034e-01
      -1.0545395656137425e-02 2.7046880350870950e-01
      -7.1884856992980431e-02 -2.0050345007289117e-01
      -4.8926668261378820e-01 -2.2472008130061277e-01
      -2.9621075641298789e-01 -1.0483094461201277e-01
      6.5409049626197008e-02 -1.5582284018626514e-02
      4.5374646244774669e-01 5.2300295152834531e-01
      2.0918640320336554e-01 8.2808815231513275e-02
      8.7765907721056247e-02 -5.9146332492932045e-02
      1.4335310401759119e-01 2.9095234645385520e-02
      -1.0127390771291382e-01 1.6623650214715524e-01
      1.5659595193432516e-01 -9.4485564750222462e-02
      4.7696929014003303e-01 7.9903706272298841e-02
      -2.6633919207278700e-01 -9.8524621524046091e-02
      -1.9078720908556343e-01 3.2190172336695994e-02
      3.8250550222413798e-01 5.1258866369658540e-02
      -1.0446734505853950e-02 -4.1780757510436167e-01
      1.4084383078039120e-01 -7.3829559190763741e-02
      1.0764475966978121e-01 -2.0592261406388184e-02
      1.5094941916979510e-01 8.8505343804801767e-02
      6.5010332128948939e-02 2.3198463079135048e-01
      3.1148501992745291e-02 -3.8872803825113972e-01
      5.0477185336706219e-02 8.6239870649334693e-02
      -3.9833733892157983e-02 2.7385746787379001e-01
      4.4480993440372291e-02 2.0955525542897629e-01
      -6.7179595169047951e-02 -1.5367579273392601e-01
      -1.0575345709008918e-01 -3.7410075320483593e-01
      7.3241799486402373e-02 -6.2326065721584570e-02
      -7.8122757082988037e-01 7.7824845017568617e-02
      9.5565039075519539e-02 1.5306678699270135e-01
      7.7304792618891630e-02 3.6037420711601282e-04
      9.5521238377276104e-03 -1.7070655206677302e-01
      1.0709146467191631e-01 -1.2107844070546148e-02
      -1.3695913418077107e-01 -1.1881054318951957e-01
      5.6007004729295727e-02 2.9405287850941492e-01
      -3.0662835638688768e-01 2.4205037105844163e-01
      -3.5925354332827258e-02 -1.1051714234619565e-01
      1.6819717038525417e-02 1.0432927832648231e-01
      1.4692095598720750e-01 -4.8217875811507926e-01
      -1.8310727330700935e-01 -2.8255906749433157e-01
      7.9010895518772328e-02 5.5170761660769112e-02
      -8.0863668682269289e-03 4.0935587636374510e-01
      1.0221280368341970e-01 -1.8075725389529455e-02
      2.3775710248271489e-02 1.0485612093255600e-01
      -2.3621965739761339e-01 1.9814642981881750e-01
      -1.8723447295523357e-01 8.2455636504395824e-01
      -1.1951126861276333e-01 -2.1787953934802953e-01
      -1.8189705207396090e-01 -4.6780834570380431e-02
      1.4853447723198226e-02 -2.6600758720130385e-01
      -1.2834902436112583e-01 -1.0457841707993959e-01
      9.8077145448101655e-01 3.2697552969869037e-01
      1.9652230324085890e-01 -2.1489706998042626e-01
      1.2843810047337423e-01 3.6758323926301190e-01
      -2.9906056860941649e-01 5.4909294571731893e-01
      1.4360363610038282e-01 1.4020348372388694e-01
      1.1740257288134051e-01 -5.5037777983119693e-02
      -9.1200050229155505e-02 -2.0788459957912805e-01
      -3.5527772467178098e-01 3.2761738843538071e-02
      -5.2499749326489853e-01 2.9884748320897747e-01
      -2.6163796958561375e-01 -2.2482606789414515e-02
      -2.5970485006147381e-01 1.7403197505371162e-01
      4.3172803743978266e-01 -8.7601687498853731e-01
      -2.5261218090846999e-01 -4.9212520194890662e-02
      3.8550531835176954e-01 -2.3010938736349607e-01
      -1.0826548664851340e-01 1.7517721058093020e-02
      6.0793686454280105e-01 -8.3900614888743230e-01
      2.5915468735961078e-01 5.0519826746783747e-01
      -3.3518893536261568e-01 -3.9656143246802522e-01
      1.7430716338643877e+00 -6.9796383424736347e-02
      -1.8490315943868177e-01 3.3708185640907218e-02
      -1.0276179803273215e-01 -1.2315932669778418e-01
      -2.0031834500342727e-01 -2.3553040571530104e-01
      -1.4883036364613564e-01 5.4019945909807798e-02
      5.0235958273527925e-01 -3.5005481250241743e-01
      -5.7233330723080698e-02 -2.0382345023263490e-01
      9.7044945139597855e-02 -1.3618539048776255e+00
      1.6108970008113091e-01 -1.7246527099900805e-01
      -4.9291782196400458e-02 -3.2736110483447273e-01
      2.7271569839325938e-01 -3.8571949832803001e-02
      5.0094663872545117e-02 -6.7598187656901954e-02
      1.6690946054595879e-01 6.2456151393513473e-02
      -1.9354562494373831e-01 -1.2654560900010278e-01
      -1.1162400789901203e-01 -4.5766642178496006e-02
      6.5418987771001269e-01 -2.2236795226464917e-01
      -6.6342808819020715e-02 -1.2520418872924627e-01
      -2.5576052046640686e-02 2.2707097890638930e-02
      3.6826197979970034e-02 2.3707864517810159e-01
      -9.2844351209192821e-02 -2.4174059658961022e-01
      4.0924272809180073e-01 -7.5136194604844483e-02
      7.2009972074025375e-02 -8.6331216619031259e-02
      -1.2485229921837791e-01 -1.9288744850237766e-01
      1.9805770846060117e-01 -7.9831630825709612e-02
      1.6008885476759566e-02 -8.2270162412425400e-03
      1.1980327500774954e-01 -1.0782715196086071e-01
      2.9489792911691226e-01 -7.1817290830661129e-02
      -1.6359826889811424e-01 8.8329149709783880e-02
      -6.5188116204521729e-01 3.1985873603071570e-02
      -3.6748366168317385e-02 -3.0710845011256027e-01
      5.3348288847445546e-01 -2.1004974087185715e-01
      -2.2604130687019147e-01 -5.2489679424829593e-02
      7.3163698398616829e-04 2.5814614645580360e+00
      -8.9548281665679699e-02 -1.2322378018700360e+00
      -5.6473807279258736e-01 9.8254711030142661e-01
      1.2731151259372919e-01 -1.3044341655637055e+00
      -4.0625798195840040e-01 -2.3325882645941598e+00
      1.6706969086938878e-01 2.2772618603715027e+00
      4.6856861572939518e-01 -3.5739719877427045e-01
      -1.3502618318757622e-02 1.0022472454602662e+00
      6.4801895195489317e-02 -7.4121218368242292e-01
      7.3464344110731317e-01 3.9017690996221777e-01
      -2.7077816208552203e-04 2.5817260090884910e+00
      -8.6803805525303437e-02 -1.2284779041960985e+00
      -5.7339788790749580e-01 9.8235805874500903e-01
      1.2621943428761701e-01 -1.3029864983844401e+00
      -3.9990654433502332e-01 -2.3350873780449866e+00
      1.6166047939231021e-01 2.2749106751182739e+00
      4.6854819698924072e-01 -3.5613749204894651e-01
      -1.2999688563648800e-02 1.0008969399718952e+00
      6.5495681439752845e-02 -7.4081566308749658e-01
      7.3484311933970681e-01 3.9152630656414622e-01
      3.0721569679851711e-03 2.5746670728851602e-03
      1.0257840712577505e-05 -1.5106834157119842e-03
      -2.6794705771766673e-03 3.2695857413007111e-03
      9.3064874734255759e-04 2.1566687045613190e-03
      1.4243604572017801e-03 -4.4758940849979055e-04
      3.1068174414958581e-03 -2.4478102859808856e-03
      6.9761128124491402e-05 -5.8505859925727939e-04
      -4.3863810125631102e-03 -4.4700147900504344e-03
      3.0250762409425014e-03 -9.0702699643163784e-04
      2.3258133658944418e-03 2.4563392529218940e-03
      1.8629374320131595e-03 -4.9564187943283277e-04
      3.4617419692254481e-03 4.2506931457555767e-03
      2.0203800388544227e-03 2.7901425409711461e-03
      -1.4001932730078957e-03 3.7577456765189332e-04
      6.1400018283374442e-04 2.6236583342169346e-03
      7.3419111432426927e-04 4.4715111980279413e-03
      -2.6968291994383825e-03 -1.3324030509991047e-03
      -1.0300759980692146e-03 -1.9729249973979629e-03
      3.5915697918056304e-03 3.0712186895812915e-03
      2.4431906216614446e-03 3.8544892924501748e-03
      1.3598393112335903e+00 -4.1432259233749907e-01
      1.3485932239555190e-01 -3.4175356730022716e-01
      -3.3423940689840781e-01 3.1855592242728853e-01
      -2.1030927302897975e-01 3.9214564052037038e-01
      3.8280846122452633e-01 -9.3624501886465705e-02
      -1.9188643391411217e-01 -1.1403382646760919e-01
      6.8950308593054982e-02 3.4070713172948658e-02
      -2.9903873455784630e-02 4.8695375300122934e-01
      -1.5719049983810074e-01 -1.2889571127150468e-01
      -4.0369366887676994e-01 2.1177527132621593e-01
      -2.5624634446547595e-01 -8.7092172558355579e-02
      -1.5853816322186706e-01 -3.7969193014398890e-02
      7.7337573864032491e-02 2.6283364825828354e-02
      2.0028739934226633e-01 -1.2391438254350953e-01
      -1.7625104135034833e-01 -1.5635770085691064e-01
      -1.2117754123731057e-01 -5.0806096847628168e-01
      -1.4706767355167913e-01 -8.2955902494885131e-02
      8.9802899723061366e-02 -9.5595571288572129e-02
      -2.5873119680297790e-01 1.7152790793035774e-02
      -1.0203165165753636e-01 3.1700807560995976e-02
      8.8739071423140817e-02 7.6774935539676681e-02
      1.6004239214502095e-01 3.3674503679782841e-01
      9.1103756942829683e-02 7.3702387174266869e-03
      -1.1044429239849284e-01 1.9134464146001567e-01
      1.4953275675294389e-01 2.7464176285704318e-02
      3.0667373768865169e-01 -3.0159298459996584e-02
      5.1502850648196423e-02 2.4965100676503488e-01
      2.4560341660894883e-02 3.2438493303897359e-01
      9.6238174917933239e-02 -2.2752101797210367e-02
      1.1580233443209846e+00 1.3159542946973801e-01
      -5.0089459329254593e-01 1.9606011018413258e-01
      4.5157507438108302e-01 -7.0747328504085216e-02
      -1.9440464507731992e-01 5.2061734735697673e-01
      -3.7867824998492072e-01 -6.0545197137991391e-02
      4.5694615978680314e-01 -1.2910557152820185e-01
      8.6105876121390279e-01 2.2684877775272703e-02
      1.5424643973319238e-01 -3.0655123360411145e-02
      2.4664324962470044e-01 6.7521593666266977e-01
      1.2175316638137537e-01 8.9590631070707560e-01
      1.8544246966216626e-01 1.9594837489919684e-01
      -5.3369935983326988e-01 -1.4364828474456942e-01
      -3.1286445492693388e-01 -1.2142508699424138e-02
      -1.7304405089231764e-01 2.9272102256457398e-02
      1.8093414614228634e-01 -1.5646899162621852e-02
      -9.1732777839913099e-02 3.3569220742068931e-02
      -4.6674589091731132e-02 4.0937185952559595e-02
      -1.9374454894465529e-01 8.6195283575237480e-02
      1.2357102580060388e-01 6.0822370327244010e-02
      2.1853721367737677e-01 8.6741686282529082e-02
      -2.1189547508108747e-01 -7.4006016935827847e-03
      -1.5679589386539597e-01 5.3076885669113838e-02
      -4.8567424980619799e-02 1.7767564290965560e-01
      2.7361972786423615e-03 -6.9014127159465394e-02
      -4.3867195456947183e-01 -1.5289577169069926e-01
      -6.2479722232390546e-02 3.6503045181128561e-02
      1.2422546520842234e-01 -1.3423082973956316e-01
      1.0717431924800552e-01 2.0329024773800741e-01
      1.7768051820584881e-02 3.2525672401009498e-01
      -1.0752873324603993e-02 3.7390624309068185e-02
      -2.5217882237372424e-01 2.3160444088902085e-01
      -1.9967445341660944e-01 1.0221944275127913e-01
      -1.0492497823384416e-02 2.1720438279186152e-01
      -6.9669418013135857e-03 -2.1348585461094469e-01
      -4.8374194215939320e-01 -1.0262204509142502e-01
      -2.8938430540191423e-01 -9.9953952993537779e-02
      1.9690724586140068e-01 -6.6202429745150391e-03
      3.5637432410630854e-01 2.2941585315874177e-01
      1.3794616351351055e-02 3.8342967896075476e-02
      7.5978709563796279e-02 3.7775259137001022e-01
      -1.0800458920504508e-01 1.0156712009879364e-01
      -2.4866379792597304e-01 3.0665104296154844e-01
      2.8187105686061442e-01 -4.5116384061068666e-02
      3.3728672096166541e-02 -9.2689948475920464e-02
      -2.4556706215075849e-01 4.2072102989601741e-02
      1.9284922526503093e-01 -1.3445517188252584e-01
      6.7667550439202939e-01 -2.1069426738715327e-01
      3.1907167312630318e-02 1.8298364347684289e-02
      1.0095434964462251e-01 1.1430426292419678e-01
      1.0237958369872049e-01 -6.7018525167190646e-02
      3.6714192173523474e-01 1.4338197776088668e-01
      4.5939248118839629e-03 2.2688668123875613e-01
      2.0017991624439294e-02 -3.8474468432544301e-01
      5.5757072731979294e-02 3.1263808459328850e-02
      -2.0925929276594868e-01 1.2006668023399679e-01
      5.1237774156349787e-02 1.6682144921107675e-01
      -1.4303180319868536e-01 -1.0145087810374299e-01
      4.1639107192042418e-02 -8.2692250095522613e-02
      8.7003560582465153e-02 1.1923474553820179e-01
      -4.7892431404358643e-01 -2.4625617840865122e+00
      2.9408686444662618e-01 1.3704476246141872e-01
      1.0266147876086945e-01 8.0803860571732090e-03
      1.3771189005037435e-01 -5.9913640007017055e-01
      9.2929892104603840e-02 2.3784938470417810e-01
      -6.1292625920551305e-02 5.0756163422300792e-02
      5.1836469409570915e-02 2.6847471036941273e-01
      -1.9149184646294778e-01 2.1362270361058391e+00
      -2.4316426353508455e-01 -2.9924017618332664e-02
      -3.5204047499429608e-01 4.2513361740240646e-01
      9.4036614816934525e-02 -1.6331208238209955e+00
      -6.8372635855085040e-01 -3.0369666354316688e-01
      3.7597330585128702e-01 3.2587360780581609e-01
      3.8895033728267869e-01 4.2883991843484548e-01
      1.0264283930993286e-01 2.5122422090484064e-01
      -3.1439583966999723e-02 -4.4139801264307506e-02
      -4.6190810223186307e-01 4.3499029631920755e-01
      -1.9058049563157323e-01 1.2098726744732964e+00
      -1.0250426622091630e-01 -2.4550996362511215e-01
      2.1741927722349647e-02 1.7529689391975223e-01
      8.9016255236827865e-02 -6.5773027023576902e-02
      -3.0136353134499977e-01 -4.2237102049777192e-01
      7.9122734371381687e-01 3.3748701519772467e-01
      7.8157738988110612e-02 -2.1356024177854654e-01
      1.2423683850369416e-01 7.6912347132760894e-01
      1.2488588239726929e-01 5.4940071124255330e-01
      1.3951527784662734e-01 9.3666077561259400e-02
      2.4817231517818555e-01 8.4472406325298482e-02
      -1.1741415051733765e-01 -6.7557685355192132e-02
      -5.5652187339595233e-02 -7.3038723527440785e-02
      -1.3040287729959665e-01 2.3881296508285038e-01
      -2.7423522403016914e-01 2.3486517509953224e-02
      -1.7913206759824502e-01 2.8771119142818963e-01
      9.4780191973574590e-01 -3.8622377877761856e-02
      -1.7020674070071301e-01 1.4064316781168172e-02
      4.1586751085031098e-01 -5.5651229401603615e-02
      1.2289300180737531e-01 8.9756295786357160e-02
      7.6067267664924909e-01 3.6898630717204089e-02
      5.7318715752937288e-01 1.9050454261781236e-01
      -5.2703645628816506e-02 1.9608964655103353e-02
      3.7124408334055148e-01 -3.4837546310302647e-01
      1.1480317952991406e-01 9.1473294585676768e-02
      -1.0707390780444719e-01 -1.1540802164913103e-01
      -3.1011033993348247e-01 -3.1760537785633647e-01
      -7.7655133010084226e-02 -3.4763623019358719e-01
      6.9165709556713389e-02 -2.4134326758164873e-01
      -1.2058882517298489e-01 -1.2748454077216279e-01
      -2.6158525364912678e-03 -5.0516486379663161e-01
      1.0126631425824417e+00 8.1561365259039176e-02
      2.2141048812164680e-03 -1.3174066879911547e-01
      2.7667443112373757e-01 -8.9680160548638484e-03
      -1.5846673997851765e-01 -9.5017445307519766e-02
      1.6730131249520047e-01 5.9539448117955848e-02
      -1.0674412638333290e-01 -1.3021051578697718e-01
      -8.6057942953269864e-02 -3.1545491114174640e-01
      -5.7261357990256267e-01 -3.7199942978276823e-01
      -7.1484804113579187e-02 1.4545526774107112e-01
      1.6615975268780181e-01 -3.5373776158108561e-01
      -1.9094169767820698e-01 -2.5092110431785161e-02
      -1.1660780707445045e-01 -1.5779700572804242e-01
      5.4084896181781550e-01 -9.2134732659180110e-02
      -2.1723348421281971e-01 -7.4258874583997270e-02
      1.7831415449809701e-01 -4.2744179739823873e-01
      2.7976019367184418e-01 -5.8094611019385296e-02
      1.8903306159399272e-01 -5.5953079481085292e-02
      -8.9090917116705387e-02 -5.2349587690556310e-01
      2.2387973588380103e-01 4.3066233965673967e-02
      1.0322417165182152e-01 -1.0309580212536087e-01
      -1.7921743359684836e-01 2.1144991126972205e-02
      1.5278674822202395e-02 -2.7430310834394600e-01
      5.9419053062119774e-02 -1.4357182886426628e-01
      1.0639136086641699e-03 -4.1692879328076256e-02
      1.4373217631788065e-03 2.5855698686221689e+00
      -8.9132111792077653e-02 -1.2283183235366277e+00
      -5.6675982275932524e-01 9.8414575857015241e-01
      1.3022417755414506e-01 -1.3061415284787707e+00
      -4.0105202427663328e-01 -2.3331190628880321e+00
      1.6805979983350056e-01 2.2742345099458379e+00
      4.7546675637995445e-01 -3.5887012516036765e-01
      -1.8796788757445469e-02 9.9855695313774551e-01
      6.6906675155261747e-02 -7.4137569260536418e-01
      7.3732202437227101e-01 3.9171050272015429e-01
      1.3778050546237074e-03 2.5860646322113188e+00
      -8.1798277949802586e-02 -1.2289989700600847e+00
      -5.6540997551580086e-01 9.8277122825300267e-01
      1.2709817703428905e-01 -1.3049765089365502e+00
      -4.0209676038265491e-01 -2.3345593438658483e+00
      1.6576779435305272e-01 2.2790661115361384e+00
      4.6916018339126359e-01 -3.5804673894075179e-01
      -1.3718140597541530e-02 9.9546812531755069e-01
      6.6720912924543324e-02 -7.4745430539992241e-01
      7.3469545315440243e-01 3.9028741765776742e-01
      2.6869304228997813e-03 1.1017237898110243e-03
      -4.3885770375949997e-04 3.0173101308260445e-03
      4.6516782277585709e-03 -1.4432181157577086e-03
      3.7550385120938023e-03 -4.0824339839928142e-03
      -2.5059824706508212e-03 2.4041747519163646e-04
      -4.1112950818545423e-03 4.6592088158678808e-03
      -1.2677508651507577e-03 -4.9569736236211833e-05
      3.1630284025804000e-03 2.3170442661711839e-03
      1.9911783598851917e-03 1.2265980571336773e-03
      -1.8370709663520508e-03 3.4631057682757833e-04
      4.3773700641488071e-03 3.0660842367787066e-03
      -3.7403191858642981e-03 1.8408985628947450e-03
      3.1292085683723252e-04 -1.1789092160867638e-03
      4.1388564297290707e-03 1.4543282971532202e-03
      -1.1026260391622493e-04 -2.7091455371737951e-03
      -1.7216297453072535e-03 -8.9769475965079874e-04
      1.5525545917509491e-03 3.2423450497656710e-03
      3.8826565238687092e-03 -3.5651328633970157e-03
      -3.6081419306062345e-03 4.4255703018656299e-03
      -4.5952379926735763e-04 3.2644040040018702e-04
      -3.5286226722884595e-01 -1.4477120739096427e-01
      5.5518424733313997e-03 2.8732369795864299e-02
      -2.6504223174157879e-02 3.2286495407957819e-02
      -9.9929472232095473e-02 -1.2882062524435491e-02
      -5.4037574752208062e-01 3.0220285408931319e-01
      -1.2068395550600382e-01 2.5970481948674240e-01
      -1.5758545290487364e-01 -8.6555186639968501e-02
      4.8800478237314759e-01 2.8790911952765286e-02
      -8.4080433389968914e-02 6.8006112854519761e-03
      5.2400533121587489e-01 -2.2366088419790806e-02
      -3.4215588208372938e-01 6.6128440701030161e-02
      5.2772109185115379e-01 -3.2160185851461909e-01
      2.9492293452790591e-01 4.1089023165431221e-01
      -3.9189765434045504e-01 2.4920930020325574e-01
      3.2929369837590033e-01 3.0347556411812332e-01
      2.3929016348406721e-02 -3.7199180875224475e-01
