<?xml version="1.0"?>
<opencv_storage>
<my_svm type_id="opencv-ml-svm">
  <svm_type>C_SVC</svm_type>
  <kernel><type>LINEAR</type></kernel>
  <C>1.</C>
  <term_criteria><epsilon>2.2204460492503131e-16</epsilon>
    <iterations>1000</iterations></term_criteria>
  <var_all>3399</var_all>
  <var_count>3399</var_count>
  <class_count>2</class_count>
  <class_labels type_id="opencv-matrix">
    <rows>1</rows>
    <cols>2</cols>
    <dt>i</dt>
    <data>
      0 1</data></class_labels>
  <sv_total>48</sv_total>
  <support_vectors>
    <_>
      145. 193. 237. 253. 254. 254. 255. 254. 236. 211. 247. 254. 252.
      241. 252. 245. 240. 213. 187. 156. 113. 95. 87. 89. 90. 84. 63.
      35. 37. 36. 44. 45. 45. 47. 47. 55. 99. 102. 100. 50. 38. 44. 73.
      75. 76. 81. 109. 143. 158. 162. 165. 158. 148. 156. 186. 233. 213.
      180. 108. 21. 36. 64. 90. 99. 111. 115. 120. 132. 132. 132. 132.
      131. 131. 132. 132. 132. 132. 132. 133. 133. 132. 132. 132. 132.
      132. 132. 132. 132. 132. 132. 132. 132. 132. 132. 132. 132. 131.
      131. 132. 132. 132. 132. 132. 160. 184. 208. 244. 252. 255. 252.
      252. 220. 213. 246. 252. 250. 244. 250. 251. 241. 210. 184. 157.
      113. 91. 78. 83. 88. 78. 61. 36. 36. 38. 45. 45. 41. 48. 53. 65.
      97. 111. 110. 85. 35. 50. 82. 109. 121. 134. 134. 144. 141. 149.
      164. 164. 159. 153. 173. 213. 208. 183. 113. 22. 38. 67. 92. 101.
      109. 115. 121. 131. 131. 132. 132. 132. 133. 133. 132. 131. 131.
      131. 131. 131. 132. 132. 132. 132. 132. 132. 132. 132. 132. 132.
      132. 132. 132. 132. 132. 132. 132. 132. 133. 133. 132. 132. 131.
      136. 158. 171. 189. 209. 235. 247. 235. 206. 208. 240. 255. 254.
      253. 252. 250. 240. 209. 185. 157. 114. 90. 69. 72. 78. 67. 53.
      28. 27. 33. 37. 37. 38. 24. 33. 52. 65. 99. 118. 124. 118. 125.
      134. 137. 136. 147. 152. 162. 169. 172. 184. 173. 159. 135. 158.
      202. 202. 179. 103. 6. 27. 61. 88. 96. 104. 111. 116. 124. 123.
      123. 123. 123. 124. 123. 122. 122. 121. 121. 121. 122. 124. 124.
      124. 124. 124. 124. 124. 124. 124. 124. 124. 124. 124. 124. 124.
      124. 123. 123. 123. 123. 123. 122. 121. 156. 149. 138. 143. 161.
      181. 207. 208. 206. 205. 235. 252. 248. 253. 255. 249. 241. 214.
      190. 159. 118. 94. 66. 64. 72. 64. 48. 19. 19. 27. 26. 28. 18. 22.
      35. 44. 56. 89. 107. 124. 124. 135. 154. 155. 164. 164. 175. 181.
      180. 182. 198. 185. 166. 124. 141. 185. 194. 175. 103. 7. 27. 58.
      82. 91. 95. 104. 106. 112. 111. 111. 111. 111. 111. 111. 110. 110.
      109. 110. 110. 110. 110. 110. 110. 110. 110. 110. 110. 110. 110.
      110. 110. 110. 110. 110. 110. 110. 110. 110. 111. 111. 111. 110.
      110. 161. 155. 122. 106. 100. 131. 164. 180. 192. 206. 236. 242.
      242. 249. 255. 253. 248. 219. 191. 160. 126. 98. 68. 64. 71. 67.
      45. 12. 12. 18. 13. 19. 11. 7. 28. 35. 33. 50. 85. 111. 135. 149.
      170. 164. 169. 161. 187. 205. 219. 206. 208. 186. 166. 122. 131.
      175. 180. 167. 103. 11. 14. 36. 59. 74. 80. 88. 85. 84. 80. 80.
      79. 80. 80. 80. 80. 80. 80. 80. 80. 80. 80. 80. 80. 80. 80. 80.
      80. 80. 80. 80. 80. 80. 80. 80. 80. 80. 80. 80. 80. 80. 80. 80.
      80. 171. 168. 152. 139. 122. 122. 141. 165. 189. 217. 234. 224.
      238. 248. 252. 255. 251. 215. 185. 159. 135. 98. 72. 69. 71. 63.
      36. 7. 6. 9. 5. 13. 11. 10. 33. 48. 44. 8. 10. 45. 97. 139. 175.
      181. 175. 171. 206. 238. 242. 215. 207. 182. 165. 127. 123. 164.
      174. 162. 106. 20. 3. 12. 29. 44. 53. 62. 56. 50. 45. 45. 44. 45.
      45. 45. 45. 45. 45. 45. 45. 45. 46. 46. 46. 46. 46. 46. 46. 46.
      46. 46. 46. 46. 46. 46. 46. 46. 45. 45. 44. 44. 44. 44. 45. 181.
      171. 164. 156. 155. 146. 151. 172. 207. 228. 224. 209. 233. 247.
      250. 254. 244. 208. 177. 156. 145. 103. 80. 75. 72. 55. 28. 10. 8.
      8. 11. 19. 21. 25. 50. 64. 56. 26. 21. 50. 99. 149. 179. 183. 172.
      179. 217. 249. 255. 214. 192. 169. 157. 132. 115. 154. 161. 154.
      111. 38. 5. 2. 5. 12. 37. 51. 51. 48. 44. 45. 45. 47. 45. 45. 45.
      45. 45. 45. 45. 45. 45. 45. 45. 45. 45. 45. 45. 45. 45. 45. 45.
      45. 45. 45. 45. 45. 45. 45. 45. 45. 45. 45. 45. 171. 172. 171.
      174. 174. 172. 162. 180. 204. 217. 215. 214. 240. 254. 253. 254.
      234. 203. 175. 156. 152. 110. 89. 78. 70. 44. 19. 13. 10. 11. 20.
      27. 36. 55. 80. 91. 79. 49. 28. 63. 109. 163. 188. 183. 172. 185.
      227. 255. 248. 197. 168. 151. 151. 139. 111. 143. 153. 151. 118.
      52. 7. 1. 4. 10. 45. 64. 69. 69. 65. 65. 62. 63. 64. 64. 64. 63.
      64. 64. 64. 64. 64. 64. 64. 64. 64. 64. 64. 64. 64. 64. 64. 64.
      64. 64. 64. 64. 63. 64. 64. 64. 64. 64. 64. 159. 161. 168. 185.
      205. 206. 183. 188. 191. 208. 202. 215. 244. 255. 252. 250. 215.
      183. 167. 162. 153. 113. 100. 67. 53. 39. 17. 21. 22. 27. 35. 46.
      53. 92. 111. 124. 114. 79. 55. 76. 117. 159. 188. 193. 176. 178.
      206. 238. 209. 173. 130. 149. 147. 143. 112. 132. 149. 146. 127.
      63. 0. 2. 0. 12. 50. 70. 75. 79. 76. 75. 76. 76. 76. 76. 76. 76.
      76. 76. 76. 76. 76. 76. 76. 76. 76. 76. 76. 76. 76. 76. 76. 76.
      76. 76. 76. 76. 76. 76. 76. 76. 76. 76. 76. 142. 149. 165. 199.
      231. 236. 213. 194. 178. 173. 184. 207. 242. 253. 255. 242. 200.
      173. 167. 163. 157. 117. 96. 56. 45. 28. 25. 25. 37. 35. 46. 54.
      74. 131. 153. 163. 137. 99. 71. 90. 126. 166. 191. 200. 180. 172.
      181. 199. 183. 147. 102. 147. 149. 150. 108. 117. 145. 144. 132.
      67. 3. 1. 0. 9. 50. 68. 72. 70. 68. 69. 70. 68. 69. 69. 69. 69.
      69. 69. 69. 69. 69. 69. 69. 69. 69. 69. 69. 69. 69. 69. 69. 69.
      69. 69. 69. 69. 69. 69. 69. 69. 69. 69. 69. 135. 146. 164. 206.
      244. 253. 246. 218. 188. 154. 150. 161. 207. 249. 255. 237. 184.
      163. 169. 163. 154. 114. 90. 50. 46. 35. 36. 48. 50. 58. 61. 80.
      114. 167. 179. 184. 152. 116. 78. 89. 123. 168. 195. 209. 188.
      173. 166. 171. 159. 126. 82. 151. 153. 157. 110. 115. 148. 144.
      134. 64. 0. 0. 2. 12. 38. 48. 51. 47. 49. 50. 51. 51. 50. 50. 50.
      50. 50. 50. 50. 50. 50. 50. 50. 50. 50. 50. 50. 50. 50. 50. 50.
      50. 50. 50. 50. 50. 50. 50. 50. 50. 50. 50. 50. 144. 152. 166.
      205. 243. 250. 255. 242. 207. 171. 125. 115. 169. 216. 240. 212.
      184. 159. 165. 160. 155. 121. 98. 65. 63. 56. 54. 61. 67. 77. 102.
      140. 170. 205. 205. 196. 157. 117. 68. 75. 117. 167. 202. 216.
      201. 183. 171. 164. 140. 109. 77. 153. 152. 154. 106. 113. 146.
      143. 132. 65. 1. 0. 2. 7. 25. 27. 26. 22. 24. 21. 19. 21. 21. 21.
      21. 21. 21. 21. 21. 21. 21. 21. 21. 21. 21. 21. 21. 21. 21. 21.
      21. 21. 21. 21. 21. 21. 21. 21. 21. 21. 21. 21. 21. 156. 156. 165.
      206. 249. 250. 251. 251. 233. 183. 136. 88. 127. 185. 214. 214.
      182. 159. 164. 158. 148. 117. 101. 84. 90. 92. 91. 102. 113. 111.
      129. 158. 192. 209. 209. 192. 161. 124. 64. 56. 114. 163. 199.
      210. 207. 186. 170. 145. 110. 83. 74. 142. 149. 149. 106. 112.
      143. 142. 124. 67. 3. 2. 1. 4. 12. 21. 24. 22. 22. 21. 20. 21. 21.
      21. 21. 21. 21. 21. 21. 21. 21. 21. 21. 21. 21. 21. 21. 21. 21.
      21. 21. 21. 21. 21. 21. 21. 21. 21. 21. 21. 21. 21. 21. 164. 160.
      163. 203. 250. 251. 244. 251. 238. 199. 149. 100. 89. 148. 179.
      189. 180. 168. 172. 170. 160. 136. 122. 113. 124. 129. 119. 115.
      111. 113. 138. 166. 196. 205. 207. 188. 167. 137. 75. 49. 114.
      157. 189. 197. 205. 184. 161. 120. 88. 71. 76. 118. 135. 136. 110.
      111. 135. 139. 119. 74. 11. 0. 0. 6. 12. 34. 37. 39. 35. 36. 38.
      36. 36. 36. 36. 36. 36. 36. 36. 36. 36. 36. 36. 36. 36. 36. 36.
      36. 36. 36. 36. 36. 36. 36. 36. 36. 36. 36. 36. 36. 36. 36. 36.
      181. 170. 155. 185. 230. 244. 243. 248. 239. 203. 159. 114. 66.
      114. 139. 161. 155. 154. 156. 165. 171. 162. 140. 121. 123. 122.
      118. 103. 99. 112. 137. 143. 166. 182. 192. 186. 168. 143. 96. 69.
      117. 157. 183. 189. 195. 172. 150. 110. 89. 80. 82. 95. 120. 124.
      114. 102. 118. 133. 125. 97. 36. 2. 1. 11. 25. 45. 39. 44. 36. 36.
      36. 33. 36. 36. 36. 36. 36. 36. 36. 36. 36. 36. 36. 36. 36. 36.
      36. 36. 36. 36. 36. 36. 36. 36. 36. 36. 36. 36. 36. 36. 36. 36.
      36. 199. 180. 146. 165. 209. 236. 242. 240. 234. 206. 164. 127.
      67. 52. 81. 95. 117. 133. 141. 152. 157. 153. 130. 109. 111. 116.
      100. 72. 24. 68. 109. 138. 150. 164. 173. 184. 174. 149. 107. 75.
      117. 157. 179. 182. 176. 152. 135. 105. 96. 91. 85. 85. 122. 132.
      130. 102. 112. 132. 133. 112. 53. 4. 7. 25. 52. 63. 50. 67. 64.
      63. 65. 65. 64. 64. 64. 64. 64. 64. 64. 64. 64. 64. 64. 64. 64.
      64. 64. 64. 64. 64. 64. 64. 64. 64. 64. 64. 64. 64. 64. 64. 64.
      64. 64. 211. 192. 154. 145. 185. 214. 240. 241. 232. 204. 172.
      133. 68. 56. 40. 18. 12. 8. 27. 101. 124. 133. 101. 71. 70. 55.
      35. 22. 10. 44. 91. 117. 137. 149. 162. 176. 178. 156. 116. 80.
      110. 157. 174. 177. 157. 141. 120. 113. 99. 93. 91. 85. 116. 128.
      130. 111. 105. 133. 134. 123. 71. 4. 6. 37. 63. 77. 77. 78. 86.
      86. 84. 86. 85. 85. 85. 85. 85. 85. 85. 85. 85. 85. 85. 85. 85.
      85. 85. 85. 85. 85. 85. 85. 85. 85. 85. 85. 85. 85. 85. 85. 85.
      85. 85. 215. 205. 175. 150. 161. 185. 212. 213. 216. 198. 167.
      133. 74. 71. 65. 52. 37. 29. 24. 19. 10. 6. 28. 62. 69. 64. 46.
      23. 22. 10. 43. 94. 121. 140. 157. 167. 174. 165. 140. 101. 98.
      145. 162. 165. 145. 132. 123. 116. 111. 100. 94. 91. 110. 116.
      121. 113. 112. 136. 143. 133. 85. 5. 7. 46. 72. 90. 98. 101. 105.
      104. 103. 105. 105. 105. 105. 105. 105. 105. 105. 105. 105. 105.
      105. 105. 105. 105. 105. 105. 105. 105. 105. 105. 105. 105. 105.
      105. 105. 105. 105. 105. 105. 105. 105. 231. 220. 201. 173. 155.
      160. 181. 193. 189. 187. 164. 141. 93. 91. 85. 72. 51. 45. 36. 26.
      9. 27. 45. 72. 83. 69. 41. 19. 26. 11. 14. 37. 90. 117. 139. 153.
      166. 167. 157. 130. 113. 152. 163. 168. 154. 141. 135. 121. 112.
      100. 93. 91. 98. 105. 111. 108. 105. 137. 147. 139. 96. 27. 13.
      36. 69. 81. 88. 93. 96. 96. 96. 95. 96. 96. 96. 96. 96. 96. 96.
      96. 96. 96. 96. 96. 96. 96. 96. 96. 96. 96. 96. 96. 96. 96. 96.
      96. 96. 96. 96. 96. 96. 96. 96. 242. 232. 223. 202. 174. 159. 158.
      169. 174. 179. 163. 148. 118. 109. 98. 78. 68. 48. 35. 28. 11. 26.
      51. 75. 82. 73. 52. 23. 16. 12. 11. 11. 23. 75. 98. 117. 142. 149.
      144. 138. 109. 142. 160. 168. 155. 143. 141. 132. 119. 109. 99.
      96. 97. 109. 111. 103. 100. 136. 148. 144. 105. 64. 35. 34. 46.
      51. 55. 58. 55. 52. 55. 56. 55. 55. 55. 55. 55. 55. 55. 55. 55.
      55. 55. 55. 55. 55. 55. 55. 55. 55. 55. 55. 55. 55. 55. 55. 55.
      55. 55. 55. 55. 55. 55. 241. 241. 237. 222. 207. 193. 172. 166.
      170. 174. 166. 154. 137. 112. 91. 63. 40. 36. 23. 11. 5. 28. 65.
      86. 91. 79. 58. 19. 22. 12. 10. 10. 12. 8. 21. 71. 98. 111. 114.
      110. 102. 121. 146. 163. 161. 155. 146. 139. 126. 114. 100. 98.
      99. 114. 112. 100. 97. 124. 142. 145. 116. 92. 70. 66. 45. 27. 7.
      2. 3. 4. 6. 2. 4. 4. 4. 4. 4. 4. 4. 4. 4. 4. 4. 4. 4. 4. 4. 4. 4.
      4. 4. 4. 4. 4. 4. 4. 4. 4. 4. 4. 4. 4. 4. 245. 244. 243. 235. 237.
      232. 213. 201. 187. 183. 180. 168. 154. 116. 94. 73. 47. 28. 10.
      8. 6. 25. 68. 95. 101. 90. 64. 21. 21. 12. 8. 13. 11. 22. 19. 22.
      20. 21. 22. 34. 52. 66. 100. 143. 168. 180. 169. 164. 149. 133.
      115. 114. 115. 126. 120. 112. 106. 119. 142. 143. 130. 107. 91.
      89. 86. 87. 89. 93. 91. 88. 91. 90. 90. 90. 90. 90. 90. 90. 90.
      90. 90. 90. 90. 90. 90. 90. 90. 90. 90. 90. 90. 90. 90. 90. 90.
      90. 90. 90. 90. 90. 90. 90. 90. 241. 235. 240. 241. 246. 242. 237.
      230. 213. 198. 188. 168. 148. 114. 110. 117. 110. 87. 71. 36. 23.
      22. 69. 97. 110. 96. 69. 22. 20. 20. 14. 9. 20. 22. 25. 25. 27.
      22. 11. 9. 14. 36. 72. 124. 155. 176. 179. 184. 179. 168. 152.
      150. 146. 148. 141. 137. 132. 134. 151. 149. 143. 114. 89. 91.
      100. 117. 132. 140. 141. 139. 141. 139. 140. 140. 140. 140. 140.
      140. 140. 140. 140. 140. 140. 140. 140. 140. 140. 140. 140. 140.
      140. 140. 140. 140. 140. 140. 140. 140. 140. 140. 140. 140. 140.
      219. 217. 234. 242. 244. 240. 245. 238. 237. 216. 202. 175. 144.
      111. 119. 146. 152. 134. 101. 67. 45. 35. 49. 92. 109. 98. 78. 18.
      29. 20. 20. 12. 21. 20. 38. 36. 36. 26. 18. 11. 25. 44. 64. 110.
      137. 161. 171. 180. 173. 172. 164. 163. 159. 158. 151. 149. 147.
      143. 150. 155. 149. 113. 81. 98. 135. 158. 175. 178. 177. 178.
      180. 179. 179. 179. 179. 179. 179. 179. 179. 179. 179. 179. 179.
      179. 179. 179. 179. 179. 179. 179. 179. 179. 179. 179. 179. 179.
      179. 179. 179. 179. 179. 179. 179. 214. 210. 229. 241. 240. 236.
      235. 237. 237. 217. 195. 165. 134. 92. 115. 147. 162. 157. 124.
      98. 99. 97. 53. 70. 96. 89. 68. 26. 26. 21. 20. 22. 20. 22. 24.
      39. 33. 27. 27. 21. 35. 56. 71. 81. 92. 113. 143. 157. 167. 164.
      167. 164. 161. 160. 153. 149. 151. 149. 159. 160. 152. 113. 97.
      135. 166. 186. 198. 197. 204. 202. 201. 204. 202. 202. 202. 202.
      202. 202. 202. 202. 202. 202. 202. 202. 202. 202. 202. 202. 202.
      202. 202. 202. 202. 202. 202. 202. 202. 202. 202. 202. 202. 202.
      202. 216. 218. 233. 238. 233. 216. 212. 224. 205. 189. 174. 159.
      125. 99. 89. 116. 151. 142. 135. 142. 153. 153. 115. 85. 80. 72.
      57. 24. 27. 24. 19. 20. 23. 24. 38. 46. 52. 42. 35. 35. 56. 71.
      85. 95. 99. 104. 115. 121. 140. 139. 148. 154. 153. 151. 149. 154.
      154. 149. 159. 160. 161. 144. 152. 176. 184. 185. 186. 184. 190.
      190. 190. 191. 191. 191. 191. 191. 191. 191. 191. 191. 190. 190.
      190. 190. 190. 190. 190. 190. 190. 190. 190. 190. 190. 190. 190.
      190. 191. 191. 191. 191. 191. 191. 191. 229. 238. 236. 234. 215.
      215. 203. 207. 175. 159. 156. 170. 165. 142. 74. 86. 114. 113.
      136. 166. 194. 193. 155. 110. 73. 41. 34. 25. 20. 20. 20. 22. 27.
      27. 36. 47. 62. 56. 49. 52. 73. 86. 100. 111. 116. 120. 127. 131.
      140. 143. 148. 147. 148. 153. 150. 144. 144. 148. 164. 169. 178.
      169. 173. 172. 178. 173. 178. 186. 196. 197. 197. 194. 194. 195.
      195. 194. 193. 193. 194. 195. 196. 196. 196. 196. 196. 196. 196.
      196. 196. 196. 196. 196. 196. 196. 196. 196. 194. 195. 195. 195.
      194. 194. 194. 241. 238. 240. 235. 216. 203. 188. 172. 160. 168.
      183. 208. 200. 174. 126. 93. 68. 82. 146. 194. 219. 214. 182. 146.
      89. 39. 27. 26. 18. 20. 22. 26. 26. 35. 45. 80. 98. 90. 76. 65.
      88. 101. 113. 119. 123. 131. 139. 142. 142. 139. 141. 145. 147.
      149. 149. 148. 163. 174. 186. 182. 189. 183. 178. 176. 173. 176.
      184. 191. 198. 197. 198. 197. 199. 199. 199. 198. 197. 197. 198.
      199. 197. 197. 197. 197. 197. 197. 197. 197. 197. 197. 197. 197.
      197. 197. 197. 197. 198. 199. 199. 199. 199. 198. 197. 240. 244.
      236. 237. 211. 204. 182. 168. 186. 201. 234. 247. 235. 207. 175.
      158. 158. 160. 181. 207. 235. 234. 204. 183. 147. 95. 50. 26. 23.
      30. 26. 35. 47. 48. 56. 92. 112. 118. 118. 111. 120. 126. 133.
      135. 138. 144. 148. 150. 153. 162. 170. 169. 166. 169. 175. 176.
      179. 188. 205. 207. 205. 201. 185. 183. 188. 203. 212. 212. 221.
      220. 220. 223. 219. 219. 219. 218. 217. 217. 218. 220. 220. 220.
      220. 220. 220. 220. 220. 220. 220. 220. 220. 220. 220. 220. 220.
      220. 219. 219. 219. 219. 219. 219. 218. 247. 248. 233. 213. 213.
      199. 190. 184. 209. 242. 246. 242. 247. 235. 215. 206. 204. 206.
      218. 237. 238. 236. 233. 206. 188. 172. 160. 145. 122. 94. 69. 65.
      68. 69. 99. 133. 162. 174. 181. 180. 184. 176. 171. 171. 174. 180.
      183. 189. 181. 181. 190. 201. 193. 179. 187. 203. 212. 214. 236.
      237. 216. 212. 205. 210. 218. 231. 233. 227. 234. 232. 230. 231.
      233. 233. 233. 232. 232. 232. 232. 233. 232. 232. 232. 232. 232.
      232. 232. 232. 232. 232. 232. 232. 232. 232. 232. 232. 233. 233.
      233. 233. 233. 232. 232. 239. 229. 213. 218. 231. 213. 204. 216.
      240. 244. 247. 244. 242. 246. 242. 248. 246. 248. 241. 243. 245.
      242. 248. 238. 233. 212. 202. 198. 186. 173. 171. 169. 171. 166.
      176. 187. 202. 207. 213. 218. 231. 218. 210. 205. 206. 210. 210.
      216. 210. 210. 211. 215. 208. 200. 208. 217. 232. 221. 231. 240.
      241. 245. 237. 231. 234. 233. 228. 222. 229. 232. 233. 234. 232.
      232. 232. 231. 231. 231. 231. 232. 232. 232. 232. 232. 232. 232.
      232. 232. 232. 232. 232. 232. 232. 232. 232. 232. 232. 232. 232.
      231. 231. 231. 231. 232. 217. 211. 216. 233. 207. 204. 208. 239.
      248. 244. 249. 249. 248. 253. 254. 252. 250. 249. 246. 249. 242.
      243. 244. 243. 248. 248. 242. 231. 214. 211. 209. 212. 218. 214.
      232. 243. 245. 247. 249. 251. 248. 250. 247. 248. 249. 244. 243.
      238. 232. 222. 216. 204. 195. 203. 210. 238. 236. 236. 237. 243.
      239. 235. 236. 232. 224. 223. 225. 232. 232. 233. 230. 232. 232.
      232. 232. 232. 232. 232. 232. 232. 232. 232. 232. 232. 232. 232.
      232. 232. 232. 232. 232. 232. 232. 232. 232. 232. 232. 232. 232.
      232. 232. 232. 203. 213. 215. 239. 237. 209. 205. 214. 241. 249.
      247. 246. 249. 251. 254. 254. 253. 249. 248. 248. 249. 248. 244.
      244. 244. 247. 249. 250. 250. 250. 251. 253. 254. 254. 254. 251.
      251. 247. 248. 249. 251. 251. 254. 251. 252. 243. 238. 241. 243.
      241. 234. 208. 199. 186. 205. 210. 235. 235. 234. 239. 240. 242.
      236. 232. 232. 217. 223. 220. 223. 223. 223. 223. 223. 223. 223.
      223. 223. 223. 223. 223. 223. 223. 223. 223. 223. 223. 223. 223.
      223. 223. 223. 223. 223. 223. 223. 223. 223. 223. 223. 223. 223.
      223. 223.</_>
    <_>
      69. 69. 70. 68. 72. 74. 83. 88. 105. 123. 137. 154. 168. 173. 179.
      181. 183. 188. 194. 199. 204. 209. 215. 220. 221. 225. 225. 225.
      228. 228. 227. 229. 230. 232. 234. 236. 238. 238. 237. 238. 240.
      241. 243. 243. 243. 244. 245. 246. 248. 249. 249. 249. 249. 250.
      251. 251. 250. 249. 248. 247. 247. 246. 245. 244. 245. 242. 243.
      242. 241. 240. 238. 236. 237. 233. 230. 232. 231. 226. 226. 229.
      225. 225. 222. 218. 213. 208. 203. 200. 193. 184. 175. 162. 147.
      128. 114. 88. 81. 70. 66. 58. 55. 50. 47. 69. 67. 71. 75. 80. 83.
      104. 126. 155. 171. 182. 192. 199. 200. 204. 205. 205. 209. 213.
      217. 220. 222. 225. 227. 231. 232. 230. 230. 231. 232. 234. 237.
      238. 239. 239. 239. 241. 241. 242. 245. 244. 245. 246. 247. 247.
      247. 248. 249. 249. 251. 252. 252. 252. 252. 251. 251. 252. 251.
      251. 250. 250. 249. 248. 248. 248. 246. 245. 245. 245. 244. 242.
      241. 238. 240. 238. 234. 235. 235. 234. 231. 229. 228. 228. 227.
      226. 226. 225. 224. 223. 215. 208. 201. 196. 184. 164. 131. 104.
      86. 75. 63. 58. 52. 50. 76. 80. 82. 86. 116. 157. 197. 217. 224.
      230. 229. 228. 230. 230. 231. 230. 230. 231. 233. 235. 237. 238.
      238. 238. 235. 238. 242. 243. 243. 243. 245. 247. 247. 248. 250.
      251. 252. 250. 250. 254. 252. 253. 254. 254. 254. 254. 254. 254.
      252. 253. 254. 254. 253. 253. 253. 252. 254. 255. 255. 255. 255.
      255. 255. 254. 252. 254. 254. 254. 255. 253. 252. 255. 249. 249.
      248. 248. 250. 248. 244. 242. 245. 244. 243. 242. 242. 242. 241.
      240. 239. 239. 239. 236. 234. 231. 229. 217. 195. 154. 113. 82.
      71. 64. 62. 84. 86. 104. 140. 190. 221. 230. 225. 234. 235. 232.
      231. 232. 234. 234. 232. 234. 233. 233. 233. 235. 237. 237. 237.
      238. 239. 239. 238. 238. 241. 245. 246. 252. 254. 254. 252. 251.
      248. 246. 246. 248. 248. 249. 249. 249. 248. 247. 246. 246. 247.
      246. 245. 245. 245. 245. 245. 244. 245. 246. 248. 249. 250. 249.
      248. 248. 251. 251. 254. 255. 255. 254. 254. 250. 245. 242. 241.
      242. 240. 240. 245. 238. 238. 239. 240. 240. 240. 240. 241. 242.
      241. 243. 244. 243. 239. 238. 236. 231. 223. 196. 141. 96. 74. 73.
      90. 103. 144. 193. 225. 228. 230. 233. 226. 226. 227. 226. 222.
      219. 216. 214. 217. 215. 214. 215. 216. 218. 218. 217. 214. 214.
      215. 216. 221. 227. 233. 236. 247. 250. 248. 242. 239. 237. 235.
      233. 235. 235. 235. 236. 235. 235. 233. 233. 233. 234. 235. 234.
      233. 232. 231. 231. 231. 231. 233. 235. 236. 236. 235. 235. 237.
      239. 239. 246. 252. 252. 249. 242. 236. 230. 228. 225. 225. 227.
      224. 223. 224. 225. 226. 226. 225. 224. 226. 229. 232. 230. 228.
      228. 231. 233. 233. 237. 237. 234. 229. 207. 161. 104. 84. 103.
      122. 167. 207. 227. 228. 224. 214. 204. 189. 177. 165. 154. 148.
      143. 141. 137. 136. 135. 136. 136. 136. 135. 134. 128. 128. 126.
      128. 140. 161. 198. 233. 237. 242. 241. 234. 228. 221. 215. 211.
      212. 213. 214. 215. 215. 215. 215. 215. 215. 218. 220. 221. 220.
      218. 215. 213. 212. 212. 213. 214. 215. 214. 213. 212. 214. 223.
      229. 239. 243. 245. 244. 234. 221. 182. 155. 143. 141. 146. 145.
      144. 147. 147. 149. 152. 154. 157. 162. 167. 174. 183. 190. 194.
      200. 209. 215. 227. 230. 236. 237. 228. 201. 151. 123. 104. 122.
      170. 208. 219. 214. 205. 186. 159. 132. 109. 94. 86. 84. 81. 81.
      80. 80. 79. 79. 79. 79. 78. 77. 75. 78. 77. 77. 82. 97. 145. 203.
      230. 235. 236. 228. 214. 196. 183. 179. 183. 184. 186. 187. 187.
      188. 188. 189. 193. 196. 199. 200. 199. 197. 194. 191. 186. 186.
      186. 186. 186. 185. 183. 182. 185. 200. 216. 231. 234. 235. 235.
      217. 167. 112. 84. 81. 80. 83. 83. 83. 84. 83. 83. 84. 84. 84. 87.
      91. 90. 95. 99. 107. 119. 140. 162. 193. 216. 225. 227. 228. 219.
      178. 150. 100. 116. 162. 197. 206. 202. 185. 152. 115. 90. 74. 66.
      63. 63. 61. 63. 61. 60. 59. 59. 59. 60. 61. 62. 64. 65. 63. 67.
      70. 77. 122. 186. 224. 228. 229. 222. 204. 181. 168. 167. 170.
      171. 173. 173. 174. 174. 176. 177. 178. 180. 182. 183. 182. 181.
      179. 177. 174. 174. 174. 174. 173. 172. 170. 169. 171. 184. 203.
      224. 231. 233. 225. 196. 126. 84. 72. 73. 67. 68. 68. 67. 66. 65.
      64. 66. 65. 63. 63. 64. 66. 67. 68. 74. 76. 87. 114. 161. 196.
      221. 229. 226. 216. 178. 154. 97. 114. 157. 189. 200. 192. 167.
      122. 88. 71. 57. 50. 45. 48. 52. 49. 51. 51. 51. 51. 50. 50. 51.
      53. 55. 60. 57. 59. 63. 75. 104. 177. 216. 229. 226. 212. 195.
      172. 159. 159. 160. 162. 162. 161. 164. 166. 169. 172. 174. 173.
      173. 172. 171. 169. 167. 165. 163. 162. 162. 162. 163. 162. 161.
      159. 163. 174. 195. 214. 228. 226. 218. 173. 105. 78. 65. 64. 62.
      59. 57. 58. 57. 57. 57. 55. 53. 52. 52. 52. 52. 55. 52. 55. 61.
      74. 85. 125. 179. 211. 226. 223. 205. 172. 147. 99. 118. 158. 189.
      199. 188. 159. 113. 80. 63. 51. 47. 45. 48. 52. 53. 52. 52. 50.
      49. 47. 46. 47. 48. 53. 56. 57. 55. 60. 74. 94. 159. 209. 224.
      221. 206. 185. 161. 150. 151. 151. 153. 154. 154. 156. 158. 161.
      164. 165. 164. 161. 159. 157. 156. 155. 155. 155. 154. 154. 154.
      154. 153. 152. 150. 149. 162. 185. 206. 221. 221. 205. 152. 92.
      72. 60. 56. 54. 57. 56. 53. 53. 53. 53. 53. 52. 52. 52. 52. 52.
      55. 53. 55. 56. 65. 77. 117. 173. 205. 223. 220. 198. 160. 135.
      96. 117. 154. 186. 200. 193. 167. 129. 91. 75. 67. 69. 69. 67. 65.
      61. 61. 61. 61. 59. 57. 57. 57. 58. 57. 55. 56. 53. 57. 72. 92.
      154. 202. 217. 215. 197. 173. 149. 139. 140. 140. 143. 143. 143.
      145. 146. 148. 151. 152. 151. 149. 146. 145. 144. 145. 145. 145.
      144. 143. 143. 143. 142. 141. 140. 140. 152. 175. 196. 212. 214.
      193. 134. 82. 66. 58. 55. 56. 59. 58. 55. 58. 58. 58. 59. 61. 63.
      64. 65. 65. 69. 68. 71. 70. 75. 88. 125. 178. 206. 222. 218. 192.
      148. 124. 94. 114. 149. 183. 200. 199. 187. 168. 139. 119. 100.
      93. 91. 90. 89. 86. 82. 83. 83. 81. 78. 75. 73. 71. 71. 67. 68.
      68. 67. 74. 97. 155. 200. 213. 210. 192. 167. 144. 133. 130. 130.
      133. 134. 133. 134. 135. 136. 138. 138. 138. 137. 136. 135. 135.
      136. 137. 137. 136. 135. 134. 134. 134. 134. 134. 133. 145. 170.
      191. 205. 207. 186. 133. 89. 70. 61. 63. 65. 66. 67. 71. 72. 73.
      74. 76. 78. 82. 85. 87. 89. 91. 91. 96. 102. 116. 136. 168. 196.
      213. 222. 215. 188. 142. 120. 95. 114. 146. 181. 196. 199. 200.
      198. 193. 187. 180. 176. 172. 166. 159. 152. 150. 151. 149. 143.
      135. 126. 118. 114. 105. 99. 89. 87. 86. 94. 127. 174. 201. 209.
      204. 190. 170. 150. 138. 132. 130. 133. 132. 131. 131. 130. 130.
      130. 130. 130. 129. 128. 126. 127. 129. 131. 130. 130. 129. 129.
      130. 132. 134. 136. 137. 148. 172. 194. 204. 205. 190. 153. 112.
      92. 82. 84. 89. 92. 96. 105. 109. 113. 120. 127. 134. 141. 148.
      153. 161. 168. 174. 181. 186. 191. 194. 204. 212. 219. 221. 210.
      185. 138. 116. 93. 112. 144. 180. 191. 194. 199. 203. 208. 212.
      216. 215. 212. 209. 207. 206. 206. 209. 211. 211. 208. 204. 200.
      196. 185. 185. 175. 171. 166. 164. 180. 195. 207. 210. 205. 198.
      187. 175. 168. 163. 159. 160. 157. 154. 153. 150. 148. 147. 144.
      142. 139. 134. 132. 133. 136. 138. 139. 140. 142. 145. 148. 153.
      157. 160. 167. 174. 188. 202. 208. 209. 205. 189. 173. 164. 160.
      162. 169. 175. 178. 184. 188. 192. 197. 200. 202. 204. 206. 208.
      210. 214. 216. 218. 221. 223. 220. 218. 215. 217. 218. 207. 182.
      134. 113. 91. 110. 144. 179. 186. 186. 186. 185. 196. 201. 206.
      208. 207. 207. 209. 214. 215. 219. 223. 223. 223. 224. 223. 222.
      223. 224. 220. 216. 213. 211. 213. 210. 211. 211. 206. 204. 202.
      198. 199. 198. 196. 197. 194. 191. 191. 189. 186. 185. 179. 175.
      169. 163. 159. 159. 162. 165. 169. 171. 174. 177. 180. 184. 187.
      190. 195. 196. 199. 205. 208. 211. 213. 212. 209. 210. 213. 215.
      220. 224. 222. 223. 223. 223. 223. 223. 221. 219. 218. 218. 216.
      219. 220. 219. 218. 215. 212. 206. 204. 208. 213. 203. 178. 127.
      108. 95. 113. 145. 178. 181. 178. 171. 161. 163. 166. 170. 176.
      181. 182. 185. 191. 195. 199. 203. 204. 207. 211. 213. 214. 214.
      213. 219. 220. 220. 217. 213. 208. 205. 202. 197. 197. 197. 198.
      204. 206. 209. 209. 208. 209. 212. 213. 212. 212. 209. 204. 197.
      191. 187. 186. 189. 191. 192. 193. 195. 196. 195. 196. 197. 198.
      196. 197. 196. 199. 203. 206. 208. 211. 216. 218. 222. 222. 222.
      220. 217. 219. 214. 211. 208. 204. 202. 200. 199. 197. 197. 196.
      194. 189. 185. 182. 184. 181. 192. 198. 208. 199. 172. 121. 103.
      104. 117. 154. 181. 184. 174. 161. 138. 129. 127. 130. 135. 137.
      141. 145. 148. 155. 154. 158. 163. 167. 172. 175. 174. 172. 177.
      182. 185. 188. 189. 189. 191. 187. 180. 165. 153. 145. 147. 163.
      173. 181. 187. 192. 195. 199. 203. 205. 204. 203. 203. 200. 195.
      191. 188. 185. 182. 182. 179. 176. 174. 171. 167. 162. 158. 148.
      148. 153. 171. 181. 186. 192. 191. 194. 194. 196. 196. 194. 190.
      185. 180. 177. 172. 166. 162. 159. 156. 155. 154. 149. 147. 144.
      140. 140. 138. 140. 155. 174. 192. 201. 192. 165. 115. 93. 105.
      119. 158. 188. 192. 178. 161. 138. 122. 117. 117. 118. 117. 116.
      121. 126. 125. 123. 123. 122. 122. 124. 125. 123. 123. 125. 126.
      128. 132. 137. 145. 153. 157. 148. 121. 97. 87. 84. 88. 89. 97.
      104. 113. 120. 127. 135. 141. 144. 152. 153. 151. 146. 141. 135.
      129. 125. 119. 116. 111. 107. 102. 97. 91. 87. 88. 88. 96. 118.
      145. 160. 164. 156. 150. 147. 146. 143. 139. 136. 133. 130. 125.
      123. 122. 121. 119. 117. 115. 116. 118. 116. 116. 112. 112. 112.
      122. 143. 168. 188. 196. 183. 145. 107. 92. 96. 110. 147. 179.
      194. 189. 173. 148. 128. 119. 114. 116. 117. 114. 113. 112. 110.
      109. 110. 109. 109. 110. 111. 108. 109. 108. 105. 104. 106. 111.
      122. 134. 138. 124. 95. 75. 68. 58. 55. 59. 64. 67. 70. 72. 73.
      74. 77. 79. 79. 81. 82. 82. 80. 78. 75. 73. 75. 73. 71. 69. 67.
      65. 63. 61. 60. 67. 78. 94. 125. 140. 142. 129. 122. 117. 114.
      112. 110. 108. 107. 105. 105. 102. 102. 104. 106. 104. 104. 106.
      99. 98. 99. 100. 104. 111. 129. 155. 177. 187. 187. 172. 127. 94.
      83. 82. 89. 122. 162. 190. 195. 192. 182. 162. 147. 132. 124. 119.
      116. 112. 107. 105. 104. 105. 106. 105. 104. 102. 100. 100. 101.
      99. 96. 97. 103. 114. 125. 129. 112. 88. 72. 59. 45. 40. 45. 42.
      42. 44. 46. 46. 46. 48. 50. 54. 53. 52. 50. 47. 46. 45. 45. 46.
      45. 44. 44. 45. 45. 44. 43. 43. 57. 74. 87. 118. 131. 133. 121.
      111. 107. 105. 107. 107. 106. 104. 101. 103. 98. 95. 99. 101. 100.
      98. 99. 101. 101. 104. 109. 120. 134. 153. 173. 190. 190. 179.
      152. 109. 82. 74. 72. 74. 92. 123. 164. 194. 206. 201. 198. 189.
      174. 157. 142. 133. 124. 115. 110. 105. 104. 105. 103. 101. 100.
      101. 98. 101. 100. 96. 97. 103. 113. 122. 122. 106. 88. 68. 49.
      40. 37. 34. 40. 39. 39. 40. 40. 38. 37. 37. 37. 36. 34. 32. 31.
      32. 34. 36. 38. 38. 39. 39. 40. 39. 38. 38. 41. 52. 72. 86. 118.
      131. 131. 120. 110. 105. 103. 106. 108. 106. 103. 98. 95. 93. 95.
      101. 106. 107. 109. 112. 112. 119. 127. 138. 154. 171. 187. 197.
      197. 193. 168. 121. 88. 72. 69. 65. 67. 73. 86. 120. 158. 189.
      202. 211. 212. 209. 199. 185. 174. 160. 147. 135. 126. 119. 115.
      109. 104. 103. 103. 101. 101. 97. 92. 92. 98. 108. 116. 114. 93.
      79. 64. 47. 41. 39. 37. 39. 39. 39. 40. 40. 39. 36. 34. 35. 33.
      30. 29. 28. 27. 28. 29. 29. 31. 33. 35. 36. 36. 36. 36. 42. 52.
      71. 86. 111. 122. 121. 114. 106. 101. 99. 102. 104. 105. 104. 101.
      102. 104. 108. 112. 115. 120. 129. 137. 148. 159. 169. 178. 187.
      196. 202. 200. 200. 178. 140. 95. 75. 64. 58. 58. 57. 64. 73. 85.
      96. 131. 168. 188. 196. 204. 206. 203. 201. 196. 188. 177. 169.
      159. 149. 138. 129. 121. 115. 112. 107. 99. 94. 93. 94. 100. 109.
      109. 89. 76. 62. 45. 35. 31. 33. 35. 36. 37. 37. 38. 38. 36. 33.
      32. 29. 28. 28. 28. 27. 26. 26. 26. 27. 30. 31. 31. 30. 30. 30.
      36. 47. 69. 84. 100. 114. 117. 114. 98. 94. 95. 99. 103. 106. 111.
      114. 116. 122. 130. 136. 142. 152. 165. 174. 177. 185. 190. 195.
      197. 196. 194. 184. 167. 134. 102. 77. 62. 53. 46. 47. 47. 49. 53.
      65. 70. 81. 92. 118. 136. 160. 175. 180. 186. 191. 193. 194. 193.
      190. 184. 177. 172. 162. 151. 140. 130. 119. 112. 106. 98. 98.
      106. 94. 86. 75. 56. 41. 33. 27. 29. 30. 33. 35. 35. 36. 38. 37.
      34. 32. 30. 28. 28. 28. 26. 24. 24. 22. 24. 26. 26. 26. 25. 24.
      24. 37. 47. 67. 80. 90. 105. 107. 104. 105. 102. 105. 111. 115.
      122. 131. 137. 146. 153. 161. 167. 172. 178. 182. 183. 185. 184.
      177. 173. 165. 153. 142. 126. 111. 88. 74. 64. 46. 44. 42. 41. 40.
      40. 41. 44. 49. 57. 63. 72. 77. 83. 93. 107. 119. 132. 146. 163.
      174. 180. 187. 190. 189. 187. 178. 175. 168. 158. 145. 129. 119.
      112. 105. 94. 85. 74. 60. 45. 36. 32. 27. 28. 29. 30. 32. 34. 34.
      33. 31. 29. 28. 26. 25. 26. 27. 26. 23. 24. 21. 23. 21. 22. 26.
      27. 31. 41. 53. 69. 82. 90. 97. 106. 112. 115. 121. 129. 137. 147.
      160. 168. 171. 174. 175. 177. 174. 176. 173. 167. 158. 146. 133.
      121. 110. 97. 89. 84. 79. 72. 64. 52. 42. 36. 33. 32. 23. 23. 23.
      26. 30. 35. 41. 45. 44. 49. 54. 61. 68. 72. 77. 85. 89. 104. 120.
      137. 150. 163. 176. 180. 179. 182. 183. 175. 163. 151. 138. 125.
      111. 97. 85. 76. 64. 54. 47. 42. 42. 38. 35. 33. 34. 33. 32. 30.
      29. 29. 28. 27. 28. 27. 25. 22. 22. 22. 29. 33. 38. 41. 41. 45.
      59. 68. 80. 91. 100. 111. 122. 131. 141. 150. 160. 168. 173. 177.
      177. 174. 173. 166. 156. 142. 134. 121. 109. 97. 90. 82. 76. 71.
      66. 62. 57. 49. 43. 38. 31. 25. 22. 21. 20. 13. 12. 12. 14. 17.
      21. 25. 27. 29. 32. 36. 40. 45. 48. 51. 56. 61. 68. 73. 79. 85.
      95. 111. 119. 135. 144. 154. 162. 169. 171. 168. 164. 155. 140.
      122. 107. 93. 83. 76. 70. 62. 56. 47. 42. 41. 40. 38. 36. 34. 32.
      31. 32. 34. 36. 37. 38. 39. 39. 45. 52. 60. 68. 74. 81. 81. 91.
      106. 121. 133. 142. 149. 153. 158. 162. 166. 168. 167. 162. 152.
      143. 124. 113. 101. 89. 85. 79. 75. 70. 60. 54. 48. 43. 40. 39.
      34. 27. 23. 21. 17. 15. 14. 14. 13. 0. 0. 0. 3. 7. 11. 16. 19. 20.
      22. 24. 26. 29. 32. 35. 38. 40. 43. 47. 53. 58. 64. 72. 77. 81.
      88. 97. 111. 126. 136. 149. 163. 168. 172. 171. 163. 150. 137.
      122. 109. 91. 85. 78. 73. 68. 63. 57. 52. 51. 48. 46. 47. 49. 51.
      55. 59. 66. 69. 75. 81. 90. 102. 113. 121. 137. 141. 148. 154.
      157. 156. 154. 151. 144. 138. 129. 122. 116. 108. 95. 84. 83. 75.
      68. 61. 59. 50. 44. 38. 39. 35. 29. 25. 23. 22. 20. 17. 16. 13. 9.
      6. 4. 3. 2. 2. 1. 0. 0. 0. 1. 2. 4. 12. 14. 18. 20. 21. 22. 23.
      22. 23. 24. 29. 34. 38. 41. 43. 45. 54. 60. 66. 72. 77. 83. 97.
      116. 128. 142. 155. 163. 167. 168. 165. 160. 147. 137. 122. 106.
      94. 88. 85. 84. 81. 78. 76. 77. 78. 80. 84. 88. 91. 105. 121. 134.
      145. 157. 165. 166. 165. 161. 155. 147. 138. 128. 117. 110. 100.
      93. 84. 77. 74. 72. 66. 61. 50. 45. 43. 40. 39. 30. 26. 23. 21.
      20. 20. 20. 17. 12. 11. 13. 10. 8. 6. 4. 3. 3. 4. 2. 3. 4. 5. 5.
      3. 2. 2. 2. 5. 10. 13. 14. 16. 16. 13. 17. 17. 20. 21. 22. 25. 26.
      30. 34. 39. 43. 45. 50. 56. 64. 71. 76. 81. 89. 100. 114. 127.
      139. 150. 159. 159. 159. 155. 149. 143. 139. 137. 134. 131. 127.
      124. 123. 125. 130. 134. 147. 160. 168. 172. 170. 164. 156. 146.
      137. 127. 111. 97. 88. 82. 79. 77. 71. 68. 63. 55. 49. 44. 40. 38.
      30. 25. 23. 19. 19. 15. 17. 18. 16. 17. 17. 17. 13. 5. 5. 11. 12.
      12. 11. 11. 11. 11. 12. 12. 11. 11. 11. 10. 6. 3. 1. 4. 6. 10. 11.
      10. 12. 12. 7. 3. 5. 11. 13. 14. 17. 17. 19. 21. 21. 23. 26. 31.
      38. 42. 41. 48. 52. 58. 67. 75. 79. 85. 94. 110. 117. 128. 138.
      147. 155. 163. 169. 176. 174. 169. 162. 157. 155. 156. 157. 155.
      155. 148. 140. 128. 113. 101. 89. 83. 80. 75. 71. 65. 57. 49. 42.
      42. 41. 39. 34. 29. 24. 22. 21. 20. 18. 18. 15. 16. 12. 12. 11.
      11. 11. 9. 7. 6. 2. 3. 10. 16. 16. 16. 14. 12. 10. 9. 17. 16. 15.
      16. 16. 15. 13. 11. 5. 8. 12. 12. 10. 11. 10. 3. 5. 3. 5. 3. 5.
      11. 10. 12. 17. 15. 18. 21. 18. 18. 22. 23. 23. 32. 37. 39. 44.
      49. 56. 65. 72. 76. 82. 89. 99. 112. 126. 135. 142. 145. 145. 140.
      133. 127. 122. 118. 114. 107. 94. 88. 81. 72. 70. 65. 62. 57. 49.
      43. 39. 35. 31. 28. 26. 24. 22. 20. 20. 20. 19. 18. 17. 15. 15.
      11. 12. 10. 11. 10. 15. 17. 15. 12. 12. 11. 11. 16. 15. 16. 16.
      16. 16. 16. 16. 16. 16. 17. 15. 16. 16. 11. 11. 11. 11. 11. 16.
      16. 11. 11. 11. 11. 4. 4. 4. 4. 4. 4. 11. 11. 17. 15. 19. 18. 18.
      18. 19. 21. 22. 25. 31. 36. 39. 43. 46. 56. 63. 72. 78. 86. 93.
      110. 119. 125. 127. 127. 123. 118. 114. 109. 104. 94. 89. 83. 77.
      70. 63. 56. 49. 46. 43. 42. 37. 30. 26. 22. 21. 19. 19. 19. 18.
      18. 19. 19. 18. 16. 16. 11. 11. 12. 10. 11. 11. 16. 16. 16. 16.
      11. 11. 10. 16. 16. 16. 16. 16. 16. 16. 16.</_>
    <_>
      29. 22. 39. 82. 167. 232. 241. 240. 233. 235. 233. 233. 202. 168.
      112. 65. 33. 18. 15. 15. 13. 20. 21. 18. 13. 13. 12. 14. 15. 19.
      33. 42. 51. 38. 38. 48. 76. 100. 133. 175. 195. 181. 158. 130.
      109. 77. 53. 48. 52. 66. 51. 53. 35. 36. 32. 36. 41. 48. 47. 43.
      49. 60. 80. 100. 111. 118. 126. 138. 170. 197. 229. 239. 240. 250.
      254. 249. 255. 254. 254. 253. 255. 255. 255. 254. 253. 253. 254.
      255. 255. 255. 254. 254. 255. 255. 252. 254. 219. 164. 89. 66. 67.
      62. 58. 29. 33. 53. 88. 144. 202. 236. 240. 239. 237. 233. 229.
      206. 177. 132. 83. 53. 26. 16. 12. 13. 24. 39. 46. 36. 23. 15. 12.
      12. 20. 32. 39. 48. 48. 47. 59. 77. 110. 139. 172. 179. 160. 147.
      134. 120. 88. 64. 58. 56. 64. 52. 42. 30. 27. 28. 33. 34. 40. 39.
      40. 46. 50. 54. 65. 77. 85. 96. 109. 137. 168. 191. 202. 224. 235.
      243. 245. 251. 252. 252. 252. 251. 251. 249. 247. 246. 245. 245.
      244. 251. 252. 252. 254. 255. 255. 255. 255. 239. 193. 129. 95.
      83. 72. 69. 66. 68. 67. 91. 130. 185. 234. 242. 238. 238. 237.
      235. 228. 212. 190. 148. 81. 41. 23. 18. 22. 37. 68. 86. 84. 50.
      27. 17. 15. 20. 29. 41. 50. 65. 68. 81. 87. 109. 120. 131. 157.
      148. 132. 104. 89. 79. 69. 58. 59. 67. 58. 41. 35. 37. 43. 49. 56.
      72. 70. 59. 40. 35. 47. 74. 97. 95. 91. 88. 108. 146. 167. 179.
      187. 201. 218. 234. 243. 250. 250. 249. 250. 250. 247. 244. 243.
      243. 242. 240. 240. 243. 245. 246. 249. 253. 255. 254. 243. 205.
      143. 93. 77. 77. 78. 101. 106. 104. 127. 162. 200. 234. 244. 245.
      243. 242. 235. 230. 215. 206. 172. 116. 66. 36. 21. 20. 30. 67.
      88. 88. 58. 34. 17. 13. 16. 22. 41. 55. 85. 90. 96. 93. 100. 103.
      106. 110. 118. 129. 130. 129. 111. 86. 70. 70. 75. 64. 50. 47. 58.
      58. 60. 69. 83. 77. 66. 43. 33. 31. 46. 61. 67. 72. 77. 107. 150.
      174. 182. 194. 203. 216. 233. 241. 251. 253. 253. 247. 247. 244.
      240. 240. 242. 242. 239. 238. 239. 241. 240. 246. 253. 255. 253.
      244. 205. 147. 97. 84. 87. 88. 105. 108. 130. 172. 213. 239. 246.
      245. 248. 244. 242. 236. 232. 215. 207. 182. 131. 85. 55. 39. 31.
      23. 39. 45. 51. 46. 36. 21. 19. 17. 12. 27. 55. 104. 114. 117.
      100. 92. 76. 70. 87. 117. 153. 164. 150. 112. 90. 96. 109. 103.
      89. 77. 74. 77. 70. 66. 77. 87. 81. 68. 45. 37. 33. 41. 63. 69.
      75. 84. 115. 147. 181. 192. 204. 211. 221. 235. 241. 251. 252.
      251. 253. 252. 249. 245. 246. 249. 249. 246. 243. 241. 241. 237.
      239. 236. 238. 239. 232. 161. 87. 57. 64. 73. 71. 105. 114. 176.
      218. 236. 248. 252. 253. 252. 247. 243. 240. 236. 220. 203. 185.
      142. 95. 56. 37. 28. 16. 20. 19. 16. 19. 28. 43. 59. 47. 20. 16.
      30. 79. 97. 119. 110. 109. 78. 54. 58. 112. 174. 199. 196. 170.
      155. 160. 171. 159. 146. 124. 104. 84. 80. 77. 66. 59. 44. 34. 24.
      27. 27. 29. 25. 34. 49. 72. 108. 133. 174. 195. 222. 228. 234.
      241. 246. 252. 253. 253. 254. 253. 251. 248. 248. 251. 251. 250.
      249. 244. 234. 213. 196. 177. 183. 198. 182. 121. 60. 50. 64. 78.
      79. 116. 129. 202. 235. 246. 253. 253. 252. 254. 251. 245. 243.
      238. 228. 206. 198. 166. 115. 63. 44. 36. 23. 17. 12. 17. 24. 51.
      100. 133. 111. 54. 13. 14. 46. 91. 151. 178. 179. 135. 82. 75.
      119. 181. 209. 206. 192. 190. 194. 194. 190. 177. 143. 97. 66. 65.
      59. 45. 33. 26. 28. 25. 27. 26. 20. 27. 34. 48. 67. 99. 127. 160.
      180. 204. 213. 220. 222. 231. 239. 247. 252. 252. 252. 251. 250.
      250. 251. 252. 252. 251. 238. 203. 152. 125. 110. 127. 150. 145.
      101. 51. 57. 78. 107. 114. 159. 175. 236. 246. 252. 253. 251. 255.
      252. 253. 247. 243. 237. 234. 212. 214. 188. 130. 66. 43. 38. 27.
      21. 17. 18. 43. 95. 165. 211. 195. 122. 47. 15. 23. 90. 174. 235.
      235. 198. 133. 97. 129. 188. 223. 232. 232. 223. 204. 189. 197.
      181. 147. 88. 67. 65. 53. 40. 22. 18. 24. 24. 25. 26. 20. 25. 34.
      48. 65. 98. 139. 161. 174. 186. 203. 217. 220. 231. 232. 234. 236.
      242. 243. 244. 245. 245. 246. 247. 248. 246. 220. 159. 86. 68. 73.
      97. 117. 113. 81. 43. 63. 84. 111. 117. 175. 179. 244. 247. 252.
      252. 254. 252. 252. 251. 249. 242. 237. 228. 213. 205. 187. 131.
      75. 44. 38. 37. 23. 19. 26. 74. 151. 213. 235. 219. 173. 119. 71.
      57. 117. 197. 252. 255. 232. 181. 122. 137. 188. 234. 239. 232.
      211. 192. 195. 201. 177. 133. 90. 77. 58. 46. 31. 27. 21. 22. 24.
      26. 19. 22. 27. 38. 46. 57. 80. 121. 142. 151. 160. 187. 217. 219.
      226. 227. 232. 231. 235. 236. 240. 242. 243. 242. 243. 243. 240.
      191. 126. 69. 62. 68. 103. 107. 98. 53. 50. 64. 80. 89. 85. 144.
      165. 233. 246. 249. 252. 255. 249. 252. 249. 244. 241. 240. 233.
      213. 193. 181. 131. 83. 50. 39. 35. 32. 38. 61. 113. 182. 222.
      216. 195. 168. 142. 108. 99. 151. 202. 247. 244. 241. 205. 145.
      142. 183. 235. 230. 206. 193. 198. 212. 209. 187. 156. 123. 104.
      76. 56. 36. 31. 26. 26. 24. 25. 23. 30. 38. 44. 51. 64. 66. 81.
      87. 100. 115. 140. 172. 190. 213. 221. 228. 225. 229. 230. 232.
      235. 237. 238. 240. 238. 216. 159. 106. 79. 75. 70. 99. 96. 88.
      64. 66. 71. 59. 47. 36. 100. 123. 193. 231. 242. 242. 247. 248.
      246. 248. 244. 240. 237. 232. 220. 197. 188. 156. 124. 86. 66. 58.
      69. 84. 102. 141. 191. 210. 174. 137. 130. 144. 143. 134. 167.
      188. 212. 199. 209. 197. 156. 144. 166. 225. 206. 187. 186. 219.
      236. 224. 206. 182. 150. 120. 90. 67. 51. 37. 27. 24. 21. 27. 33.
      44. 42. 50. 57. 66. 51. 51. 60. 89. 106. 111. 121. 147. 192. 218.
      234. 231. 231. 232. 232. 236. 236. 235. 231. 218. 180. 127. 94.
      78. 68. 69. 97. 99. 91. 87. 86. 81. 55. 38. 24. 86. 99. 153. 186.
      209. 227. 238. 241. 245. 244. 236. 236. 237. 236. 228. 200. 186.
      168. 150. 112. 88. 78. 94. 108. 120. 159. 192. 182. 120. 72. 54.
      64. 70. 95. 145. 159. 147. 117. 149. 188. 168. 159. 157. 214. 184.
      183. 184. 225. 233. 225. 216. 199. 169. 137. 111. 88. 59. 39. 26.
      26. 24. 29. 32. 39. 44. 50. 55. 60. 46. 39. 43. 66. 88. 85. 78.
      100. 153. 195. 230. 237. 234. 236. 230. 231. 230. 229. 216. 189.
      137. 91. 79. 66. 68. 87. 106. 113. 112. 121. 108. 87. 49. 36. 26.
      88. 83. 114. 125. 149. 181. 210. 234. 237. 242. 238. 238. 235.
      237. 236. 217. 193. 168. 150. 129. 120. 112. 120. 123. 126. 160.
      178. 149. 80. 39. 22. 30. 38. 62. 111. 116. 98. 60. 101. 167. 166.
      156. 137. 188. 166. 173. 176. 215. 221. 215. 204. 186. 158. 130.
      108. 86. 64. 42. 28. 29. 27. 29. 29. 35. 29. 39. 51. 52. 43. 30.
      36. 59. 65. 70. 69. 96. 152. 197. 224. 226. 231. 239. 236. 237.
      233. 227. 195. 153. 115. 83. 70. 50. 56. 80. 102. 121. 105. 105.
      81. 64. 39. 38. 28. 69. 60. 82. 79. 86. 114. 156. 203. 216. 215.
      207. 207. 218. 233. 238. 222. 191. 152. 133. 135. 146. 142. 138.
      130. 139. 159. 169. 132. 61. 20. 10. 22. 21. 36. 90. 93. 91. 49.
      89. 160. 173. 152. 122. 156. 155. 152. 161. 194. 200. 200. 189.
      174. 144. 115. 94. 74. 56. 40. 31. 32. 28. 27. 28. 37. 40. 37. 39.
      40. 43. 34. 36. 52. 65. 73. 73. 98. 149. 191. 208. 206. 215. 228.
      232. 234. 234. 228. 185. 143. 98. 78. 49. 36. 64. 81. 88. 77. 66.
      68. 54. 49. 33. 35. 32. 19. 27. 49. 53. 63. 97. 135. 171. 177.
      181. 175. 168. 179. 205. 220. 219. 192. 165. 156. 168. 176. 170.
      162. 152. 156. 165. 164. 115. 47. 18. 18. 29. 43. 33. 77. 86. 98.
      55. 81. 152. 171. 149. 113. 130. 144. 134. 142. 165. 169. 180.
      179. 176. 144. 107. 81. 67. 62. 58. 58. 62. 54. 42. 32. 38. 41.
      42. 44. 46. 51. 48. 52. 69. 89. 114. 132. 151. 180. 200. 202. 202.
      208. 216. 213. 208. 204. 202. 162. 134. 100. 82. 41. 27. 65. 71.
      65. 32. 22. 22. 19. 28. 31. 48. 48. 8. 9. 23. 51. 73. 104. 122.
      141. 143. 149. 143. 129. 139. 169. 185. 186. 170. 166. 171. 180.
      170. 157. 150. 142. 143. 139. 142. 109. 52. 16. 14. 27. 37. 15.
      56. 85. 105. 61. 68. 138. 180. 168. 127. 130. 141. 127. 122. 129.
      147. 160. 165. 177. 155. 125. 106. 103. 108. 107. 107. 107. 93.
      73. 55. 58. 61. 62. 58. 59. 68. 78. 82. 96. 119. 145. 164. 173.
      186. 192. 184. 184. 183. 191. 191. 186. 184. 184. 146. 130. 105.
      70. 31. 30. 78. 77. 52. 13. 10. 14. 18. 26. 36. 64. 70. 4. 6. 16.
      42. 77. 106. 118. 118. 122. 137. 142. 124. 109. 118. 128. 122.
      114. 139. 168. 179. 165. 150. 137. 138. 139. 139. 127. 100. 48.
      11. 10. 8. 9. 4. 30. 81. 117. 82. 69. 134. 183. 182. 147. 121.
      123. 107. 107. 103. 116. 118. 129. 153. 155. 143. 126. 122. 133.
      154. 165. 151. 127. 109. 96. 86. 83. 73. 78. 83. 99. 106. 109.
      122. 140. 158. 175. 184. 183. 169. 155. 153. 152. 169. 174. 169.
      160. 149. 147. 126. 107. 71. 49. 56. 97. 82. 48. 13. 12. 14. 27.
      47. 66. 93. 105. 9. 7. 11. 29. 57. 81. 90. 88. 91. 102. 118. 122.
      115. 100. 86. 71. 79. 100. 133. 162. 170. 168. 160. 161. 162. 155.
      130. 84. 31. 8. 6. 3. 5. 2. 15. 89. 149. 124. 101. 154. 186. 186.
      150. 119. 115. 111. 113. 111. 109. 102. 100. 112. 123. 126. 121.
      118. 131. 148. 159. 153. 141. 135. 131. 127. 117. 108. 111. 114.
      125. 130. 135. 146. 146. 141. 133. 131. 131. 121. 113. 115. 122.
      142. 165. 165. 159. 138. 133. 114. 100. 79. 72. 86. 102. 76. 38.
      11. 13. 36. 66. 91. 102. 127. 134. 6. 6. 6. 11. 22. 35. 41. 40.
      45. 56. 78. 86. 80. 62. 61. 67. 61. 73. 100. 138. 166. 185. 192.
      200. 208. 196. 152. 79. 18. 5. 3. 2. 0. 3. 17. 99. 164. 150. 133.
      170. 194. 189. 153. 123. 123. 132. 132. 128. 122. 118. 114. 112.
      111. 107. 103. 100. 108. 122. 131. 128. 123. 127. 140. 150. 146.
      136. 135. 129. 130. 133. 136. 142. 135. 126. 118. 123. 129. 123.
      117. 120. 140. 146. 158. 158. 151. 133. 119. 105. 94. 93. 102.
      118. 103. 66. 27. 13. 21. 66. 110. 135. 133. 149. 145. 2. 5. 6. 6.
      9. 14. 17. 17. 19. 22. 32. 41. 50. 45. 48. 52. 53. 46. 51. 83.
      132. 183. 210. 223. 230. 214. 156. 79. 20. 8. 3. 1. 4. 3. 23. 100.
      160. 168. 161. 180. 191. 183. 162. 149. 165. 182. 182. 180. 162.
      161. 163. 154. 143. 128. 127. 130. 131. 131. 130. 128. 126. 125.
      126. 126. 131. 124. 125. 120. 121. 126. 132. 133. 126. 117. 109.
      115. 129. 141. 152. 162. 167. 164. 160. 161. 148. 138. 114. 104.
      105. 120. 138. 145. 105. 59. 19. 11. 37. 93. 143. 165. 161. 169.
      161. 0. 0. 1. 1. 5. 9. 10. 9. 14. 18. 23. 20. 21. 22. 35. 48. 56.
      55. 54. 64. 96. 152. 197. 223. 231. 224. 173. 109. 51. 17. 6. 5.
      4. 11. 32. 96. 132. 155. 152. 183. 190. 185. 179. 175. 193. 199.
      198. 200. 202. 200. 202. 196. 192. 182. 181. 181. 179. 171. 160.
      148. 138. 131. 129. 131. 135. 136. 145. 147. 149. 149. 147. 139.
      130. 136. 145. 158. 175. 188. 191. 189. 190. 190. 187. 183. 164.
      154. 131. 129. 132. 148. 155. 137. 88. 48. 19. 20. 53. 114. 163.
      179. 175. 170. 161. 2. 2. 3. 4. 6. 11. 16. 21. 19. 27. 39. 47. 47.
      45. 48. 53. 58. 70. 81. 92. 117. 163. 198. 218. 219. 219. 188.
      151. 105. 46. 15. 6. 13. 21. 26. 83. 101. 128. 107. 149. 185. 190.
      193. 188. 201. 198. 200. 207. 205. 206. 208. 208. 215. 220. 219.
      213. 209. 197. 186. 183. 183. 178. 168. 161. 161. 164. 172. 174.
      181. 185. 185. 179. 176. 183. 188. 188. 192. 199. 200. 195. 194.
      196. 201. 197. 188. 176. 162. 163. 160. 170. 156. 116. 67. 38. 24.
      40. 82. 146. 188. 197. 185. 165. 153. 0. 0. 3. 5. 7. 14. 27. 39.
      39. 54. 77. 103. 108. 112. 109. 109. 118. 134. 150. 159. 165. 184.
      197. 207. 209. 204. 191. 182. 166. 100. 40. 12. 11. 22. 24. 73.
      79. 98. 68. 105. 155. 189. 206. 199. 201. 196. 199. 207. 215. 213.
      208. 206. 209. 218. 220. 219. 212. 204. 198. 199. 202. 202. 201.
      201. 202. 211. 219. 222. 229. 226. 221. 212. 210. 214. 217. 214.
      206. 199. 189. 178. 175. 174. 182. 193. 204. 194. 177. 170. 170.
      176. 147. 98. 52. 30. 24. 58. 116. 178. 196. 192. 171. 146. 135.
      4. 2. 2. 6. 10. 17. 30. 43. 54. 77. 111. 151. 162. 178. 179. 178.
      177. 178. 183. 194. 204. 214. 212. 212. 206. 203. 205. 203. 195.
      121. 44. 11. 14. 12. 15. 60. 73. 87. 52. 60. 112. 179. 217. 214.
      206. 201. 202. 211. 220. 216. 210. 213. 213. 219. 222. 226. 222.
      217. 216. 223. 231. 233. 231. 230. 229. 234. 232. 227. 231. 230.
      230. 226. 228. 220. 212. 201. 185. 163. 139. 121. 118. 117. 125.
      162. 192. 202. 188. 181. 184. 184. 141. 91. 50. 41. 48. 102. 155.
      203. 190. 168. 134. 111. 103. 5. 5. 5. 6. 8. 11. 16. 20. 37. 59.
      88. 122. 159. 185. 201. 214. 214. 218. 218. 222. 217. 218. 213.
      213. 208. 207. 207. 214. 202. 137. 61. 8. 10. 11. 11. 39. 73. 95.
      59. 47. 84. 149. 209. 226. 227. 221. 227. 231. 230. 228. 225. 223.
      221. 221. 224. 227. 230. 231. 230. 231. 230. 229. 231. 229. 231.
      231. 233. 231. 220. 207. 196. 188. 183. 175. 172. 158. 134. 107.
      81. 72. 66. 64. 72. 120. 179. 202. 197. 192. 196. 188. 146. 87.
      57. 61. 80. 122. 168. 187. 159. 116. 89. 89. 83. 6. 6. 6. 6. 6. 8.
      9. 11. 13. 27. 43. 66. 101. 134. 161. 179. 189. 201. 210. 218.
      217. 216. 211. 213. 214. 215. 211. 211. 207. 164. 93. 29. 13. 11.
      11. 34. 83. 115. 88. 58. 77. 139. 198. 228. 231. 229. 229. 230.
      228. 227. 226. 226. 226. 227. 229. 230. 230. 229. 229. 232. 233.
      232. 230. 222. 214. 205. 200. 196. 187. 178. 173. 168. 149. 128.
      112. 98. 84. 70. 58. 55. 53. 53. 62. 104. 163. 199. 211. 213. 207.
      190. 141. 87. 65. 73. 89. 119. 150. 156. 127. 96. 76. 77. 72. 9.
      9. 9. 9. 9. 9. 9. 8. 8. 12. 15. 25. 54. 91. 126. 150. 179. 195.
      206. 212. 210. 209. 206. 210. 207. 210. 208. 205. 208. 183. 123.
      57. 21. 8. 16. 45. 102. 128. 125. 101. 99. 145. 190. 225. 226.
      229. 226. 227. 227. 226. 226. 227. 227. 226. 226. 226. 227. 227.
      226. 227. 226. 223. 217. 206. 194. 183. 177. 168. 149. 131. 121.
      114. 97. 79. 68. 67. 67. 63. 57. 57. 61. 59. 67. 97. 153. 192.
      213. 211. 204. 183. 134. 90. 70. 73. 80. 93. 107. 108. 91. 82. 76.
      80. 78. 5. 5. 6. 8. 9. 10. 9. 8. 7. 10. 12. 19. 37. 61. 88. 108.
      141. 160. 174. 179. 183. 184. 180. 179. 177. 175. 174. 172. 176.
      168. 134. 88. 44. 34. 39. 57. 113. 152. 170. 143. 141. 167. 191.
      219. 218. 223. 221. 222. 226. 225. 225. 226. 226. 225. 226. 226.
      222. 225. 224. 223. 219. 217. 213. 203. 190. 176. 164. 151. 133.
      123. 121. 118. 104. 88. 76. 71. 71. 75. 80. 84. 83. 83. 93. 114.
      160. 193. 212. 205. 199. 174. 131. 100. 82. 78. 76. 76. 82. 87.
      84. 86. 85. 87. 85. 2. 2. 3. 5. 7. 8. 8. 8. 10. 11. 14. 19. 29.
      47. 72. 93. 110. 123. 131. 133. 144. 154. 156. 151. 143. 141. 145.
      144. 143. 135. 114. 84. 57. 54. 58. 63. 95. 133. 177. 178. 175.
      188. 201. 218. 218. 219. 219. 219. 220. 220. 220. 219. 218. 217.
      219. 220. 221. 224. 222. 219. 215. 212. 210. 202. 190. 179. 170.
      161. 149. 142. 134. 124. 117. 113. 107. 104. 101. 103. 107. 107.
      107. 113. 128. 144. 173. 189. 202. 193. 179. 151. 115. 100. 94.
      98. 101. 102. 95. 102. 106. 110. 102. 95. 91. 2. 2. 3. 3. 4. 5. 5.
      6. 8. 18. 33. 44. 47. 52. 63. 74. 80. 79. 76. 72. 85. 103. 114.
      110. 99. 94. 97. 93. 94. 95. 87. 71. 56. 57. 51. 46. 69. 116. 166.
      177. 188. 198. 205. 211. 211. 209. 210. 210. 210. 211. 211. 211.
      211. 210. 211. 212. 213. 214. 213. 214. 213. 213. 212. 204. 197.
      193. 187. 181. 177. 176. 174. 170. 167. 165. 158. 152. 146. 145.
      145. 139. 143. 152. 167. 178. 188. 186. 182. 168. 150. 127. 103.
      94. 91. 100. 110. 120. 131. 138. 146. 151. 139. 122. 116. 0. 1. 2.
      2. 1. 2. 4. 6. 8. 26. 51. 65. 68. 70. 74. 77. 70. 60. 55. 51. 61.
      75. 86. 83. 74. 68. 72. 70. 73. 73. 67. 57. 42. 36. 32. 35. 52.
      79. 123. 154. 177. 191. 195. 195. 194. 194. 196. 197. 193. 194.
      197. 200. 201. 200. 198. 197. 202. 201. 198. 196. 192. 189. 189.
      185. 180. 181. 178. 174. 174. 175. 176. 181. 179. 179. 173. 171.
      167. 163. 161. 153. 153. 162. 169. 171. 168. 157. 145. 130. 113.
      103. 96. 90. 87. 98. 110. 126. 137. 143. 148. 150. 141. 125. 119.
      0. 2. 4. 4. 5. 6. 10. 13. 34. 57. 85. 97. 95. 90. 84. 77. 66. 47.
      37. 30. 33. 41. 55. 53. 50. 41. 43. 41. 46. 48. 48. 47. 36. 32.
      27. 28. 47. 69. 96. 115. 134. 155. 161. 161. 161. 164. 166. 169.
      174. 174. 176. 178. 178. 172. 165. 159. 159. 161. 161. 160. 156.
      156. 163. 164. 169. 169. 162. 158. 159. 157. 156. 163. 157. 156.
      153. 154. 152. 149. 150. 145. 143. 152. 150. 142. 130. 119. 111.
      104. 106. 101. 98. 89. 83. 92. 97. 110. 118. 124. 122. 118. 116.
      110. 109. 0. 2. 3. 4. 4. 5. 10. 16. 39. 70. 95. 99. 100. 94. 87.
      73. 61. 49. 33. 30. 33. 37. 39. 37. 37. 33. 30. 32. 37. 42. 42.
      39. 33. 26. 27. 30. 39. 54. 73. 97. 122. 144. 151. 145. 142. 150.
      153. 157. 164. 168. 171. 174. 174. 168. 157. 150. 150. 150. 151.
      141. 138. 138. 142. 145. 150. 150. 150. 145. 142. 138. 139. 138.
      138. 138. 134. 138. 142. 142. 143. 138. 134. 130. 130. 118. 110.
      97. 90. 94. 97. 100. 97. 90. 90. 94. 100. 104. 104. 100. 97. 93.
      90. 87. 83.</_>
    <_>
      242. 233. 62. 22. 11. 11. 11. 9. 9. 9. 13. 24. 51. 125. 234. 238.
      240. 238. 239. 242. 240. 240. 248. 242. 249. 250. 254. 255. 255.
      251. 249. 248. 249. 249. 254. 249. 252. 253. 251. 246. 238. 130.
      89. 77. 71. 65. 61. 62. 60. 57. 54. 52. 44. 36. 36. 42. 50. 50.
      51. 50. 48. 45. 44. 43. 36. 29. 23. 20. 15. 9. 8. 11. 13. 20. 23.
      19. 13. 13. 15. 16. 19. 16. 20. 13. 16. 13. 17. 17. 20. 20. 24.
      22. 20. 21. 21. 22. 22. 22. 22. 22. 22. 22. 22. 241. 234. 79. 33.
      26. 13. 13. 10. 10. 10. 9. 25. 33. 64. 94. 207. 234. 238. 240.
      237. 238. 244. 240. 248. 247. 251. 252. 252. 253. 254. 252. 249.
      252. 245. 248. 254. 253. 249. 253. 242. 231. 143. 91. 81. 75. 70.
      66. 60. 59. 58. 56. 54. 48. 42. 41. 43. 46. 48. 50. 51. 49. 47.
      46. 46. 38. 31. 25. 21. 17. 13. 11. 13. 11. 17. 20. 19. 15. 14.
      13. 13. 19. 22. 17. 19. 16. 14. 17. 19. 24. 24. 32. 33. 36. 40.
      35. 36. 36. 36. 36. 36. 36. 36. 36. 233. 233. 144. 80. 61. 49. 28.
      18. 14. 10. 12. 12. 11. 15. 25. 54. 73. 130. 229. 239. 241. 238.
      242. 240. 240. 239. 243. 243. 249. 246. 248. 249. 248. 250. 252.
      252. 250. 248. 251. 242. 236. 169. 114. 102. 89. 80. 79. 71. 65.
      63. 60. 57. 57. 54. 51. 47. 43. 42. 42. 44. 46. 48. 50. 51. 49.
      43. 36. 30. 25. 20. 15. 12. 9. 11. 12. 13. 14. 15. 17. 19. 17. 18.
      18. 19. 19. 17. 16. 26. 40. 62. 69. 72. 72. 69. 75. 72. 72. 72.
      72. 72. 72. 72. 72. 232. 234. 217. 209. 168. 101. 67. 55. 27. 24.
      15. 8. 13. 9. 10. 12. 20. 27. 63. 84. 199. 236. 235. 243. 239.
      235. 225. 224. 232. 242. 245. 247. 249. 250. 249. 247. 250. 250.
      246. 244. 235. 176. 139. 130. 116. 101. 90. 79. 74. 70. 66. 61.
      61. 59. 57. 52. 48. 43. 38. 37. 42. 47. 50. 52. 51. 50. 47. 43.
      38. 33. 25. 19. 16. 13. 12. 13. 15. 16. 17. 19. 20. 19. 18. 19.
      17. 20. 28. 50. 78. 116. 147. 151. 150. 151. 147. 147. 149. 149.
      149. 149. 149. 149. 149. 230. 229. 212. 208. 210. 203. 168. 110.
      80. 60. 35. 24. 18. 13. 11. 11. 13. 7. 16. 25. 54. 71. 132. 227.
      232. 231. 218. 160. 161. 169. 217. 236. 239. 245. 246. 251. 249.
      248. 247. 238. 234. 167. 150. 142. 134. 123. 108. 98. 89. 83. 78.
      69. 66. 60. 61. 60. 56. 51. 44. 41. 40. 41. 43. 45. 45. 48. 51.
      51. 48. 42. 35. 29. 23. 20. 18. 19. 20. 19. 17. 17. 14. 19. 14.
      19. 20. 22. 57. 84. 132. 156. 156. 156. 154. 151. 159. 156. 156.
      156. 156. 156. 156. 156. 156. 225. 224. 218. 214. 216. 219. 205.
      198. 177. 131. 85. 67. 55. 27. 27. 11. 9. 13. 8. 11. 11. 21. 34.
      60. 90. 133. 158. 156. 143. 142. 138. 140. 169. 230. 237. 237.
      246. 245. 242. 235. 220. 161. 157. 148. 139. 133. 125. 123. 110.
      100. 92. 79. 77. 68. 66. 63. 59. 57. 54. 50. 44. 39. 38. 38. 39.
      44. 48. 50. 50. 47. 42. 39. 32. 29. 25. 24. 23. 21. 20. 20. 18.
      16. 19. 24. 22. 64. 91. 136. 155. 150. 147. 142. 144. 145. 140.
      145. 143. 143. 143. 143. 143. 143. 143. 215. 224. 215. 219. 217.
      207. 206. 207. 201. 193. 191. 159. 107. 76. 58. 40. 24. 22. 12.
      11. 11. 7. 10. 17. 22. 44. 68. 104. 136. 150. 134. 121. 107. 110.
      138. 198. 229. 236. 235. 225. 169. 147. 159. 158. 146. 140. 134.
      129. 124. 117. 109. 94. 90. 79. 75. 67. 65. 63. 60. 56. 52. 47.
      43. 41. 35. 37. 39. 41. 44. 46. 48. 49. 47. 43. 37. 31. 25. 22.
      21. 21. 20. 19. 22. 25. 63. 89. 145. 150. 138. 132. 127. 131. 134.
      131. 131. 131. 131. 131. 131. 131. 131. 131. 131. 232. 226. 226.
      221. 218. 218. 209. 207. 207. 199. 201. 194. 196. 179. 131. 84.
      65. 50. 28. 20. 21. 14. 11. 10. 10. 15. 19. 26. 58. 81. 99. 110.
      99. 101. 121. 139. 156. 170. 148. 139. 122. 133. 151. 160. 153.
      149. 145. 133. 133. 135. 133. 113. 103. 90. 88. 82. 77. 70. 63.
      60. 60. 57. 52. 47. 39. 36. 33. 33. 34. 38. 43. 48. 52. 50. 46.
      40. 33. 28. 25. 25. 22. 25. 41. 67. 103. 150. 157. 144. 131. 123.
      124. 121. 120. 124. 121. 122. 122. 122. 122. 122. 122. 122. 122.
      231. 231. 229. 228. 223. 218. 216. 210. 210. 206. 204. 204. 204.
      195. 181. 169. 142. 95. 73. 61. 39. 27. 22. 19. 15. 12. 8. 9. 15.
      20. 38. 63. 84. 120. 124. 80. 63. 59. 62. 75. 87. 116. 134. 145.
      143. 156. 157. 143. 138. 139. 150. 139. 126. 106. 100. 86. 86. 80.
      74. 67. 62. 60. 58. 55. 50. 46. 38. 31. 29. 33. 39. 44. 46. 51.
      50. 47. 44. 39. 33. 30. 35. 60. 77. 115. 144. 140. 138. 131. 122.
      123. 123. 122. 121. 122. 122. 122. 122. 122. 122. 122. 122. 122.
      122. 232. 233. 231. 231. 231. 227. 225. 220. 209. 209. 208. 209.
      207. 202. 195. 190. 178. 169. 152. 123. 87. 66. 56. 42. 22. 24.
      22. 19. 18. 19. 23. 31. 63. 108. 191. 143. 68. 44. 34. 49. 60. 74.
      93. 123. 135. 145. 147. 149. 156. 148. 168. 166. 129. 103. 99.
      100. 93. 89. 82. 80. 73. 66. 62. 61. 58. 54. 50. 47. 39. 31. 30.
      35. 44. 40. 46. 48. 47. 49. 52. 62. 78. 92. 136. 159. 151. 136.
      136. 135. 128. 125. 122. 122. 122. 121. 121. 121. 122. 122. 122.
      122. 122. 122. 122. 231. 233. 229. 229. 233. 231. 230. 229. 222.
      216. 210. 208. 210. 208. 201. 195. 195. 190. 178. 159. 146. 132.
      101. 77. 68. 62. 54. 44. 38. 42. 49. 52. 63. 70. 89. 87. 69. 54.
      39. 27. 36. 51. 61. 75. 93. 126. 139. 147. 150. 148. 168. 184.
      156. 114. 80. 88. 89. 105. 102. 94. 81. 78. 71. 60. 59. 59. 58.
      55. 50. 43. 37. 34. 30. 37. 42. 36. 45. 58. 65. 86. 131. 162. 166.
      143. 131. 128. 130. 131. 126. 121. 119. 121. 123. 123. 123. 124.
      123. 123. 123. 123. 123. 123. 123. 232. 233. 225. 223. 228. 229.
      229. 231. 229. 226. 221. 216. 212. 208. 203. 200. 195. 197. 181.
      178. 169. 152. 148. 138. 135. 122. 111. 100. 89. 86. 93. 97. 102.
      121. 122. 125. 93. 82. 67. 55. 35. 29. 33. 51. 63. 81. 98. 131.
      141. 141. 153. 177. 168. 137. 91. 81. 78. 87. 90. 106. 99. 88. 80.
      83. 69. 67. 62. 57. 56. 54. 48. 41. 33. 28. 30. 40. 54. 65. 97.
      148. 177. 168. 148. 132. 110. 101. 111. 129. 134. 132. 131. 132.
      132. 130. 129. 130. 130. 130. 130. 130. 130. 130. 130. 235. 236.
      226. 222. 226. 225. 227. 230. 231. 230. 229. 226. 220. 213. 205.
      200. 202. 194. 190. 183. 175. 171. 167. 165. 148. 134. 126. 122.
      113. 111. 115. 115. 122. 114. 104. 124. 126. 129. 96. 89. 68. 56.
      36. 28. 30. 50. 61. 79. 98. 133. 137. 148. 166. 160. 116. 84. 74.
      80. 74. 83. 91. 103. 95. 82. 85. 76. 67. 64. 61. 57. 53. 52. 47.
      40. 40. 50. 64. 103. 156. 181. 168. 143. 135. 126. 95. 99. 105.
      131. 134. 138. 142. 143. 143. 144. 145. 145. 144. 144. 144. 144.
      144. 144. 144. 237. 237. 229. 225. 225. 223. 223. 224. 229. 228.
      228. 230. 230. 224. 213. 205. 201. 199. 194. 198. 190. 181. 183.
      173. 169. 153. 140. 130. 122. 123. 124. 119. 114. 114. 111. 110.
      100. 113. 128. 128. 101. 84. 66. 59. 40. 28. 30. 52. 59. 78. 100.
      130. 146. 155. 147. 117. 81. 74. 69. 74. 74. 85. 93. 101. 92. 89.
      82. 74. 67. 62. 59. 57. 52. 59. 60. 74. 109. 158. 182. 157. 134.
      121. 109. 113. 102. 108. 112. 141. 149. 155. 158. 157. 155. 155.
      155. 154. 155. 155. 155. 155. 155. 155. 155. 240. 238. 230. 226.
      223. 221. 220. 217. 217. 221. 227. 230. 231. 229. 227. 226. 217.
      205. 202. 195. 190. 190. 184. 183. 177. 167. 154. 142. 133. 131.
      128. 120. 114. 114. 115. 112. 115. 111. 105. 113. 123. 121. 102.
      84. 63. 58. 43. 28. 36. 52. 60. 75. 96. 132. 155. 154. 126. 89.
      72. 74. 76. 80. 80. 86. 90. 95. 94. 85. 77. 73. 68. 63. 64. 68.
      83. 124. 160. 166. 158. 146. 126. 115. 105. 122. 126. 137. 150.
      154. 162. 165. 166. 166. 166. 168. 168. 167. 167. 167. 167. 167.
      167. 167. 167. 245. 239. 231. 226. 222. 220. 220. 215. 217. 215.
      216. 219. 224. 228. 228. 227. 227. 227. 218. 199. 189. 191. 189.
      190. 183. 178. 171. 160. 148. 142. 138. 133. 124. 124. 121. 122.
      114. 112. 110. 106. 101. 115. 123. 130. 107. 86. 69. 58. 37. 30.
      31. 51. 59. 79. 109. 144. 145. 107. 91. 83. 81. 86. 81. 78. 81.
      85. 90. 94. 92. 87. 81. 79. 82. 99. 130. 152. 148. 135. 131. 135.
      127. 107. 108. 121. 135. 149. 160. 168. 165. 162. 160. 160. 160.
      160. 160. 160. 160. 160. 160. 160. 160. 160. 160. 246. 242. 235.
      221. 220. 216. 217. 216. 217. 215. 211. 209. 211. 219. 225. 227.
      227. 226. 227. 222. 205. 190. 189. 191. 190. 182. 177. 169. 167.
      158. 150. 139. 134. 130. 131. 125. 122. 122. 114. 114. 115. 106.
      101. 109. 122. 124. 107. 87. 73. 56. 37. 25. 33. 50. 63. 81. 99.
      102. 92. 93. 96. 96. 88. 82. 80. 79. 80. 83. 89. 91. 86. 90. 98.
      122. 133. 125. 108. 106. 111. 124. 124. 123. 106. 128. 135. 149.
      159. 166. 162. 146. 139. 139. 138. 139. 138. 139. 139. 139. 139.
      139. 139. 139. 139. 250. 245. 237. 225. 223. 219. 219. 216. 214.
      216. 218. 215. 211. 209. 212. 216. 223. 224. 227. 224. 227. 220.
      212. 196. 189. 184. 182. 177. 178. 173. 166. 154. 146. 138. 137.
      129. 124. 120. 116. 122. 114. 113. 106. 96. 96. 108. 119. 124.
      107. 90. 70. 54. 41. 29. 30. 46. 59. 67. 86. 93. 99. 105. 112. 94.
      92. 86. 74. 67. 69. 78. 87. 92. 95. 97. 94. 93. 90. 91. 99. 109.
      110. 112. 106. 131. 137. 160. 157. 139. 94. 82. 77. 76. 75. 77.
      76. 75. 75. 75. 75. 75. 75. 75. 75. 251. 245. 237. 227. 223. 221.
      220. 215. 215. 216. 217. 216. 212. 207. 206. 207. 208. 210. 219.
      220. 226. 219. 223. 226. 207. 195. 188. 183. 178. 170. 169. 169.
      156. 148. 148. 140. 136. 126. 120. 122. 114. 114. 112. 107. 101.
      97. 100. 106. 122. 122. 105. 84. 71. 59. 42. 24. 27. 42. 56. 65.
      89. 96. 103. 103. 107. 103. 83. 72. 67. 66. 82. 78. 82. 82. 79.
      83. 89. 92. 100. 97. 98. 106. 113. 135. 139. 149. 129. 100. 75.
      60. 54. 54. 53. 54. 53. 54. 55. 55. 55. 55. 55. 55. 55. 254. 247.
      239. 232. 223. 224. 223. 218. 220. 216. 213. 211. 210. 209. 206.
      204. 197. 200. 204. 205. 217. 221. 222. 223. 228. 224. 212. 193.
      181. 181. 182. 177. 168. 162. 162. 147. 144. 135. 131. 127. 117.
      111. 107. 107. 105. 102. 101. 103. 98. 106. 111. 116. 106. 84. 70.
      61. 39. 30. 27. 48. 60. 73. 81. 92. 101. 91. 102. 83. 72. 63. 63.
      71. 78. 78. 78. 81. 87. 91. 103. 97. 107. 117. 125. 140. 148. 137.
      100. 73. 56. 37. 29. 31. 31. 30. 29. 31. 29. 29. 29. 29. 29. 29.
      29. 255. 248. 240. 233. 217. 219. 219. 215. 219. 219. 216. 209.
      206. 206. 206. 204. 199. 203. 204. 199. 193. 197. 203. 220. 221.
      224. 227. 222. 206. 190. 180. 175. 177. 169. 167. 156. 158. 148.
      141. 131. 123. 125. 122. 113. 106. 106. 106. 104. 101. 101. 94.
      98. 109. 114. 107. 87. 71. 57. 33. 31. 30. 48. 55. 69. 84. 95.
      112. 98. 90. 73. 83. 78. 72. 65. 66. 76. 87. 91. 104. 107. 111.
      121. 133. 138. 138. 108. 78. 59. 52. 38. 35. 36. 35. 35. 34. 36.
      36. 36. 36. 36. 36. 36. 36. 254. 249. 241. 232. 206. 207. 208.
      206. 213. 217. 216. 209. 206. 207. 206. 204. 201. 199. 201. 206.
      196. 190. 183. 197. 210. 217. 221. 221. 219. 220. 206. 189. 175.
      173. 176. 172. 167. 152. 148. 146. 137. 136. 130. 119. 110. 107.
      107. 107. 104. 107. 105. 98. 90. 93. 106. 112. 110. 84. 67. 56.
      35. 25. 29. 42. 56. 64. 85. 88. 94. 83. 86. 85. 79. 67. 65. 72.
      80. 85. 94. 103. 115. 115. 129. 136. 125. 86. 67. 55. 47. 42. 44.
      43. 41. 43. 43. 42. 41. 41. 41. 41. 41. 41. 41. 255. 252. 244.
      234. 198. 198. 200. 200. 207. 208. 208. 206. 207. 210. 209. 206.
      205. 203. 203. 201. 193. 196. 188. 189. 181. 191. 206. 222. 221.
      220. 217. 218. 205. 190. 177. 174. 175. 168. 161. 153. 151. 145.
      139. 135. 127. 116. 108. 105. 110. 104. 104. 100. 93. 91. 91. 93.
      99. 111. 108. 84. 74. 57. 38. 30. 30. 49. 55. 65. 80. 95. 111.
      107. 84. 69. 66. 71. 76. 78. 77. 90. 100. 106. 115. 126. 123. 99.
      85. 67. 62. 53. 52. 51. 50. 51. 51. 51. 51. 51. 51. 51. 51. 51.
      51. 253. 251. 244. 233. 192. 191. 194. 195. 202. 202. 201. 201.
      204. 208. 210. 210. 206. 198. 202. 201. 196. 195. 189. 191. 189.
      183. 181. 194. 204. 217. 219. 219. 221. 216. 204. 191. 178. 170.
      165. 162. 156. 154. 151. 145. 137. 130. 126. 125. 123. 113. 111.
      104. 97. 96. 92. 92. 91. 91. 107. 109. 103. 88. 72. 58. 40. 27.
      29. 53. 60. 75. 99. 149. 166. 121. 86. 76. 74. 78. 87. 121. 169.
      214. 227. 229. 231. 233. 227. 210. 169. 147. 137. 139. 140. 139.
      138. 141. 139. 139. 139. 139. 139. 139. 139. 253. 251. 243. 234.
      203. 191. 193. 194. 192. 189. 189. 195. 193. 202. 206. 206. 205.
      203. 199. 200. 196. 192. 196. 195. 192. 191. 189. 190. 189. 191.
      205. 217. 219. 218. 216. 210. 207. 191. 169. 167. 162. 153. 155.
      156. 153. 151. 143. 134. 131. 126. 120. 111. 104. 104. 103. 96.
      99. 92. 90. 94. 104. 106. 106. 88. 67. 44. 25. 26. 55. 74. 105.
      172. 210. 189. 172. 161. 129. 102. 144. 227. 236. 237. 239. 240.
      239. 244. 240. 243. 232. 145. 71. 73. 68. 75. 74. 70. 72. 72. 72.
      72. 72. 72. 72. 254. 255. 246. 234. 207. 193. 188. 182. 182. 182.
      182. 190. 189. 199. 200. 200. 201. 199. 200. 206. 207. 203. 196.
      188. 193. 195. 190. 184. 181. 183. 190. 191. 200. 209. 217. 216.
      218. 218. 205. 190. 168. 162. 163. 161. 157. 159. 156. 150. 144.
      133. 126. 121. 112. 105. 104. 104. 102. 101. 99. 92. 91. 93. 98.
      88. 73. 58. 29. 32. 55. 69. 124. 210. 233. 223. 218. 223. 221.
      211. 228. 239. 239. 247. 244. 250. 251. 250. 254. 240. 229. 64.
      36. 39. 34. 36. 36. 38. 37. 37. 37. 37. 37. 37. 37. 250. 253. 245.
      236. 215. 196. 188. 182. 179. 180. 177. 183. 182. 189. 188. 190.
      195. 194. 200. 205. 206. 204. 198. 194. 194. 197. 190. 180. 175.
      179. 188. 191. 195. 187. 193. 210. 215. 214. 216. 211. 202. 178.
      165. 166. 168. 166. 159. 154. 148. 146. 140. 130. 123. 122. 117.
      107. 105. 100. 100. 100. 98. 87. 78. 63. 56. 38. 31. 43. 62. 79.
      101. 166. 209. 214. 215. 228. 222. 221. 229. 237. 247. 243. 252.
      254. 252. 251. 248. 234. 45. 14. 11. 5. 10. 9. 5. 8. 7. 7. 7. 7.
      7. 7. 7. 253. 254. 246. 238. 218. 188. 181. 183. 183. 182. 178.
      177. 177. 179. 180. 183. 191. 189. 196. 198. 198. 201. 201. 203.
      199. 200. 196. 191. 184. 180. 185. 189. 192. 192. 191. 192. 194.
      207. 221. 214. 215. 211. 206. 191. 177. 171. 166. 162. 156. 151.
      144. 139. 137. 133. 124. 114. 115. 108. 105. 103. 94. 78. 62. 49.
      25. 24. 31. 55. 66. 86. 104. 124. 139. 147. 185. 165. 150. 173.
      207. 235. 241. 248. 255. 251. 255. 249. 232. 51. 14. 7. 0. 2. 0.
      2. 0. 2. 0. 0. 0. 0. 0. 0. 0. 255. 255. 246. 237. 219. 181. 176.
      178. 178. 177. 175. 169. 171. 170. 175. 179. 182. 177. 181. 184.
      189. 195. 194. 194. 195. 194. 193. 196. 194. 188. 189. 190. 193.
      191. 186. 188. 185. 181. 194. 205. 218. 215. 218. 216. 206. 189.
      172. 165. 169. 163. 154. 149. 147. 142. 135. 130. 132. 125. 111.
      92. 77. 65. 44. 25. 26. 21. 24. 48. 63. 86. 92. 87. 101. 120. 171.
      155. 102. 93. 128. 238. 247. 255. 252. 255. 248. 231. 47. 12. 9.
      3. 2. 0. 0. 2. 0. 0. 0. 0. 0. 0. 0. 0. 0. 253. 254. 247. 238. 222.
      183. 178. 175. 170. 169. 170. 167. 167. 167. 172. 174. 175. 170.
      169. 172. 177. 183. 183. 181. 193. 195. 195. 195. 193. 190. 191.
      190. 190. 190. 185. 183. 183. 179. 182. 190. 194. 206. 218. 218.
      218. 217. 203. 191. 169. 167. 160. 154. 152. 148. 147. 149. 153.
      160. 157. 135. 104. 85. 70. 66. 60. 64. 70. 92. 154. 224. 227.
      209. 204. 225. 231. 233. 222. 204. 230. 236. 246. 255. 253. 254.
      235. 48. 10. 10. 0. 0. 0. 2. 0. 0. 4. 0. 0. 0. 0. 0. 0. 0. 0. 251.
      251. 248. 239. 222. 178. 175. 171. 167. 167. 167. 171. 166. 170.
      171. 171. 171. 170. 166. 166. 166. 170. 176. 177. 178. 185. 189.
      191. 190. 189. 192. 190. 185. 184. 181. 176. 179. 183. 181. 183.
      176. 179. 188. 198. 209. 215. 215. 219. 206. 191. 172. 163. 165.
      171. 189. 210. 223. 225. 226. 220. 204. 194. 185. 190. 203. 220.
      222. 231. 236. 232. 237. 238. 233. 238. 237. 239. 237. 235. 237.
      252. 255. 255. 247. 234. 52. 9. 4. 0. 2. 3. 0. 0. 0. 0. 0. 3. 0.
      0. 0. 0. 0. 0. 0. 243. 242. 243. 237. 217. 167. 169. 171. 161.
      161. 159. 168. 159. 168. 166. 166. 165. 166. 161. 160. 158. 160.
      169. 169. 183. 182. 177. 177. 177. 177. 182. 182. 191. 190. 190.
      182. 176. 178. 176. 177. 178. 176. 177. 179. 190. 202. 208. 215.
      217. 216. 207. 198. 205. 218. 227. 232. 232. 233. 233. 234. 234.
      239. 234. 238. 239. 239. 244. 243. 243. 244. 244. 243. 247. 244.
      244. 245. 246. 245. 248. 247. 251. 247. 231. 47. 12. 3. 0. 0. 0.
      0. 0. 0. 1. 0. 3. 0. 0. 0. 0. 0. 0. 0. 0. 239. 241. 242. 237. 216.
      166. 171. 167. 160. 160. 167. 168. 159. 160. 167. 167. 167. 160.
      167. 160. 161. 155. 167. 177. 182. 177. 177. 176. 177. 177. 177.
      190. 195. 195. 190. 183. 176. 177. 170. 170. 170. 177. 177. 177.
      177. 177. 195. 222. 227. 225. 210. 200. 211. 227. 233. 234. 235.
      235. 235. 236. 237. 237. 237. 238. 241. 242. 243. 243. 244. 244.
      243. 242. 243. 244. 245. 246. 246. 246. 247. 250. 253. 247. 155.
      23. 0. 0. 0. 0. 0. 0. 0. 0. 0. 0. 0. 0. 0. 0. 0. 0. 0. 0. 0.</_>
    <_>
      73. 71. 73. 74. 79. 73. 75. 77. 72. 99. 199. 252. 103. 91. 103.
      234. 251. 252. 248. 245. 244. 244. 248. 247. 250. 247. 245. 243.
      235. 236. 224. 216. 216. 209. 217. 215. 227. 240. 244. 246. 247.
      250. 251. 248. 243. 240. 243. 246. 250. 250. 250. 249. 247. 244.
      242. 240. 231. 221. 224. 223. 209. 190. 177. 176. 175. 179. 160.
      162. 165. 176. 176. 190. 201. 200. 194. 173. 162. 163. 161. 164.
      162. 177. 190. 192. 203. 199. 202. 208. 209. 190. 178. 162. 149.
      119. 105. 96. 88. 85. 78. 54. 25. 22. 23. 73. 74. 78. 68. 76. 76.
      75. 76. 86. 100. 209. 191. 100. 98. 105. 241. 252. 187. 153. 163.
      234. 242. 245. 250. 247. 247. 240. 240. 235. 229. 214. 217. 215.
      216. 215. 218. 223. 234. 245. 248. 247. 248. 247. 243. 239. 239.
      244. 248. 250. 249. 249. 249. 248. 245. 241. 239. 227. 223. 215.
      219. 200. 190. 178. 175. 176. 173. 164. 164. 159. 162. 164. 193.
      191. 190. 178. 162. 152. 148. 148. 148. 163. 160. 179. 188. 193.
      192. 198. 203. 204. 186. 163. 151. 147. 112. 100. 93. 87. 84. 76.
      53. 24. 21. 22. 76. 76. 78. 80. 79. 75. 80. 79. 91. 116. 247. 110.
      97. 97. 124. 226. 161. 104. 103. 104. 131. 150. 224. 248. 250.
      246. 240. 239. 230. 230. 215. 209. 209. 211. 209. 215. 216. 229.
      239. 244. 245. 244. 240. 236. 234. 237. 243. 247. 249. 248. 247.
      247. 247. 245. 241. 237. 229. 224. 216. 210. 203. 190. 188. 178.
      178. 162. 161. 162. 162. 164. 157. 179. 177. 175. 160. 148. 139.
      130. 131. 129. 138. 138. 160. 177. 188. 192. 192. 202. 191. 177.
      149. 145. 150. 110. 100. 92. 86. 84. 74. 50. 23. 20. 20. 80. 80.
      75. 79. 76. 82. 84. 87. 106. 240. 163. 98. 90. 105. 208. 116. 98.
      86. 95. 98. 107. 111. 187. 248. 248. 242. 237. 234. 222. 223. 210.
      199. 201. 198. 204. 209. 214. 231. 230. 235. 234. 233. 231. 230.
      233. 240. 246. 249. 248. 246. 244. 244. 245. 243. 239. 234. 222.
      219. 205. 202. 190. 190. 180. 174. 175. 163. 161. 151. 147. 151.
      150. 163. 161. 161. 150. 139. 130. 123. 122. 120. 125. 131. 149.
      161. 168. 173. 172. 175. 174. 162. 139. 137. 142. 107. 98. 89. 86.
      83. 72. 48. 21. 19. 19. 80. 80. 82. 82. 82. 82. 80. 99. 137. 247.
      102. 90. 92. 102. 141. 98. 86. 71. 88. 93. 99. 105. 192. 249. 243.
      240. 234. 229. 222. 211. 199. 203. 192. 190. 201. 208. 215. 226.
      221. 222. 223. 224. 225. 228. 235. 243. 247. 247. 245. 244. 243.
      244. 244. 241. 235. 229. 224. 217. 207. 202. 189. 192. 176. 176.
      162. 161. 162. 152. 147. 147. 147. 147. 149. 151. 149. 136. 128.
      125. 120. 120. 119. 123. 137. 149. 144. 152. 166. 160. 163. 148.
      135. 130. 125. 103. 96. 87. 85. 82. 69. 43. 18. 17. 18. 68. 66.
      67. 69. 71. 69. 92. 104. 244. 134. 91. 70. 90. 107. 108. 93. 71.
      68. 90. 97. 106. 108. 229. 243. 240. 235. 234. 224. 218. 207. 200.
      200. 189. 194. 201. 211. 215. 215. 214. 210. 211. 215. 221. 228.
      237. 244. 246. 244. 242. 242. 242. 243. 242. 236. 229. 223. 223.
      215. 212. 200. 193. 190. 174. 176. 165. 161. 150. 146. 149. 151.
      154. 150. 147. 150. 150. 138. 130. 127. 120. 120. 121. 125. 132.
      141. 137. 136. 151. 148. 151. 137. 134. 130. 115. 103. 95. 87. 84.
      79. 62. 37. 15. 16. 17. 57. 60. 58. 61. 63. 65. 89. 109. 247. 97.
      72. 62. 80. 99. 94. 81. 64. 69. 85. 97. 104. 111. 244. 241. 234.
      225. 228. 215. 209. 201. 200. 190. 193. 198. 200. 210. 207. 208.
      204. 201. 199. 208. 218. 228. 236. 244. 246. 245. 241. 241. 241.
      240. 236. 229. 222. 217. 216. 218. 209. 207. 189. 194. 173. 177.
      161. 160. 151. 150. 150. 147. 147. 146. 150. 150. 147. 139. 133.
      128. 123. 121. 118. 125. 131. 136. 139. 130. 137. 138. 137. 129.
      128. 129. 109. 102. 91. 84. 82. 74. 54. 29. 12. 16. 16. 59. 57.
      58. 60. 63. 72. 99. 218. 125. 84. 59. 65. 78. 86. 80. 62. 54. 65.
      81. 92. 109. 147. 243. 241. 229. 222. 223. 209. 210. 192. 190.
      193. 192. 190. 192. 199. 193. 202. 189. 191. 201. 211. 222. 230.
      235. 239. 240. 239. 241. 241. 239. 235. 229. 223. 218. 215. 209.
      215. 209. 203. 191. 190. 177. 176. 163. 161. 150. 148. 148. 150.
      149. 151. 148. 148. 140. 138. 136. 130. 129. 126. 128. 126. 139.
      139. 137. 132. 137. 131. 137. 131. 124. 127. 106. 99. 89. 85. 81.
      70. 48. 24. 10. 16. 16. 73. 69. 74. 72. 74. 94. 114. 233. 102. 59.
      51. 51. 69. 60. 58. 42. 46. 57. 71. 94. 101. 177. 241. 236. 228.
      217. 214. 208. 203. 188. 192. 191. 176. 177. 189. 192. 191. 190.
      193. 190. 202. 213. 231. 237. 239. 242. 238. 239. 234. 236. 230.
      222. 222. 216. 212. 207. 209. 210. 201. 201. 192. 190. 177. 174.
      159. 164. 150. 150. 147. 150. 147. 149. 148. 139. 130. 131. 130.
      138. 137. 130. 125. 132. 136. 139. 137. 137. 132. 129. 130. 125.
      120. 115. 106. 99. 84. 84. 78. 63. 40. 17. 9. 14. 15. 81. 84. 81.
      82. 94. 108. 249. 132. 82. 43. 41. 48. 61. 48. 44. 35. 50. 61. 75.
      90. 106. 230. 238. 239. 229. 217. 209. 200. 204. 192. 190. 193.
      175. 175. 175. 193. 176. 175. 176. 192. 203. 214. 229. 236. 239.
      241. 237. 235. 229. 222. 217. 216. 215. 210. 207. 210. 201. 199.
      191. 192. 191. 192. 177. 179. 166. 158. 159. 163. 162. 150. 152.
      148. 139. 131. 128. 124. 129. 131. 132. 125. 124. 125. 125. 132.
      129. 131. 128. 130. 124. 120. 116. 112. 103. 96. 84. 83. 73. 54.
      32. 14. 10. 13. 13. 86. 86. 85. 89. 100. 199. 250. 102. 62. 31.
      31. 42. 46. 35. 37. 38. 49. 64. 85. 99. 110. 244. 243. 235. 224.
      208. 204. 200. 198. 192. 193. 186. 176. 179. 192. 189. 176. 179.
      174. 191. 207. 224. 237. 240. 237. 233. 233. 230. 224. 210. 208.
      208. 204. 201. 198. 203. 199. 195. 187. 191. 192. 191. 173. 174.
      162. 162. 164. 160. 164. 150. 147. 140. 135. 132. 130. 124. 127.
      125. 124. 119. 117. 116. 114. 121. 121. 127. 125. 127. 119. 117.
      114. 110. 101. 94. 83. 81. 69. 45. 24. 12. 11. 14. 14. 87. 86. 89.
      97. 108. 251. 137. 84. 42. 30. 37. 45. 39. 34. 35. 39. 51. 65. 85.
      102. 179. 238. 232. 224. 210. 200. 200. 199. 193. 189. 193. 177.
      175. 177. 188. 178. 173. 162. 175. 193. 209. 222. 228. 234. 236.
      234. 231. 221. 215. 199. 201. 193. 191. 191. 191. 189. 193. 188.
      180. 190. 189. 190. 180. 178. 162. 162. 159. 163. 161. 148. 137.
      138. 131. 132. 126. 125. 120. 120. 115. 116. 112. 115. 114. 115.
      119. 126. 125. 120. 117. 115. 113. 108. 99. 91. 83. 79. 64. 39.
      20. 12. 12. 17. 18. 101. 100. 96. 98. 230. 255. 104. 67. 47. 52.
      58. 52. 39. 39. 40. 44. 55. 70. 96. 107. 227. 237. 228. 219. 199.
      202. 193. 192. 193. 189. 191. 174. 160. 161. 181. 174. 164. 163.
      162. 188. 208. 223. 231. 236. 234. 230. 230. 223. 212. 191. 191.
      175. 174. 174. 179. 174. 177. 176. 174. 194. 190. 190. 188. 176.
      162. 162. 163. 164. 149. 150. 140. 128. 128. 129. 123. 121. 116.
      116. 113. 115. 113. 115. 117. 114. 120. 125. 125. 118. 114. 113.
      111. 105. 96. 88. 83. 75. 57. 34. 17. 11. 12. 20. 24. 222. 162.
      108. 230. 248. 171. 92. 56. 62. 73. 70. 51. 35. 37. 38. 44. 58.
      79. 97. 114. 240. 226. 218. 205. 201. 201. 189. 190. 191. 191.
      193. 176. 163. 161. 161. 163. 159. 163. 175. 193. 210. 216. 221.
      227. 231. 228. 220. 209. 199. 176. 173. 162. 164. 165. 175. 176.
      175. 174. 178. 192. 192. 191. 192. 176. 175. 162. 161. 160. 148.
      136. 130. 130. 128. 124. 122. 116. 115. 112. 115. 114. 120. 120.
      122. 121. 126. 127. 127. 123. 113. 111. 109. 103. 94. 86. 82. 71.
      49. 29. 17. 12. 14. 24. 30. 252. 254. 251. 251. 251. 110. 81. 65.
      72. 82. 75. 56. 44. 40. 37. 48. 68. 95. 109. 203. 224. 219. 208.
      204. 201. 193. 191. 193. 190. 192. 190. 176. 165. 144. 150. 154.
      161. 162. 177. 200. 209. 215. 225. 229. 229. 224. 215. 210. 193.
      174. 165. 162. 160. 158. 163. 164. 180. 172. 178. 172. 190. 193.
      201. 190. 179. 172. 165. 148. 140. 132. 127. 127. 123. 118. 118.
      116. 119. 120. 126. 125. 131. 136. 137. 139. 135. 134. 125. 118.
      116. 112. 109. 101. 93. 83. 80. 65. 44. 24. 16. 16. 18. 27. 32.
      252. 255. 251. 253. 210. 95. 67. 69. 71. 74. 61. 45. 38. 32. 31.
      51. 75. 101. 129. 224. 224. 215. 202. 190. 192. 189. 191. 191.
      192. 190. 176. 177. 160. 150. 149. 147. 150. 160. 191. 210. 216.
      217. 227. 230. 229. 223. 208. 202. 174. 165. 157. 164. 162. 163.
      163. 161. 173. 164. 178. 161. 195. 197. 201. 192. 174. 164. 162.
      148. 130. 129. 126. 120. 117. 113. 115. 125. 128. 140. 147. 149.
      163. 176. 176. 177. 162. 160. 139. 125. 119. 114. 109. 99. 91. 80.
      76. 60. 41. 21. 16. 18. 20. 27. 31. 228. 251. 251. 252. 107. 83.
      68. 68. 69. 59. 53. 47. 42. 38. 33. 56. 89. 108. 211. 225. 214.
      210. 193. 190. 193. 187. 195. 190. 176. 175. 175. 165. 149. 140.
      137. 139. 147. 161. 192. 210. 216. 224. 230. 227. 229. 215. 201.
      191. 176. 164. 160. 149. 150. 148. 162. 163. 176. 176. 176. 174.
      193. 202. 207. 193. 176. 160. 148. 139. 126. 124. 120. 116. 113.
      115. 131. 149. 163. 190. 200. 202. 201. 209. 211. 209. 201. 191.
      162. 138. 123. 114. 108. 98. 88. 80. 72. 53. 32. 20. 19. 18. 22.
      29. 29. 201. 249. 255. 235. 91. 68. 54. 68. 68. 60. 53. 47. 41.
      37. 35. 58. 88. 108. 189. 215. 219. 208. 190. 177. 189. 205. 198.
      189. 179. 175. 160. 147. 148. 134. 140. 139. 146. 175. 197. 205.
      221. 224. 227. 231. 225. 216. 201. 192. 174. 161. 153. 148. 149.
      148. 150. 160. 175. 175. 177. 177. 191. 198. 203. 191. 165. 148.
      131. 124. 119. 116. 114. 112. 116. 126. 147. 174. 190. 209. 211.
      208. 217. 217. 211. 215. 212. 200. 175. 150. 131. 116. 107. 96.
      86. 77. 68. 48. 28. 18. 19. 19. 22. 29. 29. 239. 255. 251. 104.
      76. 56. 56. 60. 62. 62. 60. 54. 44. 35. 32. 53. 84. 105. 165. 208.
      211. 203. 189. 192. 193. 198. 205. 190. 179. 176. 163. 149. 138.
      140. 136. 151. 164. 176. 200. 215. 227. 226. 230. 229. 221. 213.
      202. 188. 178. 164. 146. 153. 146. 149. 163. 175. 177. 177. 177.
      174. 189. 203. 202. 176. 159. 141. 124. 120. 118. 111. 110. 114.
      118. 139. 162. 192. 203. 217. 220. 223. 222. 224. 224. 215. 206.
      203. 178. 161. 139. 117. 105. 95. 84. 75. 63. 40. 22. 15. 18. 20.
      23. 30. 29. 251. 252. 249. 102. 69. 49. 50. 56. 57. 65. 64. 57.
      43. 30. 29. 47. 78. 102. 162. 202. 199. 188. 179. 191. 190. 205.
      189. 189. 176. 174. 161. 151. 137. 140. 137. 148. 175. 200. 206.
      220. 227. 230. 236. 221. 217. 207. 198. 178. 172. 164. 149. 147.
      152. 164. 159. 179. 174. 162. 162. 174. 193. 202. 198. 176. 149.
      130. 123. 117. 114. 110. 111. 117. 130. 148. 162. 192. 208. 222.
      225. 228. 233. 231. 218. 220. 209. 191. 175. 160. 140. 114. 102.
      94. 85. 74. 58. 33. 18. 14. 19. 22. 23. 31. 30. 255. 254. 115. 93.
      58. 51. 42. 54. 55. 62. 54. 47. 36. 28. 31. 48. 83. 108. 160. 192.
      192. 177. 176. 176. 188. 192. 194. 178. 177. 176. 164. 148. 137.
      136. 141. 162. 191. 216. 217. 220. 228. 236. 238. 221. 217. 204.
      192. 176. 164. 162. 148. 149. 148. 161. 174. 175. 179. 173. 177.
      190. 203. 210. 209. 193. 164. 135. 128. 119. 111. 113. 114. 123.
      140. 161. 175. 201. 215. 225. 229. 234. 236. 235. 232. 215. 199.
      190. 165. 150. 136. 110. 99. 91. 83. 73. 52. 27. 16. 14. 19. 22.
      23. 34. 32. 250. 250. 100. 77. 62. 57. 50. 61. 51. 56. 42. 36. 31.
      29. 35. 48. 78. 101. 127. 177. 174. 161. 162. 161. 166. 175. 173.
      177. 160. 160. 165. 147. 137. 138. 134. 165. 201. 215. 225. 231.
      236. 244. 239. 234. 224. 214. 197. 192. 176. 178. 176. 176. 189.
      206. 203. 209. 205. 212. 217. 219. 224. 235. 237. 219. 200. 151.
      127. 123. 114. 114. 118. 141. 158. 181. 200. 216. 223. 227. 234.
      242. 238. 239. 229. 223. 202. 177. 159. 147. 132. 108. 98. 88. 82.
      70. 47. 24. 14. 13. 16. 20. 22. 40. 41. 254. 133. 89. 66. 62. 64.
      51. 59. 54. 59. 43. 36. 32. 30. 37. 47. 65. 90. 104. 159. 161.
      153. 148. 150. 160. 173. 176. 162. 164. 149. 149. 152. 141. 135.
      132. 148. 199. 231. 232. 243. 246. 250. 245. 247. 234. 230. 217.
      216. 206. 202. 200. 211. 210. 214. 222. 224. 231. 234. 238. 244.
      247. 250. 251. 245. 223. 175. 128. 121. 117. 125. 141. 174. 191.
      201. 215. 221. 231. 236. 239. 241. 243. 239. 229. 217. 206. 194.
      162. 139. 124. 106. 98. 86. 81. 67. 41. 20. 11. 12. 14. 19. 27.
      55. 59. 209. 101. 78. 62. 62. 56. 56. 59. 63. 71. 52. 42. 33. 29.
      38. 49. 55. 78. 97. 122. 149. 149. 149. 148. 162. 179. 176. 162.
      161. 149. 149. 137. 136. 131. 139. 173. 219. 238. 248. 251. 250.
      250. 250. 250. 240. 241. 236. 229. 224. 215. 199. 177. 139. 138.
      176. 229. 241. 248. 249. 251. 250. 251. 252. 249. 239. 213. 149.
      125. 124. 150. 175. 202. 210. 214. 227. 226. 233. 237. 239. 240.
      240. 234. 222. 217. 207. 192. 162. 138. 116. 103. 97. 85. 80. 65.
      35. 16. 9. 11. 14. 21. 33. 69. 78. 103. 97. 67. 60. 51. 43. 51.
      58. 75. 76. 69. 50. 33. 34. 46. 54. 54. 67. 89. 108. 124. 137.
      151. 161. 176. 191. 178. 159. 163. 147. 151. 137. 136. 154. 188.
      217. 234. 246. 250. 250. 250. 251. 249. 247. 245. 236. 137. 109.
      102. 97. 93. 88. 94. 99. 106. 107. 119. 223. 247. 252. 247. 249.
      253. 249. 245. 223. 190. 163. 161. 190. 208. 216. 216. 222. 228.
      232. 234. 237. 239. 240. 236. 229. 224. 215. 202. 188. 164. 137.
      108. 104. 92. 82. 72. 52. 27. 12. 9. 10. 13. 26. 38. 90. 95. 97.
      86. 57. 51. 44. 38. 49. 63. 71. 69. 60. 44. 31. 29. 34. 37. 34.
      42. 65. 93. 105. 107. 119. 137. 176. 194. 196. 193. 202. 191. 190.
      176. 191. 207. 229. 237. 239. 238. 216. 191. 136. 116. 111. 109.
      103. 106. 88. 72. 60. 55. 49. 42. 52. 67. 82. 87. 92. 88. 99. 102.
      110. 119. 189. 215. 220. 218. 214. 209. 203. 211. 209. 209. 204.
      208. 212. 213. 214. 215. 217. 217. 208. 203. 191. 164. 131. 114.
      111. 108. 106. 94. 80. 71. 58. 35. 15. 6. 7. 10. 20. 30. 61. 102.
      109. 80. 73. 54. 45. 42. 43. 45. 48. 48. 42. 34. 26. 19. 18. 18.
      15. 15. 14. 25. 51. 73. 85. 93. 101. 98. 103. 100. 97. 102. 100.
      106. 103. 105. 97. 97. 97. 95. 95. 92. 90. 91. 84. 86. 83. 75. 61.
      49. 24. 12. 10. 6. 2. 11. 25. 38. 41. 38. 52. 60. 70. 73. 83. 90.
      93. 97. 96. 99. 102. 100. 104. 105. 109. 104. 106. 108. 109. 108.
      108. 107. 106. 105. 104. 106. 106. 101. 101. 103. 101. 92. 76. 62.
      53. 40. 21. 9. 6. 6. 18. 18. 38. 84. 118. 253. 71. 64. 49. 35. 35.
      39. 35. 30. 23. 18. 13. 11. 9. 9. 7. 3. 2. 3. 6. 13. 27. 41. 50.
      51. 57. 58. 60. 64. 66. 72. 83. 89. 84. 81. 83. 80. 74. 71. 66.
      61. 52. 49. 42. 32. 29. 24. 6. 1. 2. 3. 2. 1. 4. 9. 11. 10. 8. 11.
      8. 16. 20. 31. 33. 42. 48. 49. 58. 71. 79. 84. 80. 74. 82. 84. 88.
      91. 94. 95. 94. 93. 96. 94. 95. 96. 95. 95. 92. 86. 75. 60. 48.
      38. 25. 14. 8. 4. 7. 11. 35. 65. 99. 252. 255. 70. 57. 43. 28. 22.
      19. 13. 11. 9. 6. 4. 4. 2. 1. 1. 0. 0. 1. 3. 3. 2. 4. 8. 11. 13.
      10. 10. 13. 14. 28. 49. 67. 57. 37. 28. 27. 26. 24. 24. 28. 33.
      29. 31. 33. 28. 26. 14. 20. 16. 16. 15. 15. 12. 8. 3. 2. 3. 3. 7.
      5. 6. 3. 7. 3. 6. 7. 10. 21. 42. 60. 65. 56. 54. 51. 48. 49. 52.
      58. 64. 67. 71. 76. 81. 83. 82. 84. 85. 82. 66. 52. 42. 35. 23.
      13. 8. 6. 11. 21. 54. 93. 235. 253. 247. 67. 58. 44. 24. 12. 6. 5.
      4. 3. 2. 3. 3. 1. 1. 2. 2. 0. 0. 0. 2. 3. 3. 2. 2. 3. 2. 3. 4. 2.
      11. 31. 49. 44. 27. 18. 16. 19. 24. 24. 23. 27. 24. 22. 23. 23.
      23. 29. 33. 36. 38. 39. 42. 33. 22. 12. 9. 5. 9. 3. 5. 6. 1. 2. 6.
      2. 3. 2. 6. 27. 51. 65. 57. 54. 51. 47. 45. 43. 40. 37. 35. 37.
      43. 50. 54. 61. 67. 68. 66. 54. 42. 35. 34. 25. 12. 7. 10. 21. 57.
      98. 218. 255. 255. 255. 93. 83. 65. 37. 19. 9. 10. 7. 8. 8. 9. 8.
      5. 5. 6. 4. 3. 4. 5. 4. 3. 4. 7. 8. 8. 11. 11. 11. 12. 18. 38. 52.
      44. 20. 11. 16. 17. 16. 19. 28. 31. 38. 33. 29. 33. 29. 29. 28.
      37. 40. 43. 46. 37. 29. 21. 20. 21. 23. 28. 24. 22. 20. 23. 15.
      12. 14. 15. 19. 40. 62. 81. 78. 72. 64. 54. 47. 43. 39. 36. 34.
      33. 32. 28. 24. 26. 33. 41. 47. 37. 36. 40. 49. 52. 49. 52. 62.
      84. 101. 251. 255. 254. 250. 255. 118. 110. 101. 90. 79. 65. 65.
      63. 64. 63. 62. 58. 54. 52. 49. 44. 41. 36. 34. 35. 35. 33. 34.
      36. 40. 43. 40. 37. 37. 36. 51. 59. 55. 42. 35. 33. 34. 38. 36.
      32. 30. 30. 27. 26. 22. 21. 20. 27. 26. 28. 25. 26. 21. 25. 28.
      34. 44. 48. 53. 55. 51. 51. 44. 48. 47. 45. 42. 44. 58. 72. 90.
      89. 92. 90. 90. 93. 93. 87. 79. 74. 70. 67. 62. 62. 66. 69. 73.
      78. 77. 83. 88. 94. 98. 98. 102. 111. 246. 250. 255. 254. 255.
      255. 254. 252. 251. 116. 99. 92. 84. 78. 76. 74. 78. 76. 72. 66.
      60. 57. 52. 48. 45. 44. 44. 46. 48. 48. 55. 63. 67. 65. 62. 61.
      61. 65. 68. 66. 59. 55. 55. 53. 50. 49. 48. 48. 47. 47. 41. 31.
      22. 14. 12. 10. 9. 7. 7. 8. 13. 26. 41. 49. 58. 65. 68. 68. 68.
      68. 70. 70. 70. 70. 70. 72. 79. 86. 88. 89. 90. 91. 92. 93. 95.
      97. 97. 93. 84. 69. 58. 55. 55. 60. 67. 74. 87. 96. 103. 125. 252.
      253. 254. 255. 255. 255. 255. 255. 254. 254.</_>
    <_>
      0. 0. 0. 0. 0. 0. 0. 0. 0. 2. 0. 0. 3. 0. 0. 59. 73. 76. 51. 46.
      46. 46. 41. 44. 49. 58. 65. 62. 89. 97. 114. 128. 145. 144. 140.
      132. 145. 139. 135. 133. 127. 131. 121. 127. 121. 113. 93. 71. 72.
      82. 91. 100. 113. 121. 135. 135. 119. 79. 0. 4. 0. 0. 1. 0. 1. 0.
      1. 0. 2. 0. 0. 1. 0. 1. 0. 0. 1. 0. 0. 1. 1. 0. 0. 0. 0. 1. 0. 0.
      0. 1. 1. 0. 0. 0. 0. 0. 0. 0. 0. 0. 0. 0. 0. 0. 0. 0. 0. 0. 0. 0.
      0. 0. 0. 2. 2. 0. 0. 2. 64. 85. 87. 60. 48. 43. 47. 45. 44. 52.
      59. 65. 71. 92. 100. 108. 119. 136. 137. 134. 126. 133. 129. 129.
      132. 131. 136. 126. 129. 122. 113. 93. 71. 67. 75. 87. 96. 107.
      120. 132. 140. 128. 123. 112. 112. 98. 75. 38. 0. 0. 0. 1. 0. 0.
      0. 1. 0. 0. 2. 2. 0. 0. 2. 1. 0. 0. 0. 2. 2. 1. 0. 0. 0. 0. 0. 0.
      0. 1. 1. 0. 0. 0. 0. 0. 0. 0. 0. 0. 0. 0. 0. 0. 0. 0. 0. 0. 4. 0.
      0. 0. 3. 0. 35. 81. 97. 101. 78. 58. 41. 41. 44. 47. 48. 55. 59.
      71. 81. 93. 103. 117. 126. 133. 131. 124. 121. 117. 119. 126. 132.
      137. 128. 127. 118. 109. 89. 68. 67. 68. 78. 84. 98. 121. 139.
      157. 155. 142. 146. 140. 134. 124. 116. 111. 102. 82. 44. 5. 0. 1.
      4. 0. 2. 0. 0. 0. 0. 0. 0. 0. 3. 0. 0. 0. 0. 1. 1. 0. 2. 2. 1. 0.
      0. 0. 0. 1. 0. 0. 0. 0. 0. 0. 0. 0. 0. 0. 0. 0. 0. 0. 0. 0. 0. 3.
      0. 0. 0. 51. 89. 104. 110. 99. 82. 57. 45. 44. 46. 49. 52. 52. 63.
      68. 81. 87. 95. 106. 115. 113. 109. 102. 103. 108. 120. 128. 132.
      125. 122. 114. 107. 90. 73. 62. 61. 69. 77. 105. 138. 170. 188.
      185. 192. 189. 186. 176. 158. 143. 139. 130. 124. 116. 107. 107.
      89. 58. 29. 2. 0. 0. 1. 0. 0. 2. 2. 0. 0. 0. 1. 0. 0. 0. 0. 0. 0.
      0. 1. 0. 0. 0. 0. 0. 0. 0. 0. 0. 0. 0. 0. 0. 0. 0. 0. 0. 0. 0. 4.
      0. 1. 2. 0. 28. 54. 88. 102. 107. 107. 106. 99. 98. 98. 98. 97.
      95. 82. 64. 49. 54. 71. 88. 92. 98. 95. 92. 85. 88. 92. 102. 111.
      114. 110. 107. 101. 98. 87. 76. 65. 66. 71. 78. 114. 145. 180.
      187. 175. 187. 180. 178. 176. 180. 181. 181. 175. 157. 143. 139.
      140. 128. 119. 115. 107. 98. 74. 36. 5. 0. 0. 0. 1. 2. 0. 1. 1. 0.
      2. 1. 2. 0. 0. 0. 1. 0. 0. 0. 0. 0. 0. 0. 0. 0. 0. 0. 0. 0. 0. 0.
      0. 0. 0. 0. 0. 0. 0. 0. 30. 51. 78. 90. 94. 97. 99. 102. 108. 109.
      106. 108. 110. 108. 104. 102. 103. 103. 102. 100. 97. 85. 76. 67.
      73. 79. 89. 91. 93. 92. 91. 90. 90. 86. 82. 84. 86. 85. 86. 115.
      140. 171. 173. 168. 168. 178. 178. 173. 173. 173. 171. 172. 173.
      177. 178. 178. 163. 149. 140. 139. 132. 122. 113. 104. 90. 63. 36.
      0. 1. 0. 1. 1. 0. 1. 0. 0. 0. 0. 0. 0. 0. 0. 3. 0. 0. 0. 0. 0. 0.
      0. 0. 0. 0. 0. 0. 0. 0. 0. 1. 2. 0. 2. 28. 36. 48. 51. 61. 71. 83.
      90. 98. 104. 107. 110. 112. 113. 110. 107. 106. 107. 108. 111.
      113. 114. 112. 109. 104. 103. 101. 102. 102. 100. 98. 91. 86. 81.
      78. 76. 84. 87. 85. 82. 96. 120. 146. 155. 155. 154. 167. 166.
      166. 172. 175. 177. 175. 178. 179. 174. 181. 185. 186. 182. 177.
      167. 154. 144. 136. 126. 117. 115. 104. 97. 73. 49. 23. 3. 2. 0.
      1. 0. 0. 2. 1. 0. 0. 1. 0. 0. 0. 0. 0. 0. 0. 0. 0. 0. 0. 0. 0. 0.
      0. 0. 0. 0. 2. 34. 44. 42. 47. 42. 45. 50. 52. 56. 57. 65. 79. 85.
      93. 97. 106. 107. 108. 107. 113. 115. 115. 113. 110. 108. 109.
      111. 112. 115. 113. 114. 112. 110. 109. 110. 113. 115. 118. 115.
      106. 102. 122. 137. 154. 157. 157. 155. 160. 161. 158. 156. 167.
      173. 174. 177. 178. 182. 180. 180. 181. 180. 185. 187. 185. 179.
      164. 149. 142. 134. 129. 116. 114. 111. 99. 89. 74. 41. 24. 5. 0.
      0. 1. 0. 0. 0. 0. 0. 0. 0. 0. 0. 0. 0. 0. 0. 0. 0. 0. 0. 0. 0. 4.
      26. 35. 49. 46. 40. 42. 45. 48. 49. 50. 51. 51. 52. 55. 57. 59.
      62. 66. 72. 79. 83. 91. 96. 102. 107. 109. 110. 112. 114. 115.
      115. 115. 114. 114. 114. 114. 115. 115. 117. 118. 118. 118. 123.
      137. 153. 159. 157. 158. 165. 164. 160. 164. 166. 168. 167. 168.
      172. 178. 183. 185. 186. 183. 185. 187. 186. 186. 186. 184. 181.
      175. 165. 151. 141. 136. 132. 126. 120. 113. 108. 98. 84. 54. 26.
      4. 0. 1. 0. 0. 1. 0. 1. 0. 0. 0. 0. 0. 0. 0. 0. 0. 0. 5. 23. 39.
      43. 45. 46. 44. 43. 44. 45. 48. 52. 54. 55. 56. 56. 57. 58. 59.
      60. 63. 66. 68. 72. 73. 75. 75. 76. 79. 83. 86. 92. 94. 97. 101.
      105. 110. 114. 116. 119. 118. 118. 118. 119. 119. 123. 130. 140.
      154. 169. 176. 171. 166. 168. 167. 167. 163. 161. 163. 165. 166.
      166. 168. 178. 185. 190. 191. 189. 187. 185. 183. 179. 179. 180.
      180. 178. 171. 161. 152. 142. 138. 131. 122. 117. 112. 102. 91.
      64. 36. 5. 0. 1. 0. 0. 29. 29. 29. 29. 29. 29. 29. 29. 30. 26. 33.
      39. 47. 46. 48. 41. 43. 42. 43. 47. 53. 58. 60. 61. 62. 64. 65.
      66. 68. 70. 72. 73. 70. 70. 70. 70. 69. 69. 70. 72. 70. 71. 74.
      77. 80. 83. 87. 89. 91. 92. 96. 103. 110. 114. 117. 123. 133. 154.
      175. 190. 194. 192. 188. 180. 174. 169. 166. 166. 165. 161. 160.
      162. 163. 164. 166. 170. 176. 183. 187. 187. 186. 185. 184. 184.
      184. 185. 185. 186. 183. 180. 174. 159. 150. 137. 133. 129. 121.
      111. 101. 96. 77. 47. 33. 39. 39. 39. 39. 39. 39. 39. 39. 40. 37.
      44. 46. 52. 49. 52. 48. 48. 45. 45. 49. 55. 60. 63. 64. 64. 66.
      67. 68. 69. 70. 71. 72. 71. 73. 75. 76. 77. 76. 76. 75. 72. 73.
      74. 75. 77. 79. 81. 82. 85. 86. 88. 91. 94. 97. 104. 113. 130.
      154. 179. 195. 199. 196. 195. 194. 194. 190. 186. 181. 175. 167.
      161. 159. 161. 164. 165. 163. 160. 160. 163. 165. 174. 177. 181.
      186. 188. 188. 189. 189. 189. 186. 186. 186. 187. 180. 174. 168.
      153. 143. 135. 134. 128. 124. 120. 52. 52. 52. 52. 52. 52. 52. 52.
      51. 53. 58. 58. 55. 51. 53. 55. 57. 54. 53. 55. 59. 61. 63. 65.
      67. 68. 69. 69. 69. 71. 72. 73. 75. 75. 76. 76. 77. 77. 77. 77.
      76. 77. 79. 80. 82. 84. 86. 87. 88. 90. 91. 93. 95. 99. 110. 123.
      142. 169. 191. 201. 202. 198. 199. 199. 197. 198. 197. 195. 193.
      191. 188. 186. 177. 170. 162. 158. 160. 162. 162. 161. 155. 157.
      161. 167. 174. 180. 185. 189. 188. 192. 191. 190. 188. 190. 188.
      186. 185. 183. 187. 191. 198. 215. 207. 58. 58. 58. 58. 58. 58.
      58. 58. 58. 58. 56. 56. 53. 55. 58. 63. 61. 58. 58. 60. 63. 65.
      68. 71. 69. 69. 69. 69. 70. 71. 72. 72. 79. 78. 78. 78. 79. 79.
      79. 78. 81. 82. 83. 85. 86. 87. 88. 89. 92. 94. 95. 98. 101. 105.
      115. 128. 148. 178. 198. 202. 202. 202. 201. 197. 198. 199. 198.
      196. 195. 196. 196. 193. 192. 192. 190. 185. 178. 169. 163. 160.
      163. 160. 159. 160. 161. 163. 165. 167. 174. 179. 183. 191. 190.
      193. 191. 192. 198. 215. 236. 240. 239. 249. 244. 62. 62. 62. 62.
      62. 62. 62. 62. 60. 63. 62. 61. 55. 52. 51. 56. 59. 57. 57. 61.
      65. 68. 72. 77. 79. 79. 79. 78. 77. 77. 76. 76. 75. 76. 77. 79.
      81. 82. 82. 81. 80. 82. 84. 86. 88. 89. 91. 92. 93. 94. 96. 98.
      102. 108. 119. 131. 154. 188. 208. 208. 205. 204. 206. 207. 205.
      204. 203. 201. 200. 200. 199. 198. 198. 196. 194. 195. 195. 194.
      191. 188. 176. 171. 167. 165. 164. 163. 163. 165. 165. 168. 170.
      172. 173. 184. 204. 223. 236. 239. 244. 242. 244. 239. 241. 69.
      69. 69. 69. 69. 69. 69. 69. 70. 69. 68. 68. 69. 66. 62. 62. 58.
      55. 55. 59. 64. 67. 72. 77. 80. 81. 82. 83. 84. 85. 85. 84. 84.
      83. 82. 82. 82. 82. 83. 83. 82. 84. 86. 88. 89. 90. 91. 91. 94.
      96. 98. 100. 104. 111. 125. 140. 173. 195. 206. 209. 212. 209.
      208. 207. 207. 206. 205. 206. 205. 203. 201. 201. 199. 200. 200.
      200. 197. 195. 194. 195. 195. 193. 191. 190. 186. 177. 170. 167.
      168. 166. 166. 168. 190. 216. 237. 241. 245. 243. 243. 240. 236.
      207. 211. 62. 62. 62. 62. 62. 62. 62. 62. 63. 63. 63. 62. 61. 60.
      61. 62. 63. 61. 62. 66. 69. 73. 76. 76. 75. 79. 79. 83. 85. 83.
      84. 83. 83. 83. 84. 84. 84. 88. 91. 91. 92. 93. 97. 97. 97. 99.
      100. 104. 103. 102. 102. 105. 108. 115. 135. 159. 190. 205. 212.
      213. 212. 211. 213. 210. 211. 213. 208. 212. 205. 207. 204. 208.
      213. 216. 216. 211. 205. 202. 200. 198. 196. 197. 199. 198. 196.
      195. 195. 194. 190. 188. 191. 203. 234. 238. 241. 250. 244. 235.
      229. 181. 173. 177. 191. 49. 49. 49. 49. 49. 49. 49. 49. 47. 48.
      50. 52. 54. 57. 60. 63. 57. 54. 55. 59. 62. 65. 65. 63. 66. 69.
      71. 78. 87. 92. 96. 98. 97. 92. 89. 89. 88. 89. 91. 91. 94. 94.
      100. 105. 109. 111. 108. 108. 112. 112. 112. 112. 113. 123. 152.
      183. 208. 215. 216. 215. 216. 215. 214. 209. 212. 215. 215. 215.
      214. 221. 227. 232. 234. 238. 241. 239. 237. 236. 236. 235. 237.
      230. 219. 206. 199. 198. 200. 202. 223. 234. 241. 244. 246. 244.
      244. 233. 219. 178. 157. 147. 166. 177. 182. 35. 35. 35. 35. 35.
      35. 35. 35. 34. 34. 35. 35. 35. 36. 38. 40. 48. 47. 48. 50. 51.
      52. 52. 51. 52. 61. 65. 71. 79. 93. 114. 130. 135. 120. 105. 94.
      88. 88. 92. 95. 97. 94. 97. 101. 106. 107. 104. 104. 105. 104.
      104. 107. 119. 142. 175. 204. 220. 221. 217. 217. 219. 218. 217.
      214. 217. 213. 212. 214. 223. 232. 239. 241. 241. 244. 246. 246.
      246. 247. 247. 246. 244. 241. 239. 237. 230. 222. 227. 238. 238.
      245. 244. 247. 243. 236. 216. 177. 142. 134. 139. 147. 164. 181.
      179. 35. 35. 35. 35. 35. 35. 35. 35. 37. 37. 36. 35. 34. 34. 35.
      36. 36. 34. 35. 36. 35. 35. 38. 38. 51. 56. 60. 74. 96. 121. 148.
      164. 176. 161. 146. 136. 131. 127. 122. 116. 101. 93. 89. 89. 92.
      93. 91. 93. 105. 118. 129. 134. 144. 166. 197. 220. 227. 227. 223.
      221. 221. 218. 218. 219. 218. 216. 221. 228. 236. 237. 241. 244.
      250. 251. 252. 252. 253. 254. 254. 253. 253. 251. 247. 243. 239.
      238. 240. 243. 249. 248. 243. 236. 211. 172. 143. 127. 128. 122.
      138. 160. 168. 166. 153. 35. 35. 35. 35. 35. 35. 35. 35. 33. 34.
      34. 34. 35. 35. 35. 36. 33. 34. 36. 38. 37. 37. 40. 40. 48. 74.
      99. 115. 126. 146. 183. 214. 222. 206. 188. 178. 175. 175. 166.
      154. 143. 134. 129. 127. 127. 120. 106. 99. 116. 136. 153. 164.
      180. 202. 221. 230. 228. 229. 225. 226. 226. 223. 223. 225. 222.
      224. 227. 234. 238. 241. 244. 247. 247. 248. 250. 252. 253. 253.
      253. 252. 247. 248. 249. 250. 251. 249. 248. 248. 244. 234. 217.
      177. 151. 140. 140. 140. 131. 137. 149. 149. 147. 150. 150. 35.
      35. 35. 35. 35. 35. 35. 35. 35. 35. 36. 36. 35. 35. 35. 34. 36.
      36. 36. 34. 37. 55. 82. 102. 116. 122. 129. 146. 168. 188. 206.
      215. 217. 221. 226. 230. 231. 228. 217. 203. 190. 179. 171. 169.
      171. 168. 153. 143. 152. 185. 215. 224. 224. 226. 227. 227. 226.
      226. 223. 226. 230. 227. 227. 226. 223. 229. 234. 238. 239. 243.
      244. 244. 245. 247. 249. 250. 250. 248. 245. 244. 245. 246. 248.
      248. 250. 250. 244. 236. 229. 197. 184. 159. 151. 155. 167. 171.
      169. 155. 148. 141. 142. 141. 140. 39. 39. 39. 39. 39. 39. 39. 39.
      38. 38. 39. 39. 39. 39. 39. 39. 36. 39. 44. 46. 49. 66. 94. 115.
      120. 136. 156. 181. 200. 208. 210. 209. 213. 216. 218. 217. 216.
      221. 227. 229. 231. 228. 230. 231. 231. 225. 208. 194. 205. 221.
      230. 230. 228. 229. 227. 225. 229. 228. 224. 225. 227. 224. 222.
      221. 216. 219. 228. 236. 243. 241. 242. 243. 246. 247. 248. 248.
      246. 244. 243. 243. 244. 251. 252. 247. 247. 241. 214. 182. 171.
      165. 171. 162. 160. 174. 192. 197. 178. 158. 144. 137. 136. 135.
      135. 42. 42. 42. 42. 42. 42. 42. 42. 43. 42. 42. 42. 42. 42. 42.
      42. 48. 46. 47. 51. 60. 78. 100. 114. 127. 140. 152. 167. 179.
      186. 195. 200. 204. 206. 210. 214. 215. 217. 220. 221. 221. 222.
      226. 226. 229. 234. 232. 231. 230. 235. 235. 233. 233. 234. 233.
      233. 229. 230. 226. 226. 225. 222. 222. 222. 219. 191. 183. 198.
      230. 238. 242. 240. 242. 242. 243. 243. 243. 244. 247. 250. 253.
      248. 247. 243. 222. 187. 160. 150. 158. 170. 175. 174. 175. 177.
      173. 168. 158. 150. 142. 138. 135. 135. 134. 46. 46. 46. 46. 46.
      46. 46. 46. 46. 46. 46. 46. 46. 46. 47. 48. 49. 52. 52. 55. 62.
      69. 79. 91. 102. 114. 124. 133. 143. 151. 161. 173. 183. 194. 202.
      205. 207. 212. 216. 217. 219. 220. 222. 223. 224. 225. 227. 229.
      230. 232. 233. 232. 232. 233. 234. 233. 234. 233. 234. 233. 229.
      223. 221. 223. 220. 188. 163. 150. 167. 202. 232. 240. 240. 240.
      242. 243. 244. 248. 251. 252. 249. 238. 234. 203. 175. 153. 139.
      146. 156. 154. 157. 156. 160. 155. 151. 146. 146. 147. 144. 140.
      133. 133. 132. 46. 46. 46. 46. 46. 46. 46. 46. 47. 47. 49. 51. 52.
      52. 52. 53. 51. 53. 53. 54. 58. 61. 67. 76. 84. 93. 101. 109. 118.
      125. 134. 144. 152. 163. 175. 182. 189. 197. 204. 207. 214. 216.
      218. 219. 219. 220. 223. 225. 222. 225. 227. 227. 228. 230. 231.
      231. 231. 233. 235. 236. 234. 233. 233. 234. 232. 204. 174. 147.
      137. 147. 168. 199. 235. 241. 246. 249. 253. 250. 250. 237. 234.
      202. 187. 171. 160. 150. 147. 155. 152. 152. 153. 148. 153. 155.
      155. 148. 146. 145. 139. 136. 131. 132. 132. 76. 76. 76. 76. 76.
      76. 76. 76. 75. 75. 76. 75. 73. 71. 70. 69. 65. 66. 65. 64. 65.
      64. 66. 71. 78. 83. 88. 93. 100. 105. 112. 120. 124. 132. 142.
      151. 159. 168. 177. 183. 191. 197. 202. 205. 205. 207. 209. 209.
      215. 218. 222. 224. 223. 220. 219. 218. 226. 229. 232. 232. 232.
      234. 235. 235. 236. 232. 221. 192. 160. 151. 166. 218. 239. 250.
      250. 253. 251. 245. 236. 213. 180. 163. 172. 182. 176. 160. 149.
      141. 144. 150. 153. 149. 155. 162. 165. 158. 149. 144. 136. 132.
      127. 129. 127. 100. 100. 100. 100. 100. 100. 100. 100. 102. 102.
      101. 99. 98. 97. 96. 95. 92. 92. 90. 89. 88. 86. 86. 88. 87. 88.
      90. 92. 96. 100. 104. 108. 114. 117. 122. 127. 132. 139. 147. 154.
      166. 176. 186. 192. 194. 196. 198. 198. 199. 206. 215. 222. 222.
      219. 216. 216. 218. 221. 224. 226. 227. 229. 230. 231. 231. 235.
      238. 234. 230. 224. 219. 237. 243. 255. 252. 253. 242. 231. 194.
      155. 151. 153. 162. 165. 154. 147. 149. 148. 152. 153. 148. 140.
      140. 146. 150. 148. 139. 137. 130. 126. 124. 131. 131. 125. 125.
      125. 125. 125. 125. 125. 125. 124. 124. 123. 122. 121. 121. 120.
      119. 118. 116. 114. 112. 110. 109. 109. 108. 109. 107. 107. 108.
      109. 110. 113. 113. 115. 115. 117. 120. 122. 126. 133. 138. 143.
      152. 163. 169. 173. 179. 183. 185. 192. 198. 207. 214. 215. 213.
      212. 213. 216. 216. 218. 221. 222. 221. 222. 225. 232. 237. 240.
