<?xml version="1.0"?>
<opencv_storage>
<my_svm type_id="opencv-ml-svm">
  <svm_type>C_SVC</svm_type>
  <kernel><type>LINEAR</type></kernel>
  <C>1.</C>
  <term_criteria><epsilon>2.2204460492503131e-16</epsilon>
    <iterations>1000</iterations></term_criteria>
  <var_all>3399</var_all>
  <var_count>3399</var_count>
  <class_count>2</class_count>
  <class_labels type_id="opencv-matrix">
    <rows>1</rows>
    <cols>2</cols>
    <dt>i</dt>
    <data>
      0 1</data></class_labels>
  <sv_total>35</sv_total>
  <support_vectors>
    <_>
      145. 193. 237. 253. 254. 254. 255. 254. 236. 211. 247. 254. 252.
      241. 252. 245. 240. 213. 187. 156. 113. 95. 87. 89. 90. 84. 63.
      35. 37. 36. 44. 45. 45. 47. 47. 55. 99. 102. 100. 50. 38. 44. 73.
      75. 76. 81. 109. 143. 158. 162. 165. 158. 148. 156. 186. 233. 213.
      180. 108. 21. 36. 64. 90. 99. 111. 115. 120. 132. 132. 132. 132.
      131. 131. 132. 132. 132. 132. 132. 133. 133. 132. 132. 132. 132.
      132. 132. 132. 132. 132. 132. 132. 132. 132. 132. 132. 132. 131.
      131. 132. 132. 132. 132. 132. 160. 184. 208. 244. 252. 255. 252.
      252. 220. 213. 246. 252. 250. 244. 250. 251. 241. 210. 184. 157.
      113. 91. 78. 83. 88. 78. 61. 36. 36. 38. 45. 45. 41. 48. 53. 65.
      97. 111. 110. 85. 35. 50. 82. 109. 121. 134. 134. 144. 141. 149.
      164. 164. 159. 153. 173. 213. 208. 183. 113. 22. 38. 67. 92. 101.
      109. 115. 121. 131. 131. 132. 132. 132. 133. 133. 132. 131. 131.
      131. 131. 131. 132. 132. 132. 132. 132. 132. 132. 132. 132. 132.
      132. 132. 132. 132. 132. 132. 132. 132. 133. 133. 132. 132. 131.
      136. 158. 171. 189. 209. 235. 247. 235. 206. 208. 240. 255. 254.
      253. 252. 250. 240. 209. 185. 157. 114. 90. 69. 72. 78. 67. 53.
      28. 27. 33. 37. 37. 38. 24. 33. 52. 65. 99. 118. 124. 118. 125.
      134. 137. 136. 147. 152. 162. 169. 172. 184. 173. 159. 135. 158.
      202. 202. 179. 103. 6. 27. 61. 88. 96. 104. 111. 116. 124. 123.
      123. 123. 123. 124. 123. 122. 122. 121. 121. 121. 122. 124. 124.
      124. 124. 124. 124. 124. 124. 124. 124. 124. 124. 124. 124. 124.
      124. 123. 123. 123. 123. 123. 122. 121. 156. 149. 138. 143. 161.
      181. 207. 208. 206. 205. 235. 252. 248. 253. 255. 249. 241. 214.
      190. 159. 118. 94. 66. 64. 72. 64. 48. 19. 19. 27. 26. 28. 18. 22.
      35. 44. 56. 89. 107. 124. 124. 135. 154. 155. 164. 164. 175. 181.
      180. 182. 198. 185. 166. 124. 141. 185. 194. 175. 103. 7. 27. 58.
      82. 91. 95. 104. 106. 112. 111. 111. 111. 111. 111. 111. 110. 110.
      109. 110. 110. 110. 110. 110. 110. 110. 110. 110. 110. 110. 110.
      110. 110. 110. 110. 110. 110. 110. 110. 110. 111. 111. 111. 110.
      110. 161. 155. 122. 106. 100. 131. 164. 180. 192. 206. 236. 242.
      242. 249. 255. 253. 248. 219. 191. 160. 126. 98. 68. 64. 71. 67.
      45. 12. 12. 18. 13. 19. 11. 7. 28. 35. 33. 50. 85. 111. 135. 149.
      170. 164. 169. 161. 187. 205. 219. 206. 208. 186. 166. 122. 131.
      175. 180. 167. 103. 11. 14. 36. 59. 74. 80. 88. 85. 84. 80. 80.
      79. 80. 80. 80. 80. 80. 80. 80. 80. 80. 80. 80. 80. 80. 80. 80.
      80. 80. 80. 80. 80. 80. 80. 80. 80. 80. 80. 80. 80. 80. 80. 80.
      80. 171. 168. 152. 139. 122. 122. 141. 165. 189. 217. 234. 224.
      238. 248. 252. 255. 251. 215. 185. 159. 135. 98. 72. 69. 71. 63.
      36. 7. 6. 9. 5. 13. 11. 10. 33. 48. 44. 8. 10. 45. 97. 139. 175.
      181. 175. 171. 206. 238. 242. 215. 207. 182. 165. 127. 123. 164.
      174. 162. 106. 20. 3. 12. 29. 44. 53. 62. 56. 50. 45. 45. 44. 45.
      45. 45. 45. 45. 45. 45. 45. 45. 46. 46. 46. 46. 46. 46. 46. 46.
      46. 46. 46. 46. 46. 46. 46. 46. 45. 45. 44. 44. 44. 44. 45. 181.
      171. 164. 156. 155. 146. 151. 172. 207. 228. 224. 209. 233. 247.
      250. 254. 244. 208. 177. 156. 145. 103. 80. 75. 72. 55. 28. 10. 8.
      8. 11. 19. 21. 25. 50. 64. 56. 26. 21. 50. 99. 149. 179. 183. 172.
      179. 217. 249. 255. 214. 192. 169. 157. 132. 115. 154. 161. 154.
      111. 38. 5. 2. 5. 12. 37. 51. 51. 48. 44. 45. 45. 47. 45. 45. 45.
      45. 45. 45. 45. 45. 45. 45. 45. 45. 45. 45. 45. 45. 45. 45. 45.
      45. 45. 45. 45. 45. 45. 45. 45. 45. 45. 45. 45. 171. 172. 171.
      174. 174. 172. 162. 180. 204. 217. 215. 214. 240. 254. 253. 254.
      234. 203. 175. 156. 152. 110. 89. 78. 70. 44. 19. 13. 10. 11. 20.
      27. 36. 55. 80. 91. 79. 49. 28. 63. 109. 163. 188. 183. 172. 185.
      227. 255. 248. 197. 168. 151. 151. 139. 111. 143. 153. 151. 118.
      52. 7. 1. 4. 10. 45. 64. 69. 69. 65. 65. 62. 63. 64. 64. 64. 63.
      64. 64. 64. 64. 64. 64. 64. 64. 64. 64. 64. 64. 64. 64. 64. 64.
      64. 64. 64. 64. 63. 64. 64. 64. 64. 64. 64. 159. 161. 168. 185.
      205. 206. 183. 188. 191. 208. 202. 215. 244. 255. 252. 250. 215.
      183. 167. 162. 153. 113. 100. 67. 53. 39. 17. 21. 22. 27. 35. 46.
      53. 92. 111. 124. 114. 79. 55. 76. 117. 159. 188. 193. 176. 178.
      206. 238. 209. 173. 130. 149. 147. 143. 112. 132. 149. 146. 127.
      63. 0. 2. 0. 12. 50. 70. 75. 79. 76. 75. 76. 76. 76. 76. 76. 76.
      76. 76. 76. 76. 76. 76. 76. 76. 76. 76. 76. 76. 76. 76. 76. 76.
      76. 76. 76. 76. 76. 76. 76. 76. 76. 76. 76. 142. 149. 165. 199.
      231. 236. 213. 194. 178. 173. 184. 207. 242. 253. 255. 242. 200.
      173. 167. 163. 157. 117. 96. 56. 45. 28. 25. 25. 37. 35. 46. 54.
      74. 131. 153. 163. 137. 99. 71. 90. 126. 166. 191. 200. 180. 172.
      181. 199. 183. 147. 102. 147. 149. 150. 108. 117. 145. 144. 132.
      67. 3. 1. 0. 9. 50. 68. 72. 70. 68. 69. 70. 68. 69. 69. 69. 69.
      69. 69. 69. 69. 69. 69. 69. 69. 69. 69. 69. 69. 69. 69. 69. 69.
      69. 69. 69. 69. 69. 69. 69. 69. 69. 69. 69. 135. 146. 164. 206.
      244. 253. 246. 218. 188. 154. 150. 161. 207. 249. 255. 237. 184.
      163. 169. 163. 154. 114. 90. 50. 46. 35. 36. 48. 50. 58. 61. 80.
      114. 167. 179. 184. 152. 116. 78. 89. 123. 168. 195. 209. 188.
      173. 166. 171. 159. 126. 82. 151. 153. 157. 110. 115. 148. 144.
      134. 64. 0. 0. 2. 12. 38. 48. 51. 47. 49. 50. 51. 51. 50. 50. 50.
      50. 50. 50. 50. 50. 50. 50. 50. 50. 50. 50. 50. 50. 50. 50. 50.
      50. 50. 50. 50. 50. 50. 50. 50. 50. 50. 50. 50. 144. 152. 166.
      205. 243. 250. 255. 242. 207. 171. 125. 115. 169. 216. 240. 212.
      184. 159. 165. 160. 155. 121. 98. 65. 63. 56. 54. 61. 67. 77. 102.
      140. 170. 205. 205. 196. 157. 117. 68. 75. 117. 167. 202. 216.
      201. 183. 171. 164. 140. 109. 77. 153. 152. 154. 106. 113. 146.
      143. 132. 65. 1. 0. 2. 7. 25. 27. 26. 22. 24. 21. 19. 21. 21. 21.
      21. 21. 21. 21. 21. 21. 21. 21. 21. 21. 21. 21. 21. 21. 21. 21.
      21. 21. 21. 21. 21. 21. 21. 21. 21. 21. 21. 21. 21. 156. 156. 165.
      206. 249. 250. 251. 251. 233. 183. 136. 88. 127. 185. 214. 214.
      182. 159. 164. 158. 148. 117. 101. 84. 90. 92. 91. 102. 113. 111.
      129. 158. 192. 209. 209. 192. 161. 124. 64. 56. 114. 163. 199.
      210. 207. 186. 170. 145. 110. 83. 74. 142. 149. 149. 106. 112.
      143. 142. 124. 67. 3. 2. 1. 4. 12. 21. 24. 22. 22. 21. 20. 21. 21.
      21. 21. 21. 21. 21. 21. 21. 21. 21. 21. 21. 21. 21. 21. 21. 21.
      21. 21. 21. 21. 21. 21. 21. 21. 21. 21. 21. 21. 21. 21. 164. 160.
      163. 203. 250. 251. 244. 251. 238. 199. 149. 100. 89. 148. 179.
      189. 180. 168. 172. 170. 160. 136. 122. 113. 124. 129. 119. 115.
      111. 113. 138. 166. 196. 205. 207. 188. 167. 137. 75. 49. 114.
      157. 189. 197. 205. 184. 161. 120. 88. 71. 76. 118. 135. 136. 110.
      111. 135. 139. 119. 74. 11. 0. 0. 6. 12. 34. 37. 39. 35. 36. 38.
      36. 36. 36. 36. 36. 36. 36. 36. 36. 36. 36. 36. 36. 36. 36. 36.
      36. 36. 36. 36. 36. 36. 36. 36. 36. 36. 36. 36. 36. 36. 36. 36.
      181. 170. 155. 185. 230. 244. 243. 248. 239. 203. 159. 114. 66.
      114. 139. 161. 155. 154. 156. 165. 171. 162. 140. 121. 123. 122.
      118. 103. 99. 112. 137. 143. 166. 182. 192. 186. 168. 143. 96. 69.
      117. 157. 183. 189. 195. 172. 150. 110. 89. 80. 82. 95. 120. 124.
      114. 102. 118. 133. 125. 97. 36. 2. 1. 11. 25. 45. 39. 44. 36. 36.
      36. 33. 36. 36. 36. 36. 36. 36. 36. 36. 36. 36. 36. 36. 36. 36.
      36. 36. 36. 36. 36. 36. 36. 36. 36. 36. 36. 36. 36. 36. 36. 36.
      36. 199. 180. 146. 165. 209. 236. 242. 240. 234. 206. 164. 127.
      67. 52. 81. 95. 117. 133. 141. 152. 157. 153. 130. 109. 111. 116.
      100. 72. 24. 68. 109. 138. 150. 164. 173. 184. 174. 149. 107. 75.
      117. 157. 179. 182. 176. 152. 135. 105. 96. 91. 85. 85. 122. 132.
      130. 102. 112. 132. 133. 112. 53. 4. 7. 25. 52. 63. 50. 67. 64.
      63. 65. 65. 64. 64. 64. 64. 64. 64. 64. 64. 64. 64. 64. 64. 64.
      64. 64. 64. 64. 64. 64. 64. 64. 64. 64. 64. 64. 64. 64. 64. 64.
      64. 64. 211. 192. 154. 145. 185. 214. 240. 241. 232. 204. 172.
      133. 68. 56. 40. 18. 12. 8. 27. 101. 124. 133. 101. 71. 70. 55.
      35. 22. 10. 44. 91. 117. 137. 149. 162. 176. 178. 156. 116. 80.
      110. 157. 174. 177. 157. 141. 120. 113. 99. 93. 91. 85. 116. 128.
      130. 111. 105. 133. 134. 123. 71. 4. 6. 37. 63. 77. 77. 78. 86.
      86. 84. 86. 85. 85. 85. 85. 85. 85. 85. 85. 85. 85. 85. 85. 85.
      85. 85. 85. 85. 85. 85. 85. 85. 85. 85. 85. 85. 85. 85. 85. 85.
      85. 85. 215. 205. 175. 150. 161. 185. 212. 213. 216. 198. 167.
      133. 74. 71. 65. 52. 37. 29. 24. 19. 10. 6. 28. 62. 69. 64. 46.
      23. 22. 10. 43. 94. 121. 140. 157. 167. 174. 165. 140. 101. 98.
      145. 162. 165. 145. 132. 123. 116. 111. 100. 94. 91. 110. 116.
      121. 113. 112. 136. 143. 133. 85. 5. 7. 46. 72. 90. 98. 101. 105.
      104. 103. 105. 105. 105. 105. 105. 105. 105. 105. 105. 105. 105.
      105. 105. 105. 105. 105. 105. 105. 105. 105. 105. 105. 105. 105.
      105. 105. 105. 105. 105. 105. 105. 105. 231. 220. 201. 173. 155.
      160. 181. 193. 189. 187. 164. 141. 93. 91. 85. 72. 51. 45. 36. 26.
      9. 27. 45. 72. 83. 69. 41. 19. 26. 11. 14. 37. 90. 117. 139. 153.
      166. 167. 157. 130. 113. 152. 163. 168. 154. 141. 135. 121. 112.
      100. 93. 91. 98. 105. 111. 108. 105. 137. 147. 139. 96. 27. 13.
      36. 69. 81. 88. 93. 96. 96. 96. 95. 96. 96. 96. 96. 96. 96. 96.
      96. 96. 96. 96. 96. 96. 96. 96. 96. 96. 96. 96. 96. 96. 96. 96.
      96. 96. 96. 96. 96. 96. 96. 96. 242. 232. 223. 202. 174. 159. 158.
      169. 174. 179. 163. 148. 118. 109. 98. 78. 68. 48. 35. 28. 11. 26.
      51. 75. 82. 73. 52. 23. 16. 12. 11. 11. 23. 75. 98. 117. 142. 149.
      144. 138. 109. 142. 160. 168. 155. 143. 141. 132. 119. 109. 99.
      96. 97. 109. 111. 103. 100. 136. 148. 144. 105. 64. 35. 34. 46.
      51. 55. 58. 55. 52. 55. 56. 55. 55. 55. 55. 55. 55. 55. 55. 55.
      55. 55. 55. 55. 55. 55. 55. 55. 55. 55. 55. 55. 55. 55. 55. 55.
      55. 55. 55. 55. 55. 55. 241. 241. 237. 222. 207. 193. 172. 166.
      170. 174. 166. 154. 137. 112. 91. 63. 40. 36. 23. 11. 5. 28. 65.
      86. 91. 79. 58. 19. 22. 12. 10. 10. 12. 8. 21. 71. 98. 111. 114.
      110. 102. 121. 146. 163. 161. 155. 146. 139. 126. 114. 100. 98.
      99. 114. 112. 100. 97. 124. 142. 145. 116. 92. 70. 66. 45. 27. 7.
      2. 3. 4. 6. 2. 4. 4. 4. 4. 4. 4. 4. 4. 4. 4. 4. 4. 4. 4. 4. 4. 4.
      4. 4. 4. 4. 4. 4. 4. 4. 4. 4. 4. 4. 4. 4. 245. 244. 243. 235. 237.
      232. 213. 201. 187. 183. 180. 168. 154. 116. 94. 73. 47. 28. 10.
      8. 6. 25. 68. 95. 101. 90. 64. 21. 21. 12. 8. 13. 11. 22. 19. 22.
      20. 21. 22. 34. 52. 66. 100. 143. 168. 180. 169. 164. 149. 133.
      115. 114. 115. 126. 120. 112. 106. 119. 142. 143. 130. 107. 91.
      89. 86. 87. 89. 93. 91. 88. 91. 90. 90. 90. 90. 90. 90. 90. 90.
      90. 90. 90. 90. 90. 90. 90. 90. 90. 90. 90. 90. 90. 90. 90. 90.
      90. 90. 90. 90. 90. 90. 90. 90. 241. 235. 240. 241. 246. 242. 237.
      230. 213. 198. 188. 168. 148. 114. 110. 117. 110. 87. 71. 36. 23.
      22. 69. 97. 110. 96. 69. 22. 20. 20. 14. 9. 20. 22. 25. 25. 27.
      22. 11. 9. 14. 36. 72. 124. 155. 176. 179. 184. 179. 168. 152.
      150. 146. 148. 141. 137. 132. 134. 151. 149. 143. 114. 89. 91.
      100. 117. 132. 140. 141. 139. 141. 139. 140. 140. 140. 140. 140.
      140. 140. 140. 140. 140. 140. 140. 140. 140. 140. 140. 140. 140.
      140. 140. 140. 140. 140. 140. 140. 140. 140. 140. 140. 140. 140.
      219. 217. 234. 242. 244. 240. 245. 238. 237. 216. 202. 175. 144.
      111. 119. 146. 152. 134. 101. 67. 45. 35. 49. 92. 109. 98. 78. 18.
      29. 20. 20. 12. 21. 20. 38. 36. 36. 26. 18. 11. 25. 44. 64. 110.
      137. 161. 171. 180. 173. 172. 164. 163. 159. 158. 151. 149. 147.
      143. 150. 155. 149. 113. 81. 98. 135. 158. 175. 178. 177. 178.
      180. 179. 179. 179. 179. 179. 179. 179. 179. 179. 179. 179. 179.
      179. 179. 179. 179. 179. 179. 179. 179. 179. 179. 179. 179. 179.
      179. 179. 179. 179. 179. 179. 179. 214. 210. 229. 241. 240. 236.
      235. 237. 237. 217. 195. 165. 134. 92. 115. 147. 162. 157. 124.
      98. 99. 97. 53. 70. 96. 89. 68. 26. 26. 21. 20. 22. 20. 22. 24.
      39. 33. 27. 27. 21. 35. 56. 71. 81. 92. 113. 143. 157. 167. 164.
      167. 164. 161. 160. 153. 149. 151. 149. 159. 160. 152. 113. 97.
      135. 166. 186. 198. 197. 204. 202. 201. 204. 202. 202. 202. 202.
      202. 202. 202. 202. 202. 202. 202. 202. 202. 202. 202. 202. 202.
      202. 202. 202. 202. 202. 202. 202. 202. 202. 202. 202. 202. 202.
      202. 216. 218. 233. 238. 233. 216. 212. 224. 205. 189. 174. 159.
      125. 99. 89. 116. 151. 142. 135. 142. 153. 153. 115. 85. 80. 72.
      57. 24. 27. 24. 19. 20. 23. 24. 38. 46. 52. 42. 35. 35. 56. 71.
      85. 95. 99. 104. 115. 121. 140. 139. 148. 154. 153. 151. 149. 154.
      154. 149. 159. 160. 161. 144. 152. 176. 184. 185. 186. 184. 190.
      190. 190. 191. 191. 191. 191. 191. 191. 191. 191. 191. 190. 190.
      190. 190. 190. 190. 190. 190. 190. 190. 190. 190. 190. 190. 190.
      190. 191. 191. 191. 191. 191. 191. 191. 229. 238. 236. 234. 215.
      215. 203. 207. 175. 159. 156. 170. 165. 142. 74. 86. 114. 113.
      136. 166. 194. 193. 155. 110. 73. 41. 34. 25. 20. 20. 20. 22. 27.
      27. 36. 47. 62. 56. 49. 52. 73. 86. 100. 111. 116. 120. 127. 131.
      140. 143. 148. 147. 148. 153. 150. 144. 144. 148. 164. 169. 178.
      169. 173. 172. 178. 173. 178. 186. 196. 197. 197. 194. 194. 195.
      195. 194. 193. 193. 194. 195. 196. 196. 196. 196. 196. 196. 196.
      196. 196. 196. 196. 196. 196. 196. 196. 196. 194. 195. 195. 195.
      194. 194. 194. 241. 238. 240. 235. 216. 203. 188. 172. 160. 168.
      183. 208. 200. 174. 126. 93. 68. 82. 146. 194. 219. 214. 182. 146.
      89. 39. 27. 26. 18. 20. 22. 26. 26. 35. 45. 80. 98. 90. 76. 65.
      88. 101. 113. 119. 123. 131. 139. 142. 142. 139. 141. 145. 147.
      149. 149. 148. 163. 174. 186. 182. 189. 183. 178. 176. 173. 176.
      184. 191. 198. 197. 198. 197. 199. 199. 199. 198. 197. 197. 198.
      199. 197. 197. 197. 197. 197. 197. 197. 197. 197. 197. 197. 197.
      197. 197. 197. 197. 198. 199. 199. 199. 199. 198. 197. 240. 244.
      236. 237. 211. 204. 182. 168. 186. 201. 234. 247. 235. 207. 175.
      158. 158. 160. 181. 207. 235. 234. 204. 183. 147. 95. 50. 26. 23.
      30. 26. 35. 47. 48. 56. 92. 112. 118. 118. 111. 120. 126. 133.
      135. 138. 144. 148. 150. 153. 162. 170. 169. 166. 169. 175. 176.
      179. 188. 205. 207. 205. 201. 185. 183. 188. 203. 212. 212. 221.
      220. 220. 223. 219. 219. 219. 218. 217. 217. 218. 220. 220. 220.
      220. 220. 220. 220. 220. 220. 220. 220. 220. 220. 220. 220. 220.
      220. 219. 219. 219. 219. 219. 219. 218. 247. 248. 233. 213. 213.
      199. 190. 184. 209. 242. 246. 242. 247. 235. 215. 206. 204. 206.
      218. 237. 238. 236. 233. 206. 188. 172. 160. 145. 122. 94. 69. 65.
      68. 69. 99. 133. 162. 174. 181. 180. 184. 176. 171. 171. 174. 180.
      183. 189. 181. 181. 190. 201. 193. 179. 187. 203. 212. 214. 236.
      237. 216. 212. 205. 210. 218. 231. 233. 227. 234. 232. 230. 231.
      233. 233. 233. 232. 232. 232. 232. 233. 232. 232. 232. 232. 232.
      232. 232. 232. 232. 232. 232. 232. 232. 232. 232. 232. 233. 233.
      233. 233. 233. 232. 232. 239. 229. 213. 218. 231. 213. 204. 216.
      240. 244. 247. 244. 242. 246. 242. 248. 246. 248. 241. 243. 245.
      242. 248. 238. 233. 212. 202. 198. 186. 173. 171. 169. 171. 166.
      176. 187. 202. 207. 213. 218. 231. 218. 210. 205. 206. 210. 210.
      216. 210. 210. 211. 215. 208. 200. 208. 217. 232. 221. 231. 240.
      241. 245. 237. 231. 234. 233. 228. 222. 229. 232. 233. 234. 232.
      232. 232. 231. 231. 231. 231. 232. 232. 232. 232. 232. 232. 232.
      232. 232. 232. 232. 232. 232. 232. 232. 232. 232. 232. 232. 232.
      231. 231. 231. 231. 232. 217. 211. 216. 233. 207. 204. 208. 239.
      248. 244. 249. 249. 248. 253. 254. 252. 250. 249. 246. 249. 242.
      243. 244. 243. 248. 248. 242. 231. 214. 211. 209. 212. 218. 214.
      232. 243. 245. 247. 249. 251. 248. 250. 247. 248. 249. 244. 243.
      238. 232. 222. 216. 204. 195. 203. 210. 238. 236. 236. 237. 243.
      239. 235. 236. 232. 224. 223. 225. 232. 232. 233. 230. 232. 232.
      232. 232. 232. 232. 232. 232. 232. 232. 232. 232. 232. 232. 232.
      232. 232. 232. 232. 232. 232. 232. 232. 232. 232. 232. 232. 232.
      232. 232. 232. 203. 213. 215. 239. 237. 209. 205. 214. 241. 249.
      247. 246. 249. 251. 254. 254. 253. 249. 248. 248. 249. 248. 244.
      244. 244. 247. 249. 250. 250. 250. 251. 253. 254. 254. 254. 251.
      251. 247. 248. 249. 251. 251. 254. 251. 252. 243. 238. 241. 243.
      241. 234. 208. 199. 186. 205. 210. 235. 235. 234. 239. 240. 242.
      236. 232. 232. 217. 223. 220. 223. 223. 223. 223. 223. 223. 223.
      223. 223. 223. 223. 223. 223. 223. 223. 223. 223. 223. 223. 223.
      223. 223. 223. 223. 223. 223. 223. 223. 223. 223. 223. 223. 223.
      223. 223.</_>
    <_>
      95. 80. 53. 29. 36. 56. 63. 60. 47. 37. 33. 34. 36. 45. 37. 39.
      49. 50. 58. 60. 60. 50. 41. 37. 34. 35. 48. 58. 62. 63. 59. 48.
      31. 25. 45. 93. 147. 203. 224. 227. 234. 226. 225. 224. 214. 206.
      210. 206. 194. 143. 108. 85. 80. 59. 32. 9. 1. 1. 0. 4. 0. 9. 27.
      63. 100. 121. 151. 162. 151. 124. 94. 56. 22. 9. 6. 8. 5. 5. 7. 5.
      6. 6. 6. 6. 6. 6. 6. 6. 6. 6. 6. 6. 6. 6. 6. 6. 6. 6. 6. 6. 6. 6.
      6. 87. 75. 51. 32. 35. 52. 59. 58. 49. 35. 37. 33. 52. 58. 54. 44.
      48. 53. 67. 75. 73. 59. 50. 46. 49. 59. 73. 75. 75. 75. 68. 57.
      56. 67. 84. 108. 139. 179. 203. 222. 228. 226. 229. 225. 214. 210.
      211. 204. 190. 168. 143. 115. 85. 52. 16. 3. 2. 1. 0. 4. 1. 3. 16.
      61. 95. 132. 157. 168. 159. 138. 110. 83. 56. 34. 18. 15. 14. 16.
      17. 15. 16. 16. 16. 16. 16. 16. 16. 16. 16. 16. 16. 16. 16. 16.
      16. 16. 16. 16. 16. 16. 16. 16. 16. 87. 77. 52. 35. 32. 46. 52.
      55. 49. 34. 40. 56. 69. 86. 90. 89. 91. 101. 120. 128. 121. 104.
      98. 98. 99. 112. 125. 125. 117. 109. 104. 109. 126. 156. 177. 185.
      194. 199. 194. 202. 209. 213. 221. 217. 211. 216. 215. 203. 173.
      143. 148. 162. 163. 111. 50. 11. 0. 1. 0. 1. 1. 3. 12. 60. 109.
      158. 172. 184. 184. 182. 170. 160. 124. 97. 75. 69. 69. 70. 71.
      69. 70. 70. 70. 70. 70. 70. 70. 70. 70. 70. 70. 70. 70. 70. 70.
      70. 70. 70. 70. 70. 70. 70. 70. 79. 75. 57. 52. 47. 53. 48. 46.
      42. 37. 44. 83. 123. 166. 170. 168. 171. 179. 190. 186. 169. 151.
      153. 156. 166. 172. 177. 175. 163. 148. 142. 161. 184. 210. 213.
      195. 185. 179. 173. 180. 185. 187. 196. 198. 205. 221. 218. 200.
      148. 136. 166. 172. 157. 112. 76. 39. 11. 3. 0. 0. 0. 1. 9. 54.
      111. 164. 174. 184. 185. 185. 175. 165. 139. 119. 103. 99. 98. 98.
      98. 98. 98. 98. 98. 98. 98. 98. 98. 98. 98. 98. 98. 98. 98. 98.
      98. 98. 98. 98. 98. 98. 98. 98. 98. 89. 83. 63. 60. 54. 55. 47.
      43. 44. 42. 74. 127. 207. 226. 230. 227. 224. 226. 225. 212. 193.
      183. 195. 199. 197. 199. 198. 196. 190. 180. 168. 187. 213. 217.
      201. 179. 177. 179. 172. 164. 148. 149. 162. 175. 204. 229. 225.
      195. 122. 106. 125. 140. 127. 105. 83. 67. 48. 19. 5. 5. 4. 0. 5.
      43. 98. 146. 162. 172. 170. 165. 159. 144. 129. 118. 109. 108.
      108. 106. 107. 108. 108. 108. 108. 108. 108. 108. 108. 108. 108.
      108. 108. 108. 108. 108. 108. 108. 108. 108. 108. 108. 108. 108.
      108. 103. 94. 72. 67. 60. 53. 43. 34. 44. 61. 117. 205. 239. 248.
      240. 247. 239. 236. 226. 207. 187. 177. 189. 188. 183. 184. 187.
      195. 192. 179. 165. 189. 214. 216. 203. 184. 185. 190. 193. 186.
      179. 171. 170. 176. 211. 235. 234. 196. 110. 100. 91. 70. 48. 36.
      44. 65. 72. 44. 18. 5. 2. 2. 7. 26. 65. 98. 116. 122. 116. 110.
      112. 102. 95. 88. 81. 81. 82. 82. 81. 82. 81. 81. 81. 81. 81. 81.
      81. 81. 82. 82. 82. 82. 82. 82. 82. 82. 81. 81. 81. 81. 81. 81.
      81. 115. 104. 80. 70. 63. 54. 48. 40. 47. 99. 182. 230. 238. 237.
      243. 233. 227. 228. 225. 210. 186. 170. 177. 172. 172. 174. 182.
      189. 176. 155. 140. 169. 206. 212. 205. 196. 207. 212. 214. 206.
      194. 192. 195. 199. 235. 245. 237. 183. 111. 99. 88. 65. 42. 14.
      19. 50. 78. 74. 44. 9. 1. 4. 7. 10. 31. 52. 65. 73. 69. 64. 67.
      64. 67. 65. 60. 59. 60. 60. 60. 60. 59. 59. 59. 59. 59. 59. 59.
      59. 60. 60. 60. 60. 60. 60. 60. 60. 59. 59. 59. 59. 59. 59. 59.
      116. 110. 93. 85. 77. 60. 48. 35. 61. 154. 227. 233. 215. 210.
      213. 216. 214. 222. 227. 216. 186. 160. 162. 156. 158. 165. 170.
      166. 145. 125. 107. 130. 176. 196. 201. 199. 213. 214. 214. 212.
      201. 202. 205. 204. 239. 246. 241. 182. 112. 109. 90. 65. 35. 34.
      33. 50. 88. 103. 74. 28. 11. 6. 6. 6. 10. 18. 20. 25. 22. 18. 19.
      21. 26. 28. 28. 26. 26. 26. 25. 26. 26. 26. 26. 26. 26. 26. 26.
      26. 26. 26. 26. 26. 26. 26. 26. 26. 26. 26. 26. 26. 26. 26. 26.
      112. 109. 108. 106. 88. 67. 52. 45. 100. 214. 242. 234. 191. 178.
      194. 195. 195. 218. 233. 227. 199. 160. 152. 143. 144. 150. 151.
      138. 121. 102. 87. 87. 111. 137. 165. 175. 191. 203. 209. 202.
      187. 188. 191. 186. 237. 242. 235. 175. 121. 119. 96. 67. 35. 29.
      42. 61. 104. 117. 108. 80. 60. 50. 36. 32. 30. 35. 23. 18. 18. 15.
      16. 19. 23. 17. 18. 15. 14. 17. 15. 15. 16. 16. 16. 16. 16. 16.
      16. 16. 16. 16. 16. 16. 16. 16. 16. 16. 16. 16. 16. 16. 16. 16.
      16. 116. 123. 124. 121. 100. 73. 58. 65. 164. 239. 248. 235. 196.
      190. 215. 223. 211. 224. 234. 229. 203. 161. 149. 137. 137. 142.
      143. 130. 112. 88. 64. 55. 64. 83. 104. 117. 138. 159. 172. 170.
      168. 165. 166. 158. 218. 229. 226. 165. 125. 118. 98. 64. 34. 22.
      34. 55. 109. 155. 181. 160. 136. 122. 111. 107. 107. 112. 103. 87.
      68. 60. 64. 61. 51. 34. 26. 23. 22. 24. 22. 22. 22. 22. 22. 22.
      22. 22. 22. 22. 22. 22. 22. 22. 22. 22. 22. 22. 22. 22. 22. 22.
      22. 22. 22. 167. 162. 161. 137. 108. 79. 64. 103. 212. 247. 247.
      236. 200. 195. 219. 227. 213. 220. 230. 228. 205. 161. 147. 135.
      136. 139. 138. 124. 103. 76. 47. 33. 38. 52. 74. 89. 105. 119.
      139. 152. 148. 146. 148. 143. 207. 219. 222. 166. 128. 117. 101.
      63. 33. 15. 28. 52. 102. 150. 188. 188. 195. 200. 197. 191. 197.
      199. 189. 160. 122. 110. 115. 102. 87. 59. 43. 41. 40. 41. 41. 42.
      42. 42. 42. 42. 42. 42. 42. 42. 42. 42. 42. 42. 42. 42. 42. 42.
      42. 42. 42. 42. 42. 42. 42. 164. 157. 186. 155. 119. 90. 85. 160.
      242. 251. 249. 234. 191. 187. 212. 219. 195. 204. 224. 225. 203.
      160. 148. 137. 137. 140. 140. 124. 99. 70. 41. 27. 16. 34. 62. 99.
      149. 190. 200. 188. 168. 153. 138. 133. 197. 215. 217. 166. 131.
      118. 105. 66. 32. 13. 25. 54. 103. 146. 187. 192. 204. 208. 215.
      221. 225. 228. 221. 192. 156. 140. 139. 120. 92. 64. 47. 46. 46.
      46. 47. 47. 46. 46. 46. 46. 46. 46. 46. 46. 46. 46. 46. 46. 46.
      46. 46. 46. 46. 46. 46. 46. 46. 46. 46. 119. 122. 185. 173. 141.
      105. 113. 195. 248. 249. 248. 222. 167. 166. 194. 202. 179. 191.
      219. 224. 204. 161. 150. 139. 136. 139. 140. 127. 100. 68. 37. 21.
      18. 32. 60. 100. 139. 170. 191. 203. 215. 212. 193. 177. 215. 225.
      219. 173. 130. 123. 110. 70. 30. 12. 23. 53. 94. 130. 169. 179.
      198. 204. 212. 219. 226. 225. 212. 180. 149. 133. 138. 127. 107.
      88. 76. 76. 74. 74. 75. 74. 74. 74. 74. 74. 74. 74. 74. 74. 74.
      74. 74. 74. 74. 74. 74. 74. 74. 74. 74. 74. 74. 74. 74. 67. 94.
      171. 192. 168. 124. 148. 220. 246. 250. 250. 218. 153. 155. 187.
      198. 178. 187. 217. 223. 205. 163. 152. 139. 140. 139. 140. 128.
      102. 69. 36. 18. 10. 27. 54. 89. 118. 148. 171. 186. 201. 206.
      187. 170. 208. 229. 225. 176. 129. 129. 117. 75. 32. 13. 23. 48.
      91. 140. 183. 187. 197. 206. 217. 226. 224. 221. 202. 166. 139.
      132. 157. 166. 167. 158. 148. 147. 148. 147. 149. 147. 149. 149.
      149. 149. 149. 149. 149. 149. 149. 149. 149. 149. 149. 149. 149.
      149. 149. 149. 149. 149. 149. 149. 149. 33. 84. 165. 207. 186.
      142. 169. 230. 248. 253. 248. 212. 142. 151. 189. 207. 188. 189.
      215. 218. 200. 155. 145. 136. 137. 136. 141. 132. 104. 69. 36. 19.
      12. 28. 49. 61. 51. 52. 78. 114. 167. 184. 178. 168. 209. 225.
      216. 165. 123. 130. 122. 77. 38. 16. 27. 41. 92. 154. 200. 200.
      201. 213. 219. 221. 219. 218. 204. 164. 130. 122. 155. 171. 170.
      164. 150. 146. 148. 148. 149. 149. 148. 148. 148. 148. 148. 148.
      148. 148. 148. 148. 148. 148. 148. 148. 148. 148. 148. 148. 148.
      148. 148. 148. 148. 30. 76. 145. 199. 198. 172. 190. 240. 250.
      255. 247. 214. 143. 152. 189. 209. 197. 192. 215. 213. 191. 143.
      135. 130. 124. 128. 141. 137. 107. 67. 34. 18. 9. 24. 37. 43. 35.
      40. 57. 79. 98. 112. 117. 128. 194. 218. 212. 162. 116. 128. 123.
      77. 43. 18. 31. 37. 86. 152. 197. 194. 194. 212. 220. 222. 219.
      218. 209. 167. 125. 115. 153. 169. 171. 163. 142. 134. 138. 136.
      136. 136. 136. 136. 136. 136. 136. 136. 136. 136. 136. 136. 136.
      136. 136. 136. 136. 136. 136. 136. 136. 136. 136. 136. 136. 29.
      55. 104. 170. 197. 181. 201. 245. 252. 254. 249. 220. 157. 151.
      197. 219. 209. 209. 222. 220. 195. 137. 129. 122. 117. 119. 130.
      130. 106. 68. 34. 16. 9. 23. 35. 40. 31. 36. 59. 90. 110. 128.
      159. 170. 218. 230. 216. 163. 112. 119. 116. 78. 42. 21. 33. 38.
      88. 139. 196. 195. 192. 202. 216. 219. 220. 223. 214. 170. 122.
      111. 139. 139. 125. 108. 90. 87. 84. 85. 84. 84. 85. 85. 85. 85.
      85. 85. 85. 85. 85. 85. 85. 85. 85. 85. 85. 85. 85. 85. 85. 85.
      85. 85. 85. 32. 34. 61. 120. 176. 190. 212. 241. 249. 253. 248.
      232. 175. 162. 206. 226. 219. 217. 231. 234. 208. 125. 91. 88. 99.
      106. 118. 118. 100. 69. 37. 16. 8. 23. 34. 41. 28. 37. 64. 99.
      131. 162. 188. 203. 240. 247. 235. 176. 114. 114. 106. 72. 39. 18.
      29. 36. 76. 126. 186. 193. 190. 191. 205. 215. 220. 225. 220. 176.
      123. 103. 134. 149. 136. 122. 101. 95. 94. 96. 96. 97. 95. 95. 95.
      95. 95. 95. 95. 95. 95. 95. 95. 95. 95. 95. 95. 95. 95. 95. 95.
      95. 95. 95. 95. 73. 75. 83. 109. 141. 172. 205. 245. 251. 255.
      249. 243. 192. 168. 210. 233. 226. 218. 233. 245. 223. 121. 60.
      65. 73. 91. 108. 112. 99. 72. 38. 14. 10. 24. 35. 42. 23. 35. 67.
      106. 140. 183. 207. 224. 246. 243. 242. 190. 109. 103. 95. 67. 37.
      18. 26. 35. 74. 123. 186. 203. 206. 204. 209. 214. 217. 221. 219.
      180. 128. 100. 130. 161. 166. 159. 138. 130. 130. 131. 127. 127.
      129. 129. 129. 129. 129. 129. 129. 129. 129. 129. 129. 129. 129.
      129. 129. 129. 129. 129. 129. 129. 129. 129. 129. 127. 126. 114.
      119. 127. 169. 197. 240. 249. 254. 252. 248. 200. 168. 205. 236.
      226. 210. 231. 248. 228. 118. 35. 35. 61. 86. 105. 109. 99. 73.
      39. 15. 6. 19. 37. 46. 28. 35. 67. 104. 142. 182. 203. 220. 245.
      247. 242. 182. 95. 91. 89. 66. 36. 16. 21. 31. 68. 126. 188. 205.
      210. 215. 220. 220. 223. 226. 224. 186. 136. 100. 124. 166. 183.
      177. 149. 135. 135. 137. 137. 139. 136. 136. 136. 136. 136. 136.
      136. 136. 136. 136. 136. 136. 136. 136. 136. 136. 136. 136. 136.
      136. 136. 136. 136. 187. 183. 164. 153. 141. 171. 190. 227. 246.
      250. 252. 247. 204. 168. 198. 236. 229. 204. 223. 240. 228. 141.
      64. 61. 73. 91. 101. 104. 96. 71. 42. 18. 8. 17. 38. 47. 36. 36.
      65. 96. 121. 159. 187. 199. 229. 244. 234. 171. 81. 81. 85. 65.
      33. 11. 13. 24. 61. 129. 194. 210. 215. 224. 232. 232. 226. 227.
      225. 187. 139. 100. 120. 170. 187. 191. 170. 161. 162. 163. 160.
      160. 163. 163. 163. 163. 163. 163. 163. 163. 163. 163. 163. 163.
      163. 163. 163. 163. 163. 163. 163. 163. 163. 163. 163. 195. 184.
      173. 165. 170. 190. 204. 226. 248. 250. 251. 243. 204. 163. 189.
      234. 227. 201. 223. 241. 233. 165. 92. 79. 90. 98. 98. 102. 96.
      73. 45. 18. 11. 17. 41. 56. 54. 45. 59. 77. 104. 118. 136. 150.
      191. 229. 218. 165. 76. 74. 78. 61. 29. 9. 9. 23. 69. 125. 178.
      198. 210. 221. 225. 224. 220. 212. 209. 178. 143. 106. 120. 168.
      183. 189. 168. 158. 158. 157. 157. 157. 156. 156. 156. 156. 156.
      156. 156. 156. 156. 156. 156. 156. 156. 156. 156. 156. 156. 156.
      156. 156. 156. 156. 156. 199. 185. 178. 173. 185. 194. 203. 214.
      242. 250. 251. 244. 202. 149. 175. 225. 224. 201. 222. 238. 235.
      178. 109. 92. 94. 98. 96. 101. 96. 75. 48. 19. 6. 12. 36. 65. 77.
      70. 69. 77. 99. 121. 143. 156. 179. 223. 212. 173. 80. 69. 69. 56.
      29. 10. 8. 23. 64. 105. 142. 168. 191. 211. 220. 222. 207. 191.
      189. 171. 148. 115. 120. 164. 187. 198. 185. 182. 183. 182. 183.
      181. 182. 182. 182. 182. 182. 182. 182. 182. 182. 182. 182. 182.
      182. 182. 182. 182. 182. 182. 182. 182. 182. 182. 182. 209. 194.
      182. 183. 194. 200. 201. 204. 226. 244. 250. 249. 202. 135. 162.
      213. 215. 198. 223. 243. 241. 182. 108. 87. 91. 94. 94. 99. 91.
      73. 51. 22. 10. 7. 20. 55. 81. 91. 98. 111. 129. 157. 159. 145.
      148. 213. 216. 186. 87. 68. 63. 54. 30. 11. 6. 20. 56. 98. 135.
      157. 171. 182. 188. 191. 182. 166. 172. 164. 149. 118. 121. 166.
      186. 196. 181. 178. 175. 174. 177. 176. 176. 176. 176. 176. 176.
      176. 176. 176. 176. 176. 176. 176. 176. 176. 176. 176. 176. 176.
      176. 176. 176. 176. 176. 203. 204. 195. 191. 194. 192. 185. 178.
      197. 238. 246. 247. 213. 136. 141. 197. 214. 195. 225. 240. 244.
      183. 101. 78. 89. 90. 87. 86. 88. 68. 46. 22. 10. 5. 10. 37. 70.
      95. 107. 125. 152. 169. 172. 149. 152. 217. 221. 201. 92. 68. 61.
      54. 29. 11. 8. 11. 48. 101. 145. 163. 150. 157. 163. 173. 172.
      166. 159. 136. 116. 101. 114. 140. 170. 178. 167. 155. 157. 157.
      156. 158. 157. 157. 157. 157. 157. 157. 157. 157. 157. 157. 158.
      158. 158. 158. 157. 157. 157. 157. 157. 157. 157. 157. 157. 214.
      218. 225. 221. 199. 181. 177. 172. 180. 215. 241. 248. 218. 135.
      125. 187. 210. 196. 222. 242. 242. 178. 90. 69. 75. 74. 77. 81.
      75. 66. 53. 25. 11. 9. 9. 21. 49. 92. 122. 141. 159. 146. 128.
      116. 120. 212. 218. 213. 100. 68. 61. 53. 31. 13. 7. 8. 32. 97.
      136. 150. 108. 97. 124. 166. 192. 169. 120. 78. 63. 55. 63. 77.
      91. 99. 93. 88. 89. 88. 87. 88. 88. 88. 88. 88. 88. 88. 88. 88.
      88. 88. 88. 88. 88. 88. 88. 88. 88. 88. 88. 88. 88. 88. 88. 217.
      233. 245. 243. 224. 195. 175. 164. 167. 179. 212. 226. 207. 137.
      119. 168. 204. 205. 226. 243. 238. 179. 85. 62. 66. 65. 62. 60.
      58. 52. 49. 32. 21. 17. 30. 55. 77. 100. 112. 119. 119. 116. 115.
      112. 110. 208. 219. 210. 109. 68. 61. 49. 29. 12. 6. 7. 11. 63.
      106. 130. 105. 107. 173. 225. 234. 201. 117. 50. 27. 23. 27. 36.
      44. 49. 49. 51. 53. 51. 53. 53. 52. 52. 52. 52. 52. 52. 52. 52.
      52. 52. 52. 53. 53. 52. 52. 52. 52. 52. 52. 52. 52. 52. 52. 225.
      244. 251. 250. 246. 225. 193. 167. 159. 145. 177. 197. 199. 159.
      134. 157. 185. 194. 211. 234. 227. 171. 72. 46. 46. 42. 46. 45.
      48. 54. 77. 73. 62. 60. 78. 101. 108. 118. 123. 124. 125. 110.
      109. 110. 112. 181. 208. 196. 112. 63. 56. 46. 33. 17. 9. 7. 8.
      42. 76. 97. 74. 113. 201. 242. 246. 233. 166. 94. 55. 46. 34. 29.
      28. 30. 31. 31. 30. 28. 31. 29. 30. 30. 30. 30. 30. 30. 30. 30.
      30. 30. 30. 30. 30. 30. 30. 30. 30. 30. 30. 30. 30. 30. 30. 233.
      244. 252. 253. 249. 245. 229. 201. 175. 161. 143. 157. 165. 138.
      158. 179. 199. 195. 200. 228. 223. 166. 70. 47. 56. 69. 72. 70.
      66. 60. 63. 62. 57. 51. 71. 105. 123. 135. 134. 130. 125. 116.
      108. 106. 102. 133. 176. 160. 106. 57. 49. 40. 30. 16. 8. 8. 6.
      44. 68. 91. 73. 152. 220. 243. 224. 183. 137. 102. 78. 75. 84.
      112. 119. 120. 119. 118. 115. 115. 118. 114. 116. 116. 116. 116.
      116. 116. 116. 116. 115. 116. 116. 116. 116. 116. 116. 115. 116.
      116. 116. 116. 116. 116. 116. 232. 244. 251. 253. 253. 252. 250.
      241. 230. 195. 156. 127. 121. 110. 124. 178. 220. 223. 228. 237.
      220. 184. 137. 141. 165. 161. 127. 101. 63. 48. 39. 39. 29. 24.
      38. 64. 79. 95. 107. 119. 126. 130. 121. 122. 116. 131. 168. 150.
      114. 65. 52. 52. 54. 43. 25. 16. 36. 79. 107. 129. 136. 203. 221.
      211. 132. 100. 97. 110. 131. 158. 176. 200. 209. 211. 210. 209.
      208. 209. 212. 209. 210. 210. 210. 210. 210. 210. 210. 210. 209.
      209. 209. 209. 209. 209. 209. 209. 210. 210. 210. 210. 210. 210.
      210. 233. 247. 252. 254. 255. 253. 251. 252. 246. 246. 230. 180.
      123. 99. 137. 220. 246. 247. 247. 246. 245. 245. 236. 241. 247.
      244. 235. 203. 110. 41. 12. 1. 1. 2. 2. 8. 23. 48. 63. 74. 80. 85.
      81. 85. 77. 84. 121. 137. 122. 99. 104. 118. 118. 100. 80. 74. 88.
      136. 190. 214. 234. 247. 231. 197. 106. 89. 105. 137. 171. 200.
      217. 232. 240. 239. 237. 238. 238. 236. 237. 236. 237. 237. 237.
      237. 237. 237. 237. 237. 237. 237. 236. 236. 236. 236. 237. 237.
      237. 237. 237. 237. 237. 237. 237. 234. 242. 251. 255. 253. 253.
      255. 252. 253. 251. 247. 248. 223. 210. 223. 246. 252. 252. 255.
      250. 249. 251. 250. 251. 250. 252. 246. 243. 208. 107. 30. 8. 2.
      3. 1. 1. 1. 5. 11. 30. 48. 63. 88. 115. 144. 173. 199. 215. 192.
      146. 117. 121. 137. 152. 162. 174. 184. 203. 234. 244. 250. 250.
      250. 231. 198. 199. 211. 217. 228. 236. 242. 242. 242. 240. 237.
      240. 243. 240. 241. 242. 241. 241. 241. 241. 241. 241. 241. 241.
      241. 241. 241. 241. 241. 241. 241. 241. 241. 241. 241. 241. 241.
      241. 241. 233. 245. 252. 255. 255. 254. 255. 255. 255. 255. 253.
      249. 243. 224. 243. 249. 253. 255. 254. 255. 253. 255. 253. 253.
      253. 253. 252. 249. 232. 124. 35. 7. 2. 2. 1. 2. 3. 3. 3. 6. 7.
      11. 30. 56. 78. 108. 159. 204. 190. 179. 170. 190. 193. 193. 197.
      199. 202. 221. 244. 248. 251. 251. 249. 245. 238. 244. 245. 244.
      242. 234. 238. 238. 237. 234. 228. 232. 232. 232. 232. 232. 232.
      232. 232. 232. 232. 232. 232. 232. 232. 232. 232. 232. 232. 232.
      232. 232. 232. 232. 232. 232. 232. 232. 232.</_>
    <_>
      42. 43. 44. 44. 44. 42. 38. 35. 35. 35. 36. 35. 35. 37. 46. 54.
      57. 59. 61. 64. 66. 68. 70. 72. 74. 74. 76. 77. 76. 78. 85. 93.
      108. 122. 127. 126. 124. 127. 125. 107. 86. 72. 59. 49. 37. 26.
      22. 23. 21. 24. 28. 30. 30. 30. 28. 24. 23. 21. 20. 20. 19. 17.
      17. 18. 15. 15. 15. 12. 5. 0. 0. 1. 0. 1. 1. 0. 0. 0. 1. 0. 0. 0.
      0. 0. 0. 0. 0. 0. 0. 0. 0. 0. 0. 0. 0. 1. 0. 0. 0. 0. 0. 0. 0. 43.
      44. 44. 43. 42. 40. 38. 35. 34. 37. 37. 34. 36. 43. 52. 58. 62.
      63. 65. 68. 71. 74. 77. 78. 80. 79. 79. 80. 80. 82. 90. 100. 114.
      122. 124. 119. 119. 131. 137. 129. 102. 81. 64. 55. 44. 31. 24.
      23. 25. 24. 25. 27. 28. 29. 27. 22. 22. 21. 21. 20. 20. 19. 18.
      18. 18. 18. 17. 15. 9. 2. 0. 0. 0. 0. 1. 0. 0. 1. 1. 0. 0. 0. 0.
      0. 0. 0. 1. 2. 0. 0. 0. 1. 2. 2. 1. 0. 0. 0. 0. 0. 0. 0. 0. 46.
      46. 45. 42. 40. 39. 37. 35. 33. 34. 33. 37. 45. 54. 61. 66. 77.
      80. 82. 80. 81. 86. 93. 98. 99. 97. 95. 96. 97. 101. 109. 118.
      129. 125. 119. 107. 111. 135. 154. 158. 145. 114. 83. 68. 60. 50.
      40. 33. 27. 26. 28. 30. 27. 26. 25. 23. 21. 23. 23. 23. 23. 23.
      22. 21. 21. 20. 19. 18. 17. 17. 17. 16. 18. 16. 10. 4. 0. 0. 0. 0.
      1. 1. 1. 0. 0. 0. 0. 0. 0. 1. 0. 0. 0. 0. 0. 0. 0. 0. 0. 0. 0. 0.
      0. 48. 47. 45. 41. 39. 37. 36. 34. 32. 29. 29. 42. 52. 61. 73. 89.
      101. 103. 102. 100. 103. 113. 125. 132. 132. 129. 124. 121. 120.
      120. 121. 123. 122. 114. 105. 93. 103. 138. 163. 171. 162. 143.
      119. 96. 80. 69. 61. 54. 53. 50. 47. 43. 34. 26. 22. 20. 26. 27.
      28. 28. 27. 25. 24. 25. 24. 24. 22. 21. 21. 21. 20. 18. 16. 16.
      16. 15. 14. 15. 15. 14. 0. 0. 0. 1. 2. 1. 0. 0. 0. 1. 2. 0. 0. 0.
      2. 2. 0. 0. 0. 0. 0. 0. 0. 44. 43. 41. 38. 36. 35. 33. 32. 30. 27.
      31. 48. 58. 77. 102. 125. 133. 129. 124. 123. 131. 142. 150. 153.
      152. 150. 145. 137. 132. 128. 120. 113. 105. 98. 94. 90. 106. 141.
      159. 161. 150. 144. 136. 126. 114. 101. 88. 76. 72. 65. 60. 58.
      55. 51. 46. 41. 34. 33. 33. 33. 29. 24. 23. 26. 30. 33. 36. 37.
      35. 31. 25. 20. 21. 21. 20. 18. 17. 17. 17. 16. 17. 11. 4. 0. 0.
      0. 0. 1. 0. 0. 0. 0. 1. 0. 0. 0. 0. 0. 0. 0. 0. 0. 0. 37. 36. 34.
      33. 32. 32. 30. 29. 25. 26. 35. 56. 76. 114. 142. 155. 152. 148.
      145. 148. 154. 159. 160. 160. 158. 157. 152. 144. 135. 126. 113.
      101. 94. 89. 91. 99. 120. 145. 153. 148. 133. 123. 119. 126. 128.
      118. 103. 91. 86. 82. 81. 81. 79. 74. 68. 61. 64. 59. 53. 46. 38.
      30. 27. 28. 33. 37. 43. 48. 49. 47. 44. 41. 36. 33. 28. 23. 20.
      19. 18. 18. 16. 15. 15. 16. 17. 17. 14. 12. 13. 4. 0. 0. 1. 0. 0.
      0. 0. 0. 0. 0. 0. 0. 0. 33. 32. 30. 29. 29. 30. 28. 26. 23. 26.
      37. 61. 86. 139. 169. 169. 161. 162. 166. 172. 175. 174. 171. 169.
      167. 165. 159. 150. 138. 122. 106. 96. 88. 87. 96. 119. 140. 151.
      148. 135. 111. 105. 105. 111. 109. 102. 96. 95. 90. 92. 96. 100.
      102. 104. 106. 104. 92. 86. 76. 65. 58. 55. 52. 50. 44. 43. 43.
      45. 46. 46. 48. 50. 51. 50. 49. 46. 40. 32. 23. 19. 22. 20. 18.
      18. 18. 18. 18. 18. 17. 9. 2. 0. 0. 0. 0. 0. 0. 0. 0. 0. 0. 0. 0.
      33. 31. 29. 28. 29. 29. 28. 26. 25. 28. 39. 60. 80. 138. 172. 173.
      178. 178. 183. 190. 192. 186. 177. 171. 170. 167. 162. 156. 142.
      123. 109. 103. 96. 97. 112. 145. 162. 155. 139. 118. 107. 106.
      109. 111. 106. 100. 95. 92. 94. 94. 97. 105. 118. 136. 150. 154.
      156. 146. 126. 104. 89. 82. 74. 65. 62. 56. 50. 47. 46. 45. 47.
      51. 54. 54. 55. 54. 49. 41. 32. 27. 23. 28. 35. 39. 39. 33. 26.
      21. 20. 19. 18. 17. 16. 15. 15. 14. 0. 0. 0. 0. 0. 0. 0. 33. 32.
      29. 27. 26. 26. 26. 26. 28. 30. 43. 57. 74. 112. 155. 173. 182.
      187. 193. 196. 196. 191. 183. 176. 170. 168. 162. 155. 143. 128.
      117. 108. 106. 111. 133. 163. 169. 155. 128. 114. 113. 123. 138.
      145. 138. 125. 110. 99. 94. 88. 90. 101. 123. 147. 162. 175. 176.
      171. 156. 140. 129. 121. 116. 109. 90. 77. 59. 54. 52. 47. 49. 50.
      51. 54. 50. 50. 50. 41. 37. 45. 53. 58. 71. 81. 81. 77. 70. 62.
      60. 50. 39. 30. 24. 21. 19. 16. 18. 11. 2. 0. 0. 1. 1. 36. 36. 34.
      30. 26. 24. 26. 28. 29. 30. 42. 57. 70. 101. 144. 173. 182. 187.
      193. 196. 196. 192. 183. 176. 173. 166. 160. 149. 131. 117. 112.
      114. 115. 129. 152. 174. 173. 152. 119. 105. 122. 149. 172. 182.
      178. 166. 144. 118. 94. 86. 88. 104. 134. 167. 186. 198. 199. 187.
      163. 141. 128. 130. 145. 155. 146. 120. 81. 62. 56. 48. 48. 52.
      52. 49. 50. 45. 43. 47. 51. 60. 66. 104. 150. 175. 179. 176. 169.
      161. 142. 121. 95. 77. 66. 55. 40. 25. 19. 20. 21. 20. 17. 15. 15.
      49. 50. 49. 47. 41. 34. 29. 28. 28. 37. 49. 59. 76. 110. 150. 173.
      183. 187. 192. 195. 195. 191. 182. 174. 166. 159. 154. 135. 113.
      100. 99. 109. 123. 146. 169. 182. 176. 148. 111. 102. 128. 168.
      197. 210. 209. 196. 170. 131. 97. 86. 88. 107. 141. 179. 202. 210.
      210. 195. 166. 135. 113. 116. 142. 163. 167. 131. 84. 62. 58. 50.
      48. 52. 53. 46. 45. 39. 42. 50. 57. 75. 125. 166. 204. 214. 212.
      210. 206. 201. 203. 194. 185. 176. 162. 137. 104. 76. 65. 57. 44.
      31. 21. 18. 20. 65. 66. 66. 65. 61. 55. 50. 48. 47. 54. 58. 68.
      99. 141. 169. 178. 184. 187. 192. 195. 196. 191. 182. 174. 166.
      160. 146. 113. 90. 82. 84. 105. 141. 164. 179. 182. 170. 140. 108.
      108. 143. 181. 204. 218. 218. 202. 177. 139. 100. 88. 92. 116.
      150. 185. 207. 213. 211. 198. 171. 140. 114. 113. 138. 156. 149.
      112. 74. 60. 56. 52. 49. 49. 47. 45. 40. 40. 51. 58. 76. 114. 171.
      198. 216. 214. 210. 209. 206. 204. 199. 199. 202. 207. 209. 207.
      200. 192. 177. 148. 108. 77. 62. 57. 54. 98. 102. 106. 103. 92.
      77. 66. 63. 62. 65. 75. 102. 142. 172. 184. 185. 187. 190. 193.
      195. 195. 191. 181. 173. 164. 161. 140. 103. 81. 74. 87. 125. 164.
      180. 183. 173. 153. 127. 112. 128. 160. 190. 204. 213. 211. 193.
      169. 137. 106. 100. 110. 137. 165. 190. 206. 208. 201. 184. 157.
      132. 116. 121. 137. 142. 121. 86. 63. 56. 50. 50. 51. 47. 43. 45.
      39. 45. 56. 70. 111. 156. 179. 194. 204. 203. 197. 188. 181. 180.
      180. 182. 191. 203. 213. 221. 224. 222. 218. 214. 202. 182. 160.
      144. 137. 146. 150. 155. 152. 136. 113. 94. 84. 85. 98. 122. 153.
      179. 191. 193. 195. 194. 195. 197. 197. 195. 189. 179. 170. 162.
      158. 138. 102. 77. 76. 111. 166. 188. 191. 179. 157. 132. 117.
      121. 149. 172. 196. 203. 203. 194. 173. 149. 123. 109. 116. 134.
      160. 181. 194. 200. 196. 183. 162. 138. 125. 124. 131. 134. 122.
      92. 66. 55. 52. 46. 49. 52. 47. 46. 43. 43. 53. 61. 93. 149. 174.
      175. 176. 176. 174. 168. 156. 149. 149. 150. 154. 168. 188. 204.
      213. 217. 216. 215. 215. 213. 212. 210. 209. 208. 159. 158. 157.
      155. 146. 133. 122. 117. 130. 147. 169. 184. 191. 193. 192. 190.
      186. 187. 189. 189. 187. 182. 173. 165. 160. 148. 125. 98. 84.
      103. 154. 202. 208. 195. 169. 141. 118. 120. 139. 167. 190. 204.
      204. 193. 176. 150. 126. 110. 111. 133. 156. 179. 194. 198. 195.
      183. 161. 142. 127. 129. 133. 135. 123. 99. 75. 60. 53. 48. 45.
      48. 47. 44. 44. 39. 45. 57. 70. 121. 179. 190. 184. 173. 163. 153.
      141. 128. 119. 114. 109. 112. 130. 159. 184. 201. 210. 214. 212.
      211. 211. 213. 215. 218. 220. 159. 157. 156. 153. 145. 136. 134.
      136. 147. 160. 178. 192. 196. 191. 178. 165. 160. 163. 166. 168.
      169. 166. 160. 154. 142. 122. 105. 100. 111. 151. 198. 214. 211.
      187. 156. 130. 118. 137. 165. 189. 206. 210. 203. 186. 162. 131.
      110. 105. 122. 152. 177. 194. 202. 200. 189. 170. 152. 137. 130.
      137. 138. 129. 107. 78. 64. 56. 48. 39. 42. 45. 42. 44. 38. 37.
      46. 53. 70. 128. 186. 204. 197. 184. 168. 150. 129. 115. 108. 103.
      97. 93. 104. 135. 166. 187. 198. 201. 201. 200. 200. 202. 205.
      206. 207. 187. 184. 180. 173. 167. 164. 160. 153. 159. 164. 177.
      185. 181. 165. 135. 104. 97. 100. 109. 117. 128. 132. 132. 124.
      107. 92. 86. 98. 148. 182. 211. 214. 204. 172. 140. 123. 131. 157.
      182. 204. 215. 213. 203. 178. 145. 112. 97. 107. 140. 172. 193.
      206. 208. 199. 184. 161. 145. 131. 131. 138. 132. 112. 87. 67. 58.
      47. 40. 39. 40. 40. 40. 39. 38. 38. 42. 53. 64. 102. 177. 203.
      208. 204. 186. 162. 150. 141. 130. 121. 109. 101. 108. 132. 157.
      173. 183. 188. 187. 187. 187. 188. 191. 193. 195. 219. 218. 216.
      211. 206. 202. 195. 186. 179. 179. 179. 181. 169. 131. 92. 75. 72.
      70. 75. 77. 81. 87. 92. 86. 82. 78. 80. 108. 168. 206. 221. 209.
      190. 154. 125. 120. 141. 173. 197. 212. 216. 212. 198. 168. 131.
      100. 98. 120. 154. 186. 205. 211. 207. 194. 175. 150. 128. 123.
      127. 129. 115. 92. 72. 58. 51. 41. 35. 35. 36. 37. 38. 38. 41. 40.
      38. 44. 56. 77. 132. 182. 203. 204. 193. 177. 169. 163. 152. 143.
      132. 123. 125. 139. 152. 160. 166. 169. 169. 170. 171. 172. 174.
      176. 177. 234. 233. 232. 230. 227. 225. 221. 214. 208. 205. 197.
      191. 175. 137. 91. 66. 65. 62. 63. 63. 67. 66. 69. 69. 67. 69. 80.
      131. 194. 220. 218. 202. 172. 140. 123. 133. 158. 186. 204. 213.
      216. 206. 188. 156. 118. 95. 107. 140. 174. 201. 214. 214. 204.
      185. 160. 133. 116. 116. 120. 116. 97. 76. 63. 55. 41. 35. 31. 32.
      32. 34. 36. 36. 37. 36. 33. 33. 43. 56. 74. 110. 158. 172. 179.
      172. 162. 154. 148. 145. 137. 129. 125. 129. 134. 140. 148. 152.
      156. 157. 157. 156. 155. 155. 155. 247. 246. 245. 243. 241. 240.
      237. 232. 227. 224. 221. 215. 201. 176. 136. 95. 80. 76. 75. 71.
      68. 62. 61. 58. 61. 64. 80. 140. 204. 219. 208. 188. 149. 129.
      130. 154. 179. 199. 212. 215. 212. 197. 174. 142. 113. 103. 124.
      160. 191. 210. 218. 214. 200. 174. 141. 112. 107. 115. 123. 117.
      93. 70. 56. 49. 39. 35. 34. 35. 35. 36. 37. 38. 39. 34. 32. 28.
      30. 47. 53. 64. 75. 93. 112. 120. 119. 113. 104. 97. 96. 91. 88.
      88. 90. 97. 106. 112. 125. 126. 127. 127. 128. 129. 131. 241. 241.
      244. 246. 246. 247. 245. 241. 238. 234. 234. 232. 226. 218. 200.
      179. 161. 140. 120. 98. 79. 66. 62. 55. 55. 61. 75. 119. 179. 198.
      184. 151. 119. 115. 134. 170. 195. 211. 219. 217. 208. 187. 159.
      128. 109. 115. 144. 177. 204. 215. 220. 213. 193. 162. 129. 106.
      109. 130. 148. 140. 110. 79. 63. 59. 53. 52. 53. 55. 55. 54. 55.
      54. 55. 48. 47. 46. 36. 44. 51. 56. 61. 66. 72. 75. 74. 75. 73.
      71. 69. 68. 68. 68. 67. 70. 74. 77. 83. 86. 89. 92. 95. 98. 101.
      229. 230. 234. 238. 242. 248. 252. 253. 250. 250. 244. 238. 238.
      234. 226. 224. 215. 212. 201. 181. 150. 97. 63. 60. 53. 57. 66.
      84. 122. 140. 128. 98. 89. 108. 145. 184. 206. 215. 219. 213. 201.
      176. 144. 116. 109. 130. 165. 195. 214. 219. 219. 208. 188. 164.
      145. 137. 149. 162. 177. 182. 168. 138. 102. 79. 79. 78. 80. 82.
      82. 82. 82. 80. 75. 73. 69. 69. 67. 66. 64. 61. 62. 64. 70. 74.
      74. 72. 70. 66. 64. 63. 63. 63. 62. 63. 65. 65. 68. 71. 74. 78.
      81. 83. 84. 221. 221. 223. 227. 232. 241. 250. 254. 249. 254. 252.
      249. 251. 249. 242. 239. 238. 234. 227. 222. 214. 165. 102. 64.
      55. 53. 58. 66. 83. 100. 98. 87. 96. 128. 168. 201. 216. 220. 219.
      210. 188. 160. 129. 110. 119. 151. 187. 212. 223. 224. 221. 211.
      199. 190. 186. 189. 195. 205. 215. 219. 215. 204. 195. 191. 186.
      184. 185. 186. 186. 187. 188. 186. 180. 174. 166. 158. 160. 157.
      148. 138. 118. 109. 106. 109. 113. 113. 108. 98. 89. 84. 81. 80.
      80. 81. 82. 81. 81. 82. 83. 83. 84. 85. 85. 210. 211. 215. 221.
      228. 237. 247. 252. 255. 248. 247. 246. 242. 244. 248. 248. 249.
      243. 246. 238. 228. 216. 163. 81. 60. 53. 59. 71. 86. 116. 123.
      125. 137. 166. 194. 214. 224. 224. 218. 203. 176. 144. 116. 110.
      131. 169. 202. 222. 228. 229. 228. 223. 220. 220. 220. 223. 225.
      228. 230. 233. 234. 232. 229. 230. 231. 229. 228. 228. 228. 229.
      231. 229. 228. 221. 228. 224. 223. 222. 221. 215. 210. 200. 196.
      197. 198. 200. 199. 194. 186. 179. 174. 173. 171. 168. 165. 161.
      157. 153. 148. 142. 137. 135. 134. 210. 209. 213. 220. 228. 235.
      244. 254. 249. 241. 238. 236. 230. 230. 235. 232. 239. 236. 243.
      243. 240. 224. 191. 115. 71. 61. 66. 93. 137. 172. 178. 175. 183.
      196. 207. 217. 223. 222. 214. 196. 168. 143. 119. 121. 146. 179.
      207. 224. 230. 233. 231. 226. 226. 229. 231. 234. 236. 237. 237.
      238. 240. 240. 240. 243. 243. 245. 247. 247. 247. 247. 248. 249.
      246. 244. 241. 239. 240. 241. 240. 237. 234. 232. 229. 229. 230.
      231. 231. 230. 227. 225. 223. 224. 224. 223. 221. 221. 219. 217.
      214. 211. 207. 204. 202. 219. 222. 225. 226. 229. 237. 245. 250.
      243. 236. 226. 219. 215. 210. 212. 216. 222. 230. 238. 239. 234.
      223. 204. 154. 98. 83. 104. 152. 189. 203. 203. 205. 195. 204.
      209. 215. 217. 215. 208. 193. 170. 155. 142. 145. 161. 181. 201.
      215. 222. 225. 226. 225. 225. 226. 227. 229. 229. 231. 232. 232.
      234. 235. 236. 237. 237. 238. 239. 240. 243. 246. 249. 251. 252.
      254. 254. 253. 251. 250. 249. 248. 243. 243. 242. 243. 244. 244.
      243. 242. 243. 241. 241. 241. 241. 239. 238. 237. 236. 235. 235.
      235. 233. 230. 230. 228. 229. 231. 233. 237. 243. 245. 242. 233.
      225. 206. 190. 178. 161. 157. 172. 196. 216. 226. 234. 235. 223.
      202. 171. 145. 143. 163. 188. 204. 212. 208. 198. 195. 198. 200.
      204. 206. 204. 197. 185. 167. 158. 151. 153. 159. 166. 177. 188.
      197. 203. 208. 212. 214. 212. 210. 212. 212. 217. 219. 220. 222.
      221. 220. 221. 222. 224. 225. 227. 229. 232. 234. 235. 244. 247.
      248. 246. 243. 243. 245. 246. 249. 250. 252. 254. 254. 254. 254.
      253. 255. 255. 255. 255. 254. 252. 251. 250. 249. 250. 251. 252.
      250. 248. 247. 238. 237. 240. 247. 249. 246. 241. 233. 222. 200.
      170. 148. 132. 110. 104. 123. 174. 217. 231. 230. 225. 214. 188.
      164. 160. 166. 180. 192. 198. 200. 193. 181. 178. 177. 181. 188.
      191. 187. 177. 165. 150. 140. 133. 133. 133. 131. 133. 138. 144.
      151. 159. 166. 169. 167. 165. 167. 168. 175. 183. 189. 191. 191.
      194. 198. 203. 207. 211. 212. 214. 218. 224. 228. 232. 233. 233.
      231. 229. 231. 234. 236. 239. 241. 245. 248. 249. 251. 254. 255.
      255. 255. 255. 254. 252. 250. 249. 249. 252. 253. 254. 254. 252.
      250. 249. 247. 249. 253. 255. 248. 238. 231. 217. 198. 158. 123.
      108. 100. 88. 85. 100. 159. 204. 224. 228. 213. 181. 148. 138.
      150. 163. 173. 180. 185. 180. 168. 161. 153. 150. 151. 154. 151.
      138. 117. 101. 89. 85. 84. 89. 93. 92. 92. 94. 92. 98. 103. 108.
      110. 110. 110. 113. 120. 125. 131. 136. 138. 138. 145. 156. 166.
      171. 176. 178. 180. 188. 200. 209. 217. 218. 217. 212. 210. 212.
      219. 223. 226. 229. 232. 235. 236. 238. 241. 243. 247. 249. 250.
      250. 251. 253. 255. 255. 254. 255. 255. 254. 253. 252. 252. 251.
      254. 252. 249. 238. 228. 214. 188. 149. 113. 92. 88. 88. 85. 84.
      95. 148. 185. 205. 205. 170. 117. 84. 89. 118. 149. 163. 161. 158.
      151. 141. 134. 112. 98. 88. 81. 78. 76. 72. 69. 69. 69. 72. 77.
      81. 84. 87. 91. 93. 95. 93. 90. 88. 87. 89. 94. 97. 96. 95. 93.
      91. 90. 97. 108. 123. 131. 140. 146. 151. 160. 172. 180. 187. 187.
      183. 175. 170. 176. 188. 198. 207. 211. 216. 220. 222. 225. 228.
      231. 233. 235. 238. 240. 243. 247. 251. 252. 253. 253. 253. 252.
      252. 253. 254. 252. 250. 243. 237. 223. 206. 179. 139. 100. 83.
      78. 78. 80. 79. 76. 84. 103. 139. 154. 136. 103. 77. 71. 80. 100.
      131. 147. 140. 122. 103. 93. 89. 80. 70. 65. 61. 59. 61. 59. 60.
      60. 64. 70. 77. 86. 96. 107. 113. 115. 115. 108. 99. 93. 92. 93.
      97. 99. 98. 93. 88. 86. 85. 86. 90. 91. 99. 112. 125. 136. 144.
      148. 149. 150. 150. 146. 141. 141. 148. 159. 167. 173. 177. 184.
      190. 195. 201. 208. 213. 219. 222. 225. 228. 232. 236. 238. 239.
      243. 244. 244. 245. 246. 249. 250. 247. 242. 232. 226. 205. 173.
      135. 90. 77. 71. 70. 68. 71. 72. 65. 70. 72. 80. 83. 80. 74. 69.
      73. 80. 96. 118. 124. 107. 83. 71. 69. 60. 62. 56. 57. 54. 53. 56.
      56. 60. 64. 70. 79. 90. 103. 119. 131. 137. 137. 137. 131. 120.
      113. 112. 113. 116. 114. 114. 110. 106. 106. 104. 98. 93. 88. 93.
      103. 117. 130. 136. 134. 128. 124. 125. 127. 130. 136. 142. 145.
      145. 149. 152. 155. 158. 162. 168. 175. 181. 187. 192. 199. 206.
      214. 221. 224. 225. 230. 232. 235. 237. 241. 245. 247. 244. 239.
      230. 220. 193. 155. 110. 83. 73. 67. 65. 65. 65. 65. 62. 63. 66.
      71. 70. 71. 70. 71. 74. 83. 101. 115. 114. 91. 75. 63. 58. 57. 56.
      56. 55. 53. 53. 56. 59. 61. 67. 75. 83. 100. 115. 130. 136. 141.
      141. 138. 133. 130. 124. 123. 129. 128. 128. 124. 121. 121. 121.
      118. 110. 99. 93. 95. 103. 118. 130. 132. 125. 118. 115. 118. 124.
      131. 138. 143. 145. 145. 143. 143. 145. 149. 153. 157. 160. 163.
      170. 175. 182. 191. 200. 210. 218. 222. 225. 228. 232. 236. 238.
      241. 243.</_>
    <_>
      11. 10. 14. 21. 29. 39. 44. 42. 35. 34. 36. 30. 29. 26. 29. 26.
      24. 22. 15. 11. 15. 22. 27. 32. 34. 37. 46. 51. 54. 55. 53. 53.
      58. 65. 65. 56. 46. 40. 37. 38. 42. 43. 44. 47. 48. 48. 52. 52.
      55. 56. 59. 64. 68. 69. 73. 80. 86. 83. 83. 79. 73. 70. 61. 46.
      35. 27. 21. 17. 14. 13. 12. 9. 5. 4. 4. 4. 4. 4. 3. 2. 5. 5. 4. 4.
      6. 12. 12. 7. 7. 12. 18. 35. 90. 191. 248. 250. 249. 225. 152. 81.
      43. 25. 22. 8. 11. 15. 18. 26. 38. 47. 48. 45. 44. 46. 40. 39. 36.
      40. 39. 36. 32. 25. 21. 21. 22. 27. 33. 36. 43. 53. 57. 61. 61.
      57. 59. 61. 66. 66. 62. 54. 47. 44. 47. 49. 53. 57. 61. 60. 60.
      64. 63. 64. 66. 71. 78. 83. 84. 87. 93. 100. 99. 97. 94. 90. 89.
      81. 68. 56. 45. 36. 32. 29. 28. 27. 25. 20. 18. 16. 13. 12. 11.
      12. 12. 6. 4. 6. 8. 7. 7. 8. 8. 3. 10. 19. 31. 63. 132. 198. 241.
      242. 235. 180. 113. 67. 39. 32. 3. 6. 9. 14. 25. 43. 65. 82. 86.
      88. 85. 73. 68. 72. 87. 96. 91. 70. 52. 44. 38. 32. 32. 36. 46.
      60. 78. 89. 96. 92. 81. 79. 81. 84. 86. 85. 80. 72. 72. 78. 85.
      94. 104. 111. 111. 110. 110. 106. 101. 104. 112. 123. 130. 132.
      134. 137. 147. 153. 158. 161. 164. 166. 159. 150. 130. 119. 108.
      100. 90. 80. 73. 68. 59. 52. 44. 40. 39. 38. 34. 29. 27. 23. 21.
      19. 15. 13. 12. 10. 12. 10. 12. 20. 22. 36. 79. 139. 207. 236.
      241. 211. 152. 91. 69. 11. 9. 8. 13. 23. 39. 70. 103. 118. 121.
      113. 93. 84. 98. 127. 150. 144. 119. 99. 90. 79. 64. 52. 44. 45.
      56. 80. 101. 111. 110. 103. 102. 103. 105. 108. 110. 109. 108.
      112. 120. 126. 136. 147. 156. 159. 157. 151. 140. 131. 134. 143.
      155. 163. 167. 168. 168. 170. 178. 183. 185. 191. 198. 201. 201.
      203. 201. 201. 199. 193. 185. 179. 175. 163. 154. 142. 134. 129.
      123. 111. 101. 86. 75. 63. 53. 41. 30. 22. 19. 16. 16. 14. 13. 15.
      19. 28. 47. 81. 140. 198. 226. 217. 189. 175. 11. 10. 9. 15. 25.
      42. 78. 116. 132. 128. 110. 87. 76. 89. 121. 151. 162. 142. 126.
      125. 134. 133. 107. 74. 59. 52. 67. 88. 99. 105. 107. 107. 112.
      115. 117. 121. 129. 137. 144. 150. 151. 154. 157. 164. 171. 173.
      169. 157. 150. 149. 157. 169. 179. 186. 190. 189. 191. 196. 198.
      195. 197. 204. 212. 218. 223. 229. 238. 241. 238. 237. 237. 236.
      238. 237. 234. 231. 230. 227. 222. 216. 195. 184. 172. 158. 128.
      88. 54. 35. 30. 20. 18. 18. 16. 13. 15. 23. 28. 41. 72. 126. 180.
      209. 218. 18. 19. 18. 20. 29. 54. 93. 126. 142. 129. 103. 83. 77.
      94. 124. 155. 167. 153. 132. 126. 150. 178. 168. 136. 97. 66. 51.
      57. 70. 86. 96. 99. 111. 115. 117. 121. 132. 145. 153. 156. 151.
      146. 141. 147. 160. 172. 177. 172. 164. 160. 167. 182. 195. 208.
      215. 213. 216. 216. 214. 208. 202. 201. 205. 209. 220. 227. 236.
      238. 233. 232. 234. 236. 239. 242. 243. 243. 244. 245. 242. 238.
      238. 242. 243. 234. 213. 179. 135. 99. 60. 44. 35. 22. 16. 16. 16.
      11. 10. 18. 24. 36. 72. 121. 149. 20. 19. 20. 23. 34. 63. 103.
      133. 153. 145. 118. 97. 98. 123. 149. 170. 182. 177. 151. 121.
      120. 147. 165. 165. 134. 96. 57. 40. 47. 67. 84. 99. 107. 117.
      123. 124. 128. 136. 146. 153. 148. 141. 135. 142. 157. 173. 186.
      186. 187. 182. 188. 202. 215. 227. 231. 226. 221. 213. 206. 199.
      189. 185. 187. 188. 193. 200. 214. 226. 227. 225. 226. 229. 233.
      236. 238. 238. 238. 237. 232. 226. 224. 234. 238. 232. 228. 225.
      209. 186. 159. 117. 82. 55. 42. 28. 19. 12. 5. 5. 7. 11. 22. 40.
      50. 26. 21. 22. 26. 32. 53. 87. 112. 136. 144. 128. 111. 122. 162.
      187. 198. 205. 199. 168. 123. 97. 99. 117. 132. 139. 119. 81. 49.
      41. 46. 59. 82. 108. 124. 137. 136. 130. 132. 146. 160. 168. 163.
      160. 167. 179. 192. 203. 205. 202. 196. 200. 211. 219. 224. 221.
      210. 187. 178. 177. 180. 176. 172. 171. 168. 164. 172. 193. 214.
      219. 212. 208. 209. 215. 222. 227. 226. 221. 216. 211. 206. 206.
      212. 218. 218. 215. 220. 231. 238. 238. 226. 208. 169. 129. 85.
      50. 29. 21. 13. 10. 8. 10. 17. 20. 23. 25. 26. 24. 31. 46. 69. 92.
      109. 115. 109. 103. 124. 163. 188. 194. 204. 209. 182. 128. 88.
      78. 87. 106. 127. 134. 113. 81. 52. 44. 45. 55. 77. 112. 141. 157.
      154. 153. 163. 182. 190. 189. 189. 202. 211. 208. 202. 193. 187.
      181. 181. 189. 197. 198. 186. 171. 158. 150. 156. 173. 177. 183.
      180. 171. 162. 159. 187. 214. 219. 205. 186. 185. 192. 203. 192.
      181. 177. 177. 176. 181. 189. 204. 214. 218. 219. 227. 241. 240.
      249. 248. 245. 248. 242. 217. 162. 91. 45. 29. 18. 11. 12. 8. 9.
      29. 30. 28. 27. 32. 47. 74. 96. 106. 103. 91. 84. 101. 131. 155.
      163. 177. 185. 171. 129. 95. 80. 85. 103. 127. 144. 145. 127. 91.
      58. 38. 36. 43. 73. 110. 144. 157. 166. 180. 200. 207. 207. 207.
      216. 217. 199. 175. 152. 143. 141. 145. 157. 167. 168. 162. 153.
      145. 155. 174. 194. 201. 210. 208. 200. 183. 183. 200. 216. 214.
      193. 177. 173. 178. 184. 163. 133. 115. 120. 140. 167. 189. 207.
      214. 219. 223. 236. 245. 250. 247. 251. 251. 255. 255. 254. 246.
      218. 136. 63. 31. 23. 19. 13. 8. 29. 32. 31. 31. 35. 61. 111. 144.
      146. 123. 91. 73. 80. 99. 114. 121. 126. 137. 137. 120. 103. 97.
      106. 126. 149. 161. 165. 161. 134. 94. 56. 33. 31. 47. 75. 105.
      123. 143. 168. 188. 194. 202. 210. 213. 199. 170. 141. 120. 116.
      113. 114. 122. 135. 147. 157. 162. 167. 185. 206. 223. 229. 235.
      231. 226. 220. 220. 220. 211. 195. 172. 169. 169. 178. 171. 139.
      104. 82. 87. 119. 163. 205. 220. 213. 206. 212. 238. 243. 249.
      249. 254. 254. 255. 253. 252. 255. 250. 235. 160. 82. 41. 29. 19.
      14. 28. 31. 30. 33. 39. 79. 154. 201. 206. 171. 119. 82. 73. 80.
      85. 87. 86. 91. 97. 101. 106. 116. 138. 168. 181. 182. 180. 181.
      172. 145. 98. 49. 38. 43. 61. 76. 81. 98. 119. 131. 140. 158. 177.
      179. 160. 132. 114. 107. 99. 98. 96. 99. 114. 136. 159. 173. 192.
      205. 215. 227. 234. 238. 236. 238. 240. 242. 231. 195. 161. 140.
      146. 153. 165. 161. 133. 95. 70. 82. 130. 189. 229. 231. 205. 176.
      185. 232. 248. 250. 249. 252. 251. 255. 255. 255. 255. 255. 253.
      240. 177. 101. 51. 25. 21. 31. 30. 27. 31. 42. 89. 172. 222. 229.
      196. 140. 91. 71. 72. 75. 75. 72. 70. 75. 84. 98. 119. 157. 197.
      217. 213. 199. 191. 190. 186. 153. 94. 51. 44. 58. 66. 64. 68. 79.
      83. 86. 100. 119. 126. 117. 102. 93. 92. 93. 96. 92. 89. 102. 130.
      159. 178. 200. 212. 214. 218. 226. 233. 235. 243. 242. 246. 236.
      184. 134. 110. 109. 117. 126. 138. 126. 94. 72. 92. 148. 215. 244.
      239. 212. 171. 174. 220. 246. 246. 251. 254. 253. 253. 255. 254.
      254. 255. 249. 252. 242. 174. 83. 37. 26. 30. 27. 26. 30. 42. 90.
      170. 222. 222. 190. 135. 85. 66. 67. 70. 69. 65. 62. 67. 76. 88.
      113. 160. 210. 227. 228. 217. 205. 206. 214. 194. 134. 68. 43. 52.
      65. 65. 59. 60. 63. 58. 61. 71. 80. 81. 78. 76. 80. 93. 101. 100.
      94. 102. 125. 153. 174. 196. 214. 217. 214. 215. 222. 225. 234.
      245. 247. 241. 189. 124. 91. 79. 85. 92. 109. 115. 99. 77. 87.
      137. 209. 242. 243. 226. 188. 177. 208. 241. 250. 248. 253. 255.
      255. 255. 254. 253. 254. 255. 247. 247. 212. 114. 45. 31. 26. 23.
      25. 30. 41. 83. 147. 192. 193. 162. 114. 76. 64. 67. 68. 66. 64.
      63. 71. 80. 88. 110. 159. 210. 232. 229. 217. 204. 204. 216. 210.
      156. 75. 42. 49. 68. 73. 61. 54. 55. 55. 51. 56. 62. 65. 65. 66.
      75. 94. 111. 120. 117. 117. 125. 146. 168. 192. 214. 223. 222.
      219. 221. 223. 232. 243. 247. 243. 203. 126. 81. 68. 76. 87. 105.
      117. 102. 71. 61. 95. 162. 223. 244. 238. 206. 182. 196. 226. 245.
      249. 250. 253. 253. 253. 254. 254. 255. 252. 249. 246. 224. 131.
      49. 35. 26. 21. 24. 29. 40. 70. 112. 144. 146. 123. 92. 73. 70.
      73. 76. 78. 75. 74. 82. 89. 94. 113. 157. 204. 228. 223. 216. 206.
      201. 205. 200. 150. 78. 43. 48. 65. 74. 66. 59. 60. 61. 56. 62.
      68. 67. 64. 62. 71. 92. 111. 122. 119. 112. 114. 134. 161. 186.
      205. 218. 224. 220. 216. 216. 228. 239. 247. 247. 219. 135. 81.
      70. 81. 102. 122. 131. 111. 80. 63. 65. 99. 162. 214. 232. 221.
      199. 207. 225. 242. 247. 248. 252. 254. 253. 253. 252. 252. 255.
      251. 251. 220. 128. 56. 34. 21. 21. 24. 30. 45. 68. 91. 109. 109.
      95. 87. 94. 105. 107. 106. 109. 104. 105. 109. 109. 104. 112. 147.
      184. 208. 215. 209. 197. 188. 189. 170. 119. 61. 45. 52. 68. 72.
      67. 67. 78. 77. 71. 83. 100. 102. 90. 79. 79. 87. 100. 113. 110.
      96. 91. 104. 144. 178. 199. 211. 216. 217. 220. 222. 231. 239.
      245. 246. 236. 175. 108. 96. 114. 133. 151. 161. 145. 107. 77. 59.
      66. 105. 161. 208. 222. 224. 226. 231. 240. 247. 246. 249. 253.
      254. 251. 251. 253. 255. 247. 247. 220. 120. 51. 34. 19. 20. 28.
      41. 60. 83. 103. 116. 110. 98. 100. 123. 147. 155. 159. 166. 164.
      153. 134. 114. 101. 102. 128. 159. 179. 184. 186. 186. 176. 159.
      127. 81. 49. 40. 53. 71. 73. 71. 83. 105. 109. 106. 118. 146. 161.
      146. 116. 92. 88. 91. 101. 102. 87. 76. 84. 121. 163. 186. 197.
      201. 208. 224. 234. 243. 243. 246. 243. 242. 212. 176. 160. 156.
      164. 169. 176. 173. 149. 114. 78. 67. 84. 130. 176. 203. 224. 234.
      233. 232. 240. 247. 251. 249. 248. 252. 253. 249. 250. 253. 248.
      211. 105. 40. 29. 18. 21. 36. 60. 91. 123. 145. 149. 129. 114.
      119. 151. 179. 186. 190. 198. 207. 187. 148. 110. 89. 87. 106.
      131. 149. 161. 168. 170. 161. 136. 95. 51. 35. 32. 46. 64. 74. 86.
      110. 138. 148. 154. 167. 192. 204. 188. 156. 124. 103. 96. 99.
      101. 85. 71. 75. 105. 149. 172. 181. 183. 198. 225. 238. 242. 241.
      243. 237. 240. 235. 230. 220. 205. 181. 165. 165. 171. 166. 136.
      107. 96. 108. 138. 168. 191. 215. 227. 225. 223. 231. 240. 247.
      248. 248. 250. 252. 251. 251. 251. 246. 191. 82. 33. 26. 19. 25.
      42. 72. 109. 148. 170. 166. 136. 118. 126. 164. 193. 197. 199.
      207. 214. 192. 145. 100. 79. 76. 86. 103. 123. 146. 158. 157. 144.
      115. 75. 38. 29. 31. 46. 69. 94. 121. 150. 172. 191. 199. 200.
      211. 217. 204. 181. 153. 128. 114. 105. 102. 90. 83. 87. 105. 134.
      154. 161. 167. 188. 220. 235. 241. 241. 238. 226. 221. 217. 222.
      225. 222. 197. 168. 153. 157. 163. 151. 146. 147. 158. 173. 184.
      193. 204. 211. 212. 213. 220. 229. 240. 245. 247. 247. 249. 251.
      252. 245. 242. 164. 62. 30. 21. 20. 27. 47. 80. 113. 140. 155.
      148. 122. 109. 124. 168. 198. 200. 198. 202. 207. 185. 140. 98.
      81. 77. 80. 90. 111. 138. 154. 147. 124. 87. 53. 33. 28. 35. 52.
      81. 112. 140. 169. 190. 206. 226. 230. 224. 210. 195. 192. 187.
      163. 137. 112. 104. 100. 99. 102. 113. 123. 137. 143. 152. 169.
      195. 212. 226. 226. 221. 207. 198. 184. 179. 187. 201. 201. 175.
      150. 142. 157. 167. 177. 179. 189. 193. 194. 193. 196. 199. 201.
      204. 211. 220. 229. 232. 236. 241. 247. 249. 247. 248. 226. 126.
      48. 24. 14. 20. 27. 52. 93. 120. 126. 126. 118. 100. 94. 116. 160.
      190. 196. 193. 192. 194. 177. 141. 108. 93. 91. 94. 101. 120. 142.
      147. 123. 90. 59. 40. 35. 39. 57. 85. 117. 135. 142. 159. 176.
      198. 223. 232. 224. 205. 192. 201. 213. 206. 173. 138. 129. 128.
      126. 123. 129. 141. 152. 154. 154. 153. 157. 161. 173. 178. 184.
      185. 183. 167. 149. 150. 173. 201. 193. 168. 149. 165. 192. 209.
      209. 208. 206. 197. 184. 176. 177. 186. 196. 201. 201. 203. 208.
      214. 222. 233. 243. 243. 240. 176. 79. 35. 17. 10. 19. 28. 53.
      101. 130. 125. 110. 93. 79. 75. 95. 134. 165. 182. 189. 190. 181.
      163. 138. 121. 120. 125. 131. 136. 141. 140. 119. 83. 54. 39. 38.
      46. 64. 96. 131. 156. 158. 145. 143. 148. 167. 197. 220. 215. 192.
      178. 193. 222. 226. 207. 181. 175. 176. 172. 164. 166. 173. 181.
      177. 168. 153. 137. 122. 121. 139. 159. 170. 172. 162. 145. 139.
      160. 195. 206. 190. 177. 189. 213. 226. 227. 223. 221. 209. 190.
      174. 173. 188. 202. 204. 193. 186. 190. 196. 204. 219. 234. 230.
      194. 108. 42. 23. 12. 8. 15. 26. 49. 100. 140. 140. 117. 89. 72.
      66. 76. 104. 132. 157. 174. 178. 168. 145. 126. 129. 150. 170.
      177. 175. 159. 129. 89. 56. 37. 30. 39. 59. 84. 115. 138. 145.
      140. 129. 127. 126. 142. 166. 190. 193. 179. 165. 172. 198. 216.
      219. 210. 210. 213. 212. 206. 206. 210. 215. 207. 196. 181. 163.
      139. 130. 139. 160. 164. 161. 159. 152. 144. 158. 176. 198. 197.
      202. 216. 229. 230. 230. 232. 234. 229. 216. 202. 201. 213. 225.
      223. 212. 199. 192. 196. 208. 222. 232. 209. 140. 62. 31. 14. 9.
      4. 21. 26. 48. 88. 133. 150. 126. 97. 75. 72. 80. 97. 115. 136.
      156. 166. 150. 131. 127. 151. 175. 193. 198. 182. 146. 97. 59. 40.
      32. 37. 51. 66. 88. 96. 106. 109. 108. 110. 118. 126. 138. 155.
      171. 173. 159. 145. 146. 157. 175. 193. 207. 212. 216. 221. 220.
      215. 215. 223. 225. 221. 221. 215. 200. 188. 186. 194. 188. 171.
      160. 153. 150. 153. 167. 186. 200. 215. 230. 232. 228. 223. 224.
      235. 239. 236. 234. 233. 235. 241. 243. 236. 224. 218. 214. 224.
      237. 226. 179. 96. 42. 21. 7. 5. 5. 32. 37. 58. 90. 129. 148. 130.
      105. 86. 91. 105. 121. 132. 137. 141. 144. 134. 138. 150. 172.
      188. 190. 172. 139. 100. 69. 49. 44. 47. 58. 70. 80. 81. 88. 92.
      91. 92. 101. 115. 125. 135. 150. 158. 150. 133. 119. 115. 117.
      137. 156. 175. 186. 191. 193. 190. 188. 196. 212. 224. 229. 237.
      242. 240. 238. 237. 234. 219. 198. 180. 164. 157. 161. 176. 196.
      212. 224. 229. 224. 219. 217. 227. 235. 240. 241. 243. 243. 242.
      243. 242. 245. 243. 240. 235. 237. 232. 203. 124. 62. 26. 15. 6.
      5. 4. 47. 55. 75. 96. 118. 133. 125. 107. 101. 118. 142. 160. 163.
      150. 135. 129. 134. 145. 159. 168. 162. 140. 111. 83. 64. 56. 58.
      68. 84. 96. 98. 98. 99. 106. 109. 107. 107. 116. 128. 136. 144.
      148. 148. 141. 128. 116. 113. 118. 131. 147. 164. 173. 172. 164.
      156. 153. 159. 181. 205. 220. 230. 236. 239. 241. 244. 241. 233.
      220. 201. 180. 177. 189. 207. 221. 231. 238. 238. 229. 224. 223.
      233. 238. 241. 242. 246. 247. 245. 244. 245. 249. 245. 242. 243.
      240. 202. 140. 71. 36. 20. 16. 12. 11. 9. 64. 69. 85. 97. 104.
      112. 107. 95. 99. 123. 153. 172. 171. 149. 124. 113. 116. 120.
      120. 114. 98. 76. 60. 53. 53. 64. 80. 97. 114. 122. 122. 122. 127.
      132. 137. 136. 137. 141. 147. 150. 154. 155. 155. 154. 148. 141.
      141. 149. 157. 167. 177. 179. 172. 157. 143. 136. 142. 159. 179.
      194. 206. 216. 225. 230. 227. 228. 228. 226. 213. 197. 199. 213.
      230. 238. 240. 242. 242. 237. 234. 233. 237. 241. 245. 245. 245.
      245. 245. 245. 243. 244. 240. 234. 221. 193. 138. 75. 41. 25. 20.
      18. 16. 16. 14. 68. 64. 70. 78. 82. 85. 79. 68. 73. 95. 120. 134.
      131. 109. 86. 77. 71. 71. 64. 55. 50. 48. 47. 49. 58. 76. 93. 106.
      115. 117. 121. 126. 125. 125. 125. 127. 129. 133. 139. 144. 148.
      157. 164. 166. 167. 169. 171. 174. 180. 187. 192. 192. 187. 175.
      160. 151. 146. 153. 163. 175. 186. 197. 204. 206. 198. 193. 192.
      197. 200. 198. 201. 208. 221. 230. 234. 235. 236. 236. 237. 234.
      234. 235. 236. 233. 228. 224. 221. 220. 210. 189. 166. 148. 122.
      92. 63. 39. 25. 20. 18. 16. 15. 16. 15. 53. 45. 46. 50. 53. 55.
      50. 45. 44. 56. 69. 76. 73. 59. 45. 40. 37. 35. 35. 35. 38. 42.
      47. 56. 68. 81. 92. 104. 111. 109. 108. 109. 103. 99. 97. 99. 103.
      107. 114. 119. 127. 134. 142. 148. 153. 157. 162. 169. 173. 180.
      184. 184. 183. 176. 163. 153. 144. 145. 154. 167. 176. 181. 181.
      177. 173. 167. 166. 174. 184. 190. 191. 191. 197. 204. 206. 207.
      207. 205. 200. 190. 181. 172. 161. 148. 134. 124. 117. 111. 98.
      80. 63. 52. 41. 32. 25. 19. 15. 14. 11. 9. 9. 10. 9. 31. 28. 28.
      28. 30. 32. 30. 30. 26. 28. 33. 36. 34. 29. 24. 20. 20. 18. 26.
      32. 36. 39. 43. 54. 59. 67. 74. 87. 95. 93. 89. 83. 77. 76. 77.
      79. 81. 82. 84. 85. 90. 88. 89. 95. 99. 100. 105. 114. 129. 136.
      140. 140. 139. 134. 125. 119. 112. 111. 117. 128. 137. 144. 147.
      145. 136. 134. 134. 137. 138. 138. 135. 130. 129. 128. 124. 122.
      118. 111. 101. 89. 79. 69. 59. 50. 42. 38. 35. 31. 29. 27. 25. 18.
      12. 12. 10. 6. 5. 5. 3. 2. 1. 2. 2. 15. 14. 13. 11. 16. 20. 16.
      15. 18. 15. 17. 19. 18. 17. 15. 11. 12. 14. 22. 24. 28. 35. 34.
      33. 36. 44. 48. 55. 58. 56. 56. 51. 49. 52. 55. 56. 57. 56. 54.
      52. 48. 48. 45. 44. 48. 52. 54. 57. 63. 69. 74. 75. 74. 71. 66.
      65. 62. 58. 61. 67. 70. 74. 79. 80. 77. 76. 76. 75. 72. 69. 64.
      59. 55. 53. 49. 47. 42. 37. 36. 31. 27. 22. 20. 18. 13. 11. 10. 6.
      6. 1. 2. 3. 3. 2. 1. 1. 2. 2. 1. 1. 0. 1. 3. 6. 5. 5. 5. 6. 6. 7.
      8. 10. 10. 10. 10. 10. 10. 9. 8. 11. 16. 20. 23. 26. 28. 29. 31.
      33. 37. 42. 47. 50. 50. 47. 45. 45. 48. 52. 54. 55. 52. 47. 43.
      40. 37. 35. 36. 38. 39. 42. 45. 50. 54. 57. 57. 57. 56. 53. 50.
      48. 47. 48. 50. 54. 57. 59. 61. 64. 65. 60. 62. 55. 48. 43. 40.
      36. 35. 32. 28. 25. 21. 18. 16. 10. 5. 4. 3. 2. 3. 2. 2. 2. 2. 2.
      2. 2. 1. 1. 1. 1. 1. 1. 1. 1. 1. 1.</_>
    <_>
      170. 76. 137. 63. 43. 12. 1. 1. 1. 2. 0. 0. 3. 6. 5. 10. 10. 14.
      16. 18. 26. 21. 29. 28. 32. 32. 31. 34. 36. 36. 37. 38. 37. 40.
      24. 25. 21. 29. 22. 26. 28. 27. 28. 23. 25. 23. 31. 25. 20. 25.
      25. 30. 19. 24. 30. 30. 33. 37. 46. 52. 72. 105. 135. 91. 98. 98.
      146. 144. 152. 166. 173. 196. 208. 224. 203. 182. 142. 111. 79.
      97. 146. 183. 181. 171. 138. 72. 43. 33. 27. 25. 27. 19. 18. 14.
      21. 19. 15. 15. 17. 17. 13. 10. 10. 203. 149. 203. 152. 86. 31.
      11. 7. 8. 6. 7. 10. 6. 12. 9. 11. 10. 11. 21. 21. 23. 23. 26. 27.
      28. 29. 31. 29. 31. 31. 29. 31. 32. 31. 25. 28. 27. 33. 29. 28.
      35. 37. 36. 33. 32. 43. 45. 47. 35. 42. 42. 47. 49. 46. 44. 50.
      55. 53. 52. 59. 87. 120. 140. 112. 107. 81. 102. 116. 136. 149.
      164. 193. 210. 225. 215. 192. 161. 136. 134. 141. 153. 178. 149.
      147. 133. 108. 67. 51. 39. 24. 24. 24. 26. 24. 20. 17. 16. 15. 17.
      19. 15. 12. 12. 241. 226. 239. 227. 184. 104. 42. 33. 28. 33. 35.
      35. 41. 40. 43. 44. 47. 37. 46. 44. 41. 43. 46. 49. 42. 35. 35.
      38. 47. 39. 48. 53. 50. 42. 47. 54. 52. 46. 42. 41. 48. 50. 53.
      43. 51. 65. 64. 67. 47. 57. 49. 74. 63. 88. 122. 145. 169. 175.
      181. 199. 224. 240. 244. 236. 228. 201. 211. 218. 221. 230. 219.
      237. 241. 247. 243. 222. 193. 155. 162. 155. 143. 142. 147. 175.
      168. 169. 158. 127. 86. 45. 34. 26. 21. 23. 25. 21. 15. 13. 15.
      18. 16. 12. 11. 251. 253. 255. 255. 252. 245. 234. 199. 166. 140.
      152. 178. 189. 134. 106. 69. 74. 60. 55. 45. 46. 50. 68. 63. 44.
      33. 35. 34. 42. 43. 67. 73. 86. 71. 89. 117. 117. 78. 64. 74. 121.
      130. 113. 107. 129. 186. 174. 155. 106. 123. 141. 170. 181. 207.
      208. 226. 228. 237. 237. 241. 241. 241. 238. 239. 209. 188. 193.
      210. 200. 169. 157. 170. 190. 210. 209. 197. 190. 190. 210. 207.
      175. 165. 156. 190. 190. 203. 196. 179. 142. 82. 48. 38. 33. 23.
      20. 18. 18. 14. 15. 18. 17. 14. 12. 251. 255. 251. 252. 255. 247.
      246. 234. 201. 140. 143. 143. 202. 141. 118. 82. 94. 92. 78. 62.
      61. 67. 118. 121. 77. 56. 46. 55. 66. 117. 179. 220. 220. 218.
      224. 230. 220. 186. 169. 166. 196. 196. 183. 166. 157. 163. 160.
      159. 160. 157. 109. 106. 79. 133. 164. 210. 225. 234. 243. 248.
      246. 246. 239. 223. 174. 168. 211. 225. 204. 144. 122. 146. 161.
      172. 154. 164. 182. 209. 200. 195. 158. 191. 210. 222. 221. 201.
      193. 184. 150. 121. 72. 51. 31. 28. 22. 19. 17. 13. 13. 16. 15.
      13. 12. 253. 246. 247. 247. 255. 254. 250. 236. 223. 144. 147.
      126. 194. 177. 161. 120. 96. 87. 79. 97. 111. 88. 102. 90. 80. 65.
      57. 61. 59. 138. 182. 231. 236. 232. 228. 236. 223. 192. 177. 168.
      200. 181. 191. 166. 167. 138. 159. 164. 213. 193. 150. 105. 58.
      113. 153. 194. 212. 199. 219. 236. 245. 244. 233. 211. 175. 187.
      200. 207. 177. 148. 137. 151. 158. 160. 135. 155. 173. 213. 207.
      229. 220. 232. 233. 249. 239. 236. 213. 190. 146. 163. 145. 120.
      44. 28. 21. 15. 19. 15. 14. 15. 14. 14. 14. 255. 221. 224. 222.
      248. 252. 251. 234. 231. 134. 119. 83. 182. 168. 160. 125. 85. 91.
      113. 141. 124. 65. 65. 93. 111. 158. 130. 127. 107. 160. 224. 247.
      244. 243. 231. 243. 236. 237. 238. 213. 212. 171. 185. 172. 175.
      152. 180. 198. 235. 228. 146. 87. 49. 106. 133. 136. 113. 102.
      168. 210. 237. 240. 235. 228. 207. 186. 152. 149. 144. 180. 158.
      158. 159. 181. 184. 197. 193. 216. 201. 201. 197. 191. 214. 225.
      237. 238. 235. 228. 201. 178. 150. 134. 73. 48. 37. 31. 29. 27.
      26. 24. 21. 22. 23. 255. 194. 194. 198. 255. 252. 252. 245. 230.
      153. 107. 114. 187. 224. 218. 200. 171. 163. 175. 190. 162. 105.
      90. 132. 150. 156. 119. 111. 133. 189. 226. 244. 236. 232. 216.
      233. 222. 232. 231. 190. 154. 79. 80. 84. 154. 177. 179. 140. 159.
      185. 150. 97. 58. 100. 108. 60. 57. 69. 175. 216. 238. 238. 233.
      233. 232. 195. 130. 104. 123. 182. 166. 140. 139. 172. 202. 212.
      193. 206. 210. 210. 214. 184. 212. 211. 222. 229. 238. 233. 230.
      217. 201. 179. 149. 96. 57. 43. 37. 36. 35. 31. 27. 28. 28. 253.
      209. 215. 216. 253. 255. 249. 240. 194. 129. 83. 118. 154. 209.
      214. 225. 226. 230. 228. 204. 178. 138. 120. 157. 173. 204. 167.
      153. 178. 207. 231. 228. 193. 190. 177. 195. 176. 180. 184. 154.
      141. 84. 71. 74. 151. 179. 164. 131. 146. 185. 175. 146. 97. 105.
      89. 57. 53. 80. 167. 215. 236. 228. 233. 224. 225. 184. 134. 137.
      159. 205. 181. 94. 79. 67. 157. 195. 193. 163. 146. 133. 166. 170.
      212. 193. 212. 201. 211. 223. 229. 222. 210. 202. 202. 182. 160.
      100. 63. 56. 50. 45. 42. 41. 40. 244. 221. 241. 244. 255. 253.
      255. 236. 187. 162. 124. 139. 144. 218. 234. 248. 239. 238. 225.
      215. 206. 185. 118. 142. 190. 230. 200. 191. 217. 244. 240. 215.
      170. 164. 163. 162. 143. 107. 118. 112. 133. 72. 66. 64. 136. 164.
      164. 134. 129. 157. 185. 171. 113. 92. 88. 85. 110. 127. 198. 212.
      228. 220. 227. 217. 223. 206. 191. 198. 174. 161. 134. 81. 96. 65.
      147. 165. 154. 118. 93. 108. 144. 176. 210. 181. 163. 162. 183.
      205. 217. 223. 214. 197. 167. 133. 116. 91. 99. 88. 72. 74. 62.
      53. 48. 226. 217. 243. 244. 244. 255. 251. 235. 199. 198. 180.
      183. 168. 223. 238. 247. 242. 243. 227. 225. 216. 205. 124. 133.
      182. 239. 240. 227. 212. 225. 232. 218. 181. 159. 152. 132. 132.
      89. 113. 129. 155. 125. 119. 148. 168. 170. 173. 151. 167. 169.
      216. 177. 136. 81. 108. 137. 148. 137. 163. 195. 213. 204. 216.
      223. 230. 220. 206. 200. 170. 161. 152. 116. 128. 104. 173. 185.
      155. 115. 87. 119. 152. 178. 202. 191. 174. 168. 169. 175. 205.
      222. 208. 176. 145. 135. 144. 139. 122. 116. 88. 80. 53. 44. 39.
      177. 187. 221. 225. 223. 255. 252. 254. 242. 243. 230. 224. 189.
      218. 232. 248. 245. 241. 227. 231. 227. 225. 179. 167. 183. 230.
      235. 226. 214. 216. 225. 231. 233. 202. 175. 145. 153. 136. 157.
      173. 164. 151. 129. 170. 177. 192. 185. 153. 154. 147. 184. 159.
      105. 82. 128. 168. 157. 143. 161. 176. 209. 226. 236. 240. 237.
      229. 214. 209. 175. 165. 164. 150. 146. 155. 199. 214. 181. 170.
      159. 173. 174. 188. 209. 198. 202. 200. 196. 183. 179. 197. 184.
      177. 116. 93. 115. 151. 158. 112. 54. 42. 29. 28. 25. 108. 130.
      199. 217. 221. 253. 252. 252. 253. 249. 225. 225. 195. 232. 238.
      246. 250. 250. 246. 248. 245. 248. 245. 234. 222. 232. 237. 234.
      221. 220. 235. 240. 244. 232. 219. 196. 194. 191. 201. 205. 181.
      177. 190. 223. 224. 211. 175. 147. 139. 138. 168. 151. 132. 115.
      157. 188. 195. 182. 151. 178. 190. 217. 218. 218. 195. 189. 181.
      198. 192. 210. 224. 225. 187. 190. 206. 235. 221. 220. 219. 211.
      217. 209. 224. 210. 220. 209. 201. 195. 166. 184. 159. 174. 123.
      129. 131. 134. 82. 51. 26. 24. 17. 13. 9. 43. 64. 202. 230. 238.
      255. 255. 255. 251. 254. 242. 237. 218. 239. 244. 245. 244. 242.
      234. 235. 240. 251. 248. 243. 233. 237. 242. 243. 249. 243. 241.
      242. 247. 245. 243. 223. 208. 206. 218. 221. 223. 228. 233. 233.
      234. 234. 222. 203. 173. 159. 160. 181. 170. 189. 209. 220. 215.
      191. 147. 133. 153. 205. 219. 216. 181. 177. 184. 214. 202. 194.
      204. 225. 195. 171. 177. 204. 214. 207. 202. 186. 193. 189. 189.
      170. 192. 210. 199. 182. 146. 151. 145. 159. 100. 55. 45. 49. 41.
      26. 22. 18. 22. 31. 37. 23. 43. 201. 239. 241. 246. 252. 255. 255.
      251. 248. 245. 246. 249. 253. 249. 244. 247. 241. 242. 242. 251.
      249. 253. 251. 247. 249. 243. 236. 238. 242. 245. 240. 242. 244.
      237. 226. 224. 229. 231. 230. 239. 240. 243. 232. 227. 222. 210.
      174. 171. 165. 197. 209. 235. 228. 228. 217. 219. 181. 164. 165.
      202. 219. 205. 187. 197. 211. 222. 206. 188. 192. 203. 195. 167.
      165. 164. 180. 172. 152. 125. 138. 162. 164. 138. 130. 140. 140.
      143. 113. 86. 63. 49. 43. 31. 34. 21. 24. 19. 24. 31. 40. 50. 63.
      12. 30. 147. 211. 230. 230. 255. 253. 253. 253. 252. 254. 252.
      251. 251. 251. 250. 247. 236. 241. 243. 249. 251. 247. 249. 248.
      247. 240. 235. 237. 232. 236. 235. 230. 220. 221. 216. 224. 228.
      231. 237. 236. 240. 232. 224. 234. 232. 220. 208. 201. 202. 184.
      197. 204. 218. 213. 210. 209. 190. 169. 181. 203. 227. 216. 223.
      222. 225. 217. 197. 169. 174. 184. 185. 157. 154. 157. 173. 149.
      109. 82. 106. 141. 147. 138. 143. 144. 112. 79. 53. 40. 36. 32.
      27. 18. 17. 26. 28. 37. 40. 45. 63. 100. 138. 7. 16. 70. 170. 236.
      229. 255. 252. 252. 250. 251. 249. 251. 247. 244. 253. 250. 248.
      249. 251. 250. 249. 250. 249. 250. 245. 237. 228. 226. 230. 235.
      234. 230. 220. 207. 189. 182. 203. 214. 231. 231. 234. 236. 233.
      225. 221. 210. 205. 204. 212. 209. 178. 153. 166. 190. 209. 203.
      212. 202. 197. 204. 212. 213. 197. 192. 191. 192. 181. 182. 161.
      168. 154. 157. 146. 140. 146. 151. 137. 98. 61. 58. 61. 70. 55.
      55. 51. 43. 37. 34. 24. 21. 17. 20. 25. 29. 36. 47. 67. 61. 59.
      67. 75. 99. 8. 5. 40. 150. 228. 236. 247. 254. 248. 247. 245. 247.
      240. 239. 245. 243. 247. 247. 248. 252. 247. 244. 242. 243. 244.
      245. 227. 216. 193. 208. 214. 224. 229. 206. 173. 116. 126. 153.
      192. 207. 219. 224. 222. 223. 216. 207. 195. 188. 196. 196. 200.
      164. 137. 110. 132. 146. 159. 158. 141. 127. 137. 136. 123. 116.
      134. 149. 162. 156. 157. 135. 149. 161. 174. 163. 141. 111. 81.
      61. 51. 45. 42. 37. 36. 31. 35. 35. 29. 29. 20. 22. 29. 31. 33.
      36. 40. 47. 57. 90. 86. 67. 63. 75. 105. 2. 4. 23. 82. 157. 223.
      222. 249. 245. 239. 234. 237. 215. 201. 214. 235. 245. 243. 241.
      241. 235. 231. 220. 212. 210. 212. 201. 197. 182. 200. 212. 226.
      229. 212. 179. 122. 97. 83. 114. 148. 173. 207. 218. 222. 216.
      194. 175. 175. 183. 182. 167. 157. 135. 129. 135. 139. 144. 128.
      110. 81. 91. 118. 116. 93. 99. 103. 104. 80. 72. 60. 66. 64. 71.
      62. 53. 44. 40. 40. 40. 38. 29. 27. 22. 18. 17. 21. 24. 29. 34.
      35. 43. 54. 59. 59. 56. 62. 78. 92. 95. 80. 83. 103. 124. 0. 8.
      11. 35. 65. 147. 165. 239. 231. 224. 214. 206. 173. 159. 172. 200.
      216. 223. 230. 220. 209. 194. 181. 166. 166. 183. 181. 182. 150.
      165. 184. 217. 221. 204. 178. 140. 121. 99. 121. 142. 169. 191.
      208. 214. 207. 201. 193. 188. 173. 155. 147. 136. 157. 146. 139.
      112. 113. 94. 78. 58. 68. 76. 80. 83. 95. 99. 93. 60. 49. 38. 38.
      44. 44. 46. 48. 46. 38. 32. 29. 27. 26. 27. 24. 25. 29. 33. 44.
      53. 60. 65. 83. 112. 123. 112. 92. 87. 93. 107. 117. 125. 127.
      123. 135. 3. 0. 10. 16. 42. 54. 93. 148. 209. 223. 211. 193. 159.
      151. 168. 184. 191. 191. 199. 186. 187. 170. 168. 155. 153. 158.
      169. 169. 179. 189. 209. 217. 209. 204. 194. 205. 176. 158. 151.
      161. 173. 191. 208. 210. 207. 202. 192. 201. 180. 162. 151. 152.
      160. 160. 153. 151. 144. 117. 85. 72. 107. 141. 153. 135. 115. 73.
      56. 44. 39. 41. 45. 38. 38. 37. 39. 40. 38. 36. 35. 35. 31. 29.
      32. 37. 54. 65. 89. 104. 118. 119. 115. 120. 119. 119. 126. 142.
      155. 144. 145. 138. 138. 137. 133. 1. 1. 5. 14. 27. 30. 37. 49.
      134. 205. 211. 202. 192. 186. 189. 177. 191. 171. 173. 162. 180.
      166. 171. 160. 174. 179. 175. 157. 151. 165. 191. 204. 201. 196.
      198. 206. 210. 214. 222. 213. 211. 195. 199. 196. 178. 171. 161.
      168. 164. 154. 153. 150. 146. 137. 133. 146. 148. 124. 102. 99.
      115. 134. 143. 108. 82. 65. 64. 62. 60. 63. 60. 53. 41. 41. 42.
      42. 37. 36. 40. 44. 42. 39. 44. 55. 92. 118. 134. 132. 118. 111.
      96. 110. 134. 151. 140. 130. 124. 128. 133. 143. 142. 125. 122. 4.
      0. 8. 6. 12. 23. 22. 28. 48. 150. 211. 228. 226. 221. 218. 202.
      204. 186. 189. 176. 191. 175. 179. 168. 178. 167. 159. 141. 154.
      166. 187. 187. 185. 181. 183. 194. 195. 197. 196. 192. 194. 188.
      183. 170. 148. 127. 112. 127. 139. 149. 153. 138. 112. 96. 108.
      134. 147. 138. 115. 103. 102. 107. 123. 121. 101. 73. 69. 89. 110.
      125. 102. 58. 39. 35. 33. 35. 36. 39. 48. 54. 69. 55. 50. 58. 93.
      117. 114. 103. 97. 114. 117. 129. 135. 136. 125. 120. 115. 109.
      111. 121. 130. 120. 111. 3. 3. 3. 6. 9. 19. 17. 15. 28. 50. 132.
      203. 218. 218. 216. 208. 210. 193. 189. 173. 189. 184. 189. 175.
      162. 148. 135. 131. 137. 145. 153. 154. 159. 167. 171. 166. 171.
      177. 177. 170. 165. 169. 168. 166. 158. 143. 127. 131. 136. 135.
      117. 110. 91. 86. 99. 121. 121. 119. 123. 127. 110. 107. 126. 129.
      121. 117. 125. 132. 104. 66. 44. 40. 35. 33. 35. 42. 48. 57. 72.
      83. 82. 61. 52. 51. 62. 81. 105. 137. 134. 138. 125. 129. 128.
      121. 105. 99. 100. 106. 107. 117. 129. 121. 122. 5. 4. 3. 5. 8.
      13. 17. 20. 15. 26. 43. 86. 151. 187. 213. 202. 207. 189. 203.
      195. 197. 197. 196. 184. 163. 151. 147. 152. 155. 157. 145. 139.
      138. 149. 149. 151. 153. 153. 148. 128. 130. 137. 150. 143. 133.
      129. 129. 128. 128. 128. 116. 104. 83. 80. 80. 88. 86. 100. 108.
      111. 108. 104. 129. 143. 156. 148. 116. 89. 53. 46. 38. 35. 39.
      44. 58. 59. 71. 76. 78. 79. 74. 69. 51. 56. 60. 86. 102. 124. 118.
      125. 114. 118. 118. 107. 94. 97. 93. 81. 98. 107. 123. 119. 122.
      4. 3. 3. 4. 6. 10. 14. 16. 16. 24. 26. 31. 55. 87. 145. 177. 193.
      199. 199. 191. 201. 207. 204. 196. 178. 172. 174. 180. 177. 166.
      141. 128. 120. 131. 141. 144. 149. 140. 133. 116. 115. 108. 120.
      122. 133. 139. 128. 123. 112. 113. 110. 111. 97. 91. 84. 86. 84.
      87. 87. 104. 125. 134. 143. 135. 137. 101. 65. 53. 45. 43. 43. 50.
      59. 77. 97. 98. 92. 91. 92. 100. 105. 97. 80. 69. 63. 72. 95. 123.
      136. 122. 112. 116. 112. 102. 101. 92. 91. 90. 108. 101. 91. 77.
      78. 5. 4. 3. 3. 5. 8. 10. 12. 17. 20. 23. 22. 29. 31. 52. 66. 117.
      159. 178. 193. 202. 204. 200. 193. 193. 193. 194. 196. 187. 177.
      162. 156. 150. 149. 149. 148. 146. 128. 109. 97. 97. 94. 94. 91.
      102. 116. 117. 119. 108. 103. 94. 93. 81. 77. 75. 82. 83. 84. 80.
      96. 108. 109. 105. 93. 81. 58. 48. 46. 53. 57. 65. 78. 95. 110.
      122. 122. 110. 112. 114. 123. 127. 116. 107. 89. 80. 72. 93. 116.
      125. 112. 114. 118. 112. 103. 109. 94. 74. 73. 83. 74. 65. 60. 58.
      6. 5. 4. 4. 4. 6. 8. 9. 11. 14. 21. 20. 22. 19. 25. 34. 40. 55.
      79. 127. 153. 172. 188. 194. 190. 190. 186. 183. 178. 178. 172.
      171. 163. 167. 164. 161. 133. 101. 71. 73. 92. 104. 88. 84. 89.
      106. 113. 105. 76. 76. 77. 84. 83. 84. 85. 91. 97. 89. 81. 97.
      103. 95. 79. 64. 53. 41. 45. 56. 86. 106. 106. 104. 106. 112. 117.
      122. 122. 131. 132. 134. 131. 111. 96. 76. 76. 69. 87. 101. 115.
      108. 107. 103. 107. 106. 104. 92. 72. 73. 74. 70. 62. 58. 60. 5.
      5. 4. 3. 4. 5. 6. 7. 10. 9. 14. 16. 23. 23. 19. 18. 24. 28. 37.
      46. 56. 92. 131. 145. 161. 173. 177. 175. 167. 164. 160. 161. 159.
      154. 144. 144. 123. 99. 76. 84. 88. 102. 77. 72. 66. 87. 92. 85.
      72. 68. 62. 65. 69. 76. 76. 76. 70. 77. 82. 94. 84. 66. 53. 48.
      48. 47. 56. 69. 88. 102. 93. 92. 85. 96. 115. 128. 136. 134. 128.
      117. 111. 96. 86. 78. 81. 78. 84. 85. 96. 98. 102. 88. 82. 81. 75.
      80. 61. 68. 68. 78. 78. 76. 84. 5. 4. 4. 3. 3. 4. 6. 7. 5. 8. 12.
      13. 18. 20. 18. 19. 18. 13. 19. 24. 29. 38. 47. 58. 85. 115. 141.
      160. 161. 156. 150. 150. 150. 143. 135. 129. 119. 96. 83. 83. 102.
      109. 94. 87. 66. 76. 66. 67. 56. 55. 54. 57. 65. 74. 76. 73. 74.
      75. 69. 66. 58. 51. 50. 49. 48. 55. 62. 73. 81. 89. 76. 74. 72.
      80. 98. 104. 111. 107. 111. 101. 95. 93. 94. 95. 93. 91. 86. 82.
      73. 65. 73. 70. 69. 71. 68. 75. 80. 81. 74. 84. 87. 82. 85. 4. 4.
      3. 2. 2. 3. 5. 6. 9. 9. 6. 8. 12. 16. 18. 21. 21. 16. 11. 10. 14.
      22. 25. 32. 34. 48. 60. 84. 104. 116. 126. 136. 137. 133. 128.
      127. 138. 135. 135. 123. 130. 119. 99. 91. 73. 76. 63. 64. 56. 56.
      55. 55. 60. 65. 66. 63. 58. 57. 54. 52. 52. 50. 50. 46. 53. 66.
      67. 68. 68. 75. 71. 72. 71. 79. 96. 99. 103. 97. 105. 96. 93. 101.
      113. 124. 117. 112. 101. 94. 94. 84. 87. 80. 72. 63. 69. 75. 88.
      90. 89. 92. 95. 92. 96. 3. 2. 2. 1. 1. 2. 4. 5. 5. 8. 5. 8. 9. 8.
      11. 14. 18. 17. 16. 18. 10. 11. 13. 17. 22. 28. 28. 40. 48. 54.
      71. 91. 117. 134. 140. 141. 138. 136. 133. 116. 110. 101. 84. 84.
      71. 67. 62. 56. 57. 55. 54. 56. 63. 67. 64. 58. 55. 51. 50. 48.
      51. 48. 53. 55. 55. 66. 67. 71. 75. 79. 81. 87. 87. 92. 101. 96.
      92. 88. 102. 98. 96. 99. 106. 117. 116. 123. 125. 125. 120. 116.
      113. 104. 105. 84. 84. 79. 95. 95. 102. 100. 105. 106. 103. 1. 0.
      1. 1. 1. 1. 2. 5. 6. 7. 9. 7. 8. 9. 8. 11. 15. 19. 20. 19. 15. 10.
      11. 11. 12. 18. 24. 30. 37. 48. 65. 97. 120. 138. 142. 146. 146.
      150. 146. 134. 116. 96. 82. 79. 71. 68. 62. 63. 58. 58. 56. 60.
      65. 66. 63. 56. 55. 49. 50. 49. 53. 53. 53. 54. 55. 55. 60. 60.
      63. 68. 83. 92. 96. 105. 112. 101. 96. 96. 108. 105. 92. 100. 104.
      125. 129. 138. 138. 142. 150. 147. 138. 116. 105. 91. 92. 75. 83.
      82. 105. 112. 120. 123. 124.</_>
    <_>
      0. 46. 120. 158. 192. 193. 192. 191. 192. 188. 186. 187. 185. 182.
      179. 176. 175. 174. 174. 174. 170. 166. 165. 165. 166. 166. 167.
      167. 163. 162. 165. 158. 157. 147. 139. 142. 127. 111. 64. 42. 43.
      0. 0. 5. 0. 0. 3. 1. 1. 0. 0. 3. 0. 2. 0. 0. 0. 0. 0. 0. 0. 0. 0.
      0. 0. 0. 0. 0. 0. 0. 0. 0. 0. 0. 0. 0. 0. 0. 0. 0. 0. 0. 0. 0. 0.
      0. 0. 0. 0. 0. 0. 0. 0. 0. 0. 0. 0. 0. 0. 0. 0. 0. 0. 43. 98. 138.
      164. 185. 194. 192. 187. 189. 187. 186. 184. 182. 181. 179. 175.
      174. 172. 171. 170. 168. 168. 169. 168. 164. 168. 163. 160. 162.
      161. 156. 152. 149. 144. 138. 130. 115. 103. 67. 46. 44. 42. 44.
      0. 1. 5. 0. 0. 0. 1. 0. 0. 1. 0. 1. 1. 0. 0. 0. 0. 0. 0. 0. 0. 0.
      0. 0. 0. 0. 0. 0. 0. 0. 0. 0. 0. 0. 0. 0. 0. 0. 0. 0. 0. 0. 0. 0.
      0. 0. 0. 0. 0. 0. 0. 0. 0. 0. 0. 0. 0. 0. 0. 0. 115. 139. 163.
      191. 193. 192. 192. 192. 188. 187. 185. 181. 179. 180. 180. 175.
      174. 170. 168. 166. 165. 166. 166. 164. 164. 166. 161. 158. 155.
      147. 142. 140. 134. 121. 115. 113. 109. 100. 84. 80. 82. 66. 42.
      46. 42. 0. 0. 4. 0. 3. 0. 2. 0. 2. 0. 0. 0. 0. 0. 0. 0. 0. 0. 0.
      0. 0. 0. 0. 0. 0. 0. 0. 0. 0. 0. 0. 0. 0. 0. 0. 0. 0. 0. 0. 0. 0.
      0. 0. 0. 0. 0. 0. 0. 0. 0. 0. 0. 0. 0. 0. 0. 0. 0. 158. 162. 185.
      192. 190. 190. 189. 185. 188. 186. 183. 179. 176. 176. 176. 173.
      172. 168. 167. 168. 167. 166. 165. 162. 160. 151. 148. 149. 143.
      140. 134. 118. 112. 108. 102. 93. 86. 88. 87. 91. 88. 86. 86. 74.
      78. 104. 95. 79. 0. 0. 0. 0. 3. 0. 4. 0. 0. 0. 0. 0. 0. 0. 0. 0.
      0. 0. 0. 0. 0. 0. 0. 0. 0. 0. 0. 0. 0. 0. 0. 0. 0. 0. 0. 0. 0. 0.
      0. 0. 0. 0. 0. 0. 0. 0. 0. 0. 0. 0. 0. 0. 0. 0. 0. 185. 189. 197.
      188. 192. 193. 191. 188. 187. 183. 179. 177. 174. 172. 173. 172.
      174. 169. 167. 167. 163. 157. 153. 151. 142. 136. 135. 137. 136.
      142. 141. 122. 107. 103. 94. 90. 87. 94. 95. 98. 101. 102. 98. 94.
      104. 116. 116. 109. 44. 44. 7. 0. 0. 1. 0. 0. 0. 0. 0. 0. 0. 0. 0.
      0. 0. 0. 0. 0. 0. 0. 0. 0. 0. 0. 0. 0. 0. 0. 0. 0. 0. 0. 0. 0. 0.
      0. 0. 0. 0. 0. 0. 0. 0. 0. 0. 0. 0. 0. 0. 0. 0. 0. 0. 195. 193.
      189. 195. 190. 186. 188. 186. 183. 178. 176. 176. 175. 173. 173.
      173. 173. 167. 164. 159. 151. 141. 135. 131. 120. 111. 105. 114.
      126. 132. 136. 136. 135. 123. 109. 108. 103. 103. 99. 103. 101.
      104. 101. 101. 109. 123. 118. 117. 74. 81. 43. 43. 44. 0. 0. 3. 0.
      0. 0. 0. 0. 0. 0. 0. 0. 0. 0. 0. 0. 0. 0. 0. 0. 0. 0. 0. 0. 0. 0.
      0. 0. 0. 0. 0. 0. 0. 0. 0. 0. 0. 0. 0. 0. 0. 0. 0. 0. 0. 0. 0. 0.
      0. 0. 191. 192. 189. 196. 185. 188. 188. 179. 178. 176. 175. 174.
      172. 171. 169. 165. 161. 157. 152. 143. 131. 122. 112. 103. 102.
      81. 68. 82. 100. 112. 126. 134. 135. 139. 134. 123. 112. 108. 109.
      109. 107. 107. 101. 95. 93. 108. 105. 101. 82. 83. 73. 48. 43. 43.
      0. 0. 0. 0. 0. 0. 0. 0. 0. 0. 0. 0. 0. 0. 0. 0. 0. 0. 0. 0. 0. 0.
      0. 0. 0. 0. 0. 0. 0. 0. 0. 0. 0. 0. 0. 0. 0. 0. 0. 0. 0. 0. 0. 0.
      0. 0. 0. 0. 0. 191. 192. 191. 188. 186. 189. 179. 181. 177. 175.
      174. 170. 166. 163. 158. 150. 149. 147. 138. 123. 108. 95. 80. 65.
      63. 49. 45. 48. 49. 71. 106. 118. 138. 136. 139. 137. 136. 122.
      118. 113. 110. 111. 101. 82. 72. 47. 50. 47. 65. 79. 82. 63. 43.
      43. 42. 42. 0. 0. 0. 0. 0. 0. 0. 0. 0. 0. 0. 0. 0. 0. 0. 0. 0. 0.
      0. 0. 0. 0. 0. 0. 0. 0. 0. 0. 0. 0. 0. 0. 0. 0. 0. 0. 0. 0. 0. 0.
      0. 0. 0. 0. 0. 0. 0. 193. 187. 189. 186. 185. 184. 178. 179. 175.
      168. 162. 158. 158. 154. 151. 135. 128. 133. 133. 123. 101. 76.
      63. 64. 63. 67. 63. 66. 48. 78. 101. 114. 123. 131. 135. 135. 135.
      132. 128. 126. 114. 105. 88. 82. 64. 65. 49. 45. 44. 46. 46. 46.
      42. 43. 46. 44. 43. 45. 40. 1. 1. 0. 0. 0. 0. 2. 0. 0. 0. 0. 0. 0.
      0. 0. 0. 0. 0. 0. 0. 0. 0. 0. 0. 0. 0. 0. 0. 0. 0. 0. 0. 0. 0. 0.
      0. 0. 0. 0. 0. 0. 0. 0. 0. 188. 186. 187. 183. 179. 175. 170. 169.
      160. 149. 141. 146. 162. 178. 164. 140. 124. 124. 122. 123. 117.
      97. 79. 76. 75. 72. 76. 70. 71. 106. 119. 129. 133. 127. 122. 121.
      127. 132. 129. 122. 113. 97. 84. 81. 71. 68. 63. 68. 48. 47. 43.
      49. 46. 46. 44. 41. 44. 39. 50. 111. 110. 110. 39. 0. 0. 0. 2. 0.
      0. 2. 2. 1. 0. 0. 0. 0. 0. 0. 0. 0. 0. 0. 0. 0. 0. 0. 0. 0. 0. 0.
      0. 0. 0. 0. 0. 0. 0. 0. 0. 0. 0. 0. 0. 187. 191. 176. 172. 170.
      159. 150. 139. 139. 124. 123. 145. 191. 199. 207. 186. 163. 149.
      139. 130. 120. 116. 105. 86. 70. 76. 74. 75. 95. 114. 138. 140.
      141. 135. 129. 121. 114. 115. 119. 118. 113. 92. 83. 81. 82. 72.
      65. 64. 61. 68. 65. 64. 47. 46. 47. 50. 49. 46. 74. 113. 121. 136.
      126. 111. 45. 3. 0. 3. 2. 0. 0. 1. 0. 0. 0. 0. 0. 0. 0. 0. 0. 0.
      0. 0. 0. 0. 0. 0. 0. 0. 0. 0. 0. 0. 0. 0. 0. 0. 0. 0. 0. 0. 0.
      168. 167. 162. 148. 139. 138. 124. 116. 107. 109. 129. 162. 202.
      228. 223. 211. 201. 192. 175. 163. 163. 163. 149. 131. 106. 87.
      76. 71. 107. 129. 140. 145. 138. 136. 137. 134. 124. 119. 117.
      111. 107. 104. 103. 86. 84. 83. 82. 73. 73. 76. 69. 67. 64. 68.
      60. 46. 63. 66. 80. 118. 127. 148. 143. 150. 147. 143. 150. 147.
      140. 146. 148. 142. 145. 145. 145. 145. 145. 145. 145. 145. 145.
      145. 145. 145. 145. 145. 145. 145. 145. 145. 145. 145. 145. 145.
      145. 145. 145. 145. 145. 145. 145. 145. 145. 168. 164. 145. 133.
      113. 107. 104. 87. 88. 123. 157. 200. 211. 215. 228. 239. 237.
      216. 206. 202. 194. 198. 196. 177. 144. 112. 84. 73. 108. 131.
      137. 143. 143. 136. 135. 132. 125. 124. 125. 121. 120. 109. 108.
      105. 99. 87. 82. 84. 80. 80. 75. 64. 61. 64. 71. 66. 66. 66. 66.
      78. 104. 132. 146. 156. 155. 154. 150. 153. 154. 153. 156. 154.
      154. 154. 154. 154. 154. 154. 154. 154. 154. 154. 154. 154. 154.
      154. 154. 154. 154. 154. 154. 154. 154. 154. 154. 154. 154. 154.
      154. 154. 154. 154. 154. 171. 176. 143. 125. 107. 87. 81. 84. 121.
      160. 199. 208. 208. 213. 214. 217. 233. 233. 231. 224. 221. 222.
      216. 204. 172. 144. 99. 83. 100. 119. 135. 138. 130. 130. 134.
      134. 126. 121. 121. 121. 122. 116. 114. 112. 112. 113. 102. 92.
      83. 80. 80. 75. 74. 66. 70. 65. 72. 72. 73. 75. 74. 87. 116. 145.
      151. 161. 157. 159. 161. 156. 159. 157. 158. 158. 158. 158. 158.
      158. 158. 158. 158. 158. 158. 158. 158. 158. 158. 158. 158. 158.
      158. 158. 158. 158. 158. 158. 158. 158. 158. 158. 158. 158. 158.
      200. 202. 190. 158. 132. 106. 79. 120. 158. 197. 220. 239. 224.
      216. 209. 210. 212. 218. 224. 218. 217. 233. 237. 219. 198. 156.
      116. 86. 88. 108. 113. 122. 124. 122. 121. 121. 119. 118. 120.
      124. 132. 128. 126. 117. 113. 111. 108. 105. 94. 87. 83. 80. 79.
      71. 75. 73. 72. 75. 72. 64. 61. 66. 76. 79. 99. 108. 107. 108.
      109. 106. 108. 108. 108. 108. 108. 108. 108. 108. 108. 108. 108.
      108. 108. 108. 108. 108. 108. 108. 108. 108. 108. 108. 108. 108.
      108. 108. 108. 108. 108. 108. 108. 108. 108. 225. 220. 204. 202.
      173. 139. 128. 150. 194. 218. 240. 245. 239. 222. 214. 213. 213.
      216. 218. 218. 229. 241. 232. 209. 195. 167. 136. 116. 102. 100.
      108. 114. 119. 121. 121. 118. 113. 110. 115. 125. 138. 137. 138.
      127. 125. 125. 121. 112. 108. 101. 92. 88. 85. 81. 83. 80. 71. 76.
      72. 73. 69. 64. 63. 74. 75. 78. 81. 80. 80. 80. 79. 81. 80. 80.
      80. 80. 80. 80. 80. 80. 80. 80. 80. 80. 80. 80. 80. 80. 80. 80.
      80. 80. 80. 80. 80. 80. 80. 80. 80. 80. 80. 80. 80. 255. 254. 253.
      227. 205. 187. 174. 198. 213. 246. 243. 242. 238. 232. 220. 218.
      216. 217. 219. 231. 246. 238. 216. 203. 195. 166. 150. 144. 141.
      131. 113. 108. 112. 119. 116. 114. 112. 109. 110. 125. 138. 140.
      133. 127. 133. 137. 129. 119. 113. 111. 108. 104. 99. 88. 89. 83.
      80. 73. 73. 73. 74. 64. 64. 67. 66. 72. 74. 72. 73. 73. 72. 73.
      73. 73. 73. 73. 73. 73. 73. 73. 73. 73. 73. 73. 73. 73. 73. 73.
      73. 73. 73. 73. 73. 73. 73. 73. 73. 73. 73. 73. 73. 73. 73. 253.
      254. 255. 247. 233. 216. 206. 213. 240. 251. 241. 240. 235. 234.
      227. 227. 220. 221. 238. 250. 238. 219. 206. 198. 187. 165. 162.
      169. 170. 158. 140. 137. 113. 112. 116. 116. 116. 112. 113. 117.
      129. 132. 129. 125. 130. 136. 131. 122. 117. 114. 112. 113. 110.
      100. 95. 86. 82. 80. 79. 73. 72. 67. 66. 62. 63. 65. 66. 65. 66.
      66. 65. 66. 65. 65. 65. 65. 65. 65. 65. 65. 65. 65. 65. 65. 65.
      65. 65. 65. 65. 65. 65. 65. 65. 65. 65. 65. 65. 65. 65. 65. 65.
      65. 65. 253. 253. 250. 252. 249. 245. 250. 249. 249. 248. 241.
      240. 232. 229. 221. 220. 226. 236. 250. 243. 218. 205. 201. 192.
      175. 169. 188. 197. 192. 197. 195. 184. 152. 134. 137. 152. 149.
      135. 119. 111. 114. 117. 118. 117. 120. 127. 130. 127. 119. 117.
      114. 118. 115. 109. 102. 94. 90. 85. 82. 77. 76. 71. 70. 69. 67.
      65. 64. 65. 64. 64. 65. 64. 65. 65. 65. 65. 65. 65. 65. 65. 65.
      65. 65. 65. 65. 65. 65. 65. 65. 65. 65. 65. 65. 65. 65. 65. 65.
      65. 65. 65. 65. 65. 65. 253. 254. 247. 249. 248. 245. 251. 248.
      245. 241. 236. 234. 227. 226. 221. 224. 237. 250. 241. 216. 204.
      202. 195. 187. 174. 187. 200. 201. 205. 213. 211. 207. 189. 168.
      176. 193. 195. 176. 150. 135. 117. 114. 114. 116. 117. 122. 125.
      124. 122. 122. 120. 124. 117. 115. 110. 108. 100. 94. 87. 82. 79.
      74. 73. 73. 72. 66. 64. 66. 65. 65. 66. 65. 65. 65. 65. 65. 65.
      65. 65. 65. 65. 65. 65. 65. 65. 65. 65. 65. 65. 65. 65. 65. 65.
      65. 65. 65. 65. 65. 65. 65. 65. 65. 65. 247. 250. 247. 247. 252.
      251. 250. 249. 242. 236. 230. 228. 226. 224. 224. 235. 248. 244.
      221. 204. 203. 195. 184. 187. 197. 201. 203. 199. 213. 243. 253.
      241. 213. 205. 213. 214. 221. 210. 192. 179. 151. 134. 120. 117.
      116. 119. 125. 127. 123. 124. 127. 131. 124. 122. 115. 112. 110.
      109. 101. 90. 83. 83. 79. 73. 74. 66. 64. 66. 65. 65. 66. 65. 65.
      65. 65. 65. 65. 65. 65. 65. 65. 65. 65. 65. 65. 65. 65. 65. 65.
      65. 65. 65. 65. 65. 65. 65. 65. 65. 65. 65. 65. 65. 65. 248. 248.
      244. 243. 249. 249. 243. 242. 237. 233. 228. 228. 226. 224. 233.
      248. 244. 224. 207. 203. 198. 187. 185. 195. 196. 206. 206. 214.
      243. 255. 249. 242. 240. 241. 246. 254. 252. 243. 208. 197. 187.
      167. 146. 132. 121. 117. 120. 126. 127. 128. 135. 141. 139. 134.
      122. 115. 113. 114. 108. 102. 93. 90. 83. 79. 71. 66. 64. 65. 65.
      65. 65. 65. 65. 65. 65. 65. 65. 65. 65. 65. 65. 65. 65. 65. 65.
      65. 65. 65. 65. 65. 65. 65. 65. 65. 65. 65. 65. 65. 65. 65. 65.
      65. 65. 247. 247. 247. 249. 251. 248. 243. 237. 233. 229. 224.
      226. 229. 237. 251. 251. 224. 209. 200. 196. 189. 189. 198. 204.
      210. 205. 214. 239. 255. 254. 252. 253. 240. 231. 230. 247. 249.
      250. 222. 222. 206. 200. 188. 173. 157. 139. 127. 122. 126. 124.
      132. 137. 139. 134. 123. 116. 119. 118. 115. 113. 102. 93. 85. 84.
      82. 81. 80. 80. 81. 80. 79. 81. 81. 81. 81. 81. 81. 81. 81. 81.
      81. 81. 81. 81. 81. 81. 81. 81. 81. 81. 81. 81. 81. 81. 81. 81.
      81. 81. 81. 81. 81. 81. 81. 248. 246. 247. 250. 243. 239. 242.
      234. 229. 225. 222. 228. 238. 251. 252. 221. 208. 204. 198. 191.
      188. 196. 205. 207. 206. 212. 219. 226. 238. 250. 255. 249. 243.
      226. 236. 236. 249. 237. 222. 214. 217. 218. 211. 202. 195. 180.
      159. 146. 134. 128. 135. 135. 139. 136. 132. 129. 134. 138. 132.
      124. 109. 101. 91. 86. 87. 89. 88. 87. 89. 88. 86. 89. 88. 88. 88.
      88. 88. 88. 88. 88. 88. 88. 88. 88. 88. 88. 88. 88. 88. 88. 88.
      88. 88. 88. 88. 88. 88. 88. 88. 88. 88. 88. 88. 248. 246. 243.
      240. 239. 239. 236. 232. 224. 223. 225. 237. 252. 245. 224. 210.
      205. 200. 189. 182. 192. 207. 213. 211. 218. 227. 237. 221. 239.
      250. 254. 248. 234. 232. 228. 235. 236. 242. 234. 244. 236. 233.
      218. 211. 208. 201. 194. 187. 166. 158. 143. 134. 129. 135. 136.
      137. 140. 145. 140. 135. 117. 110. 98. 95. 94. 93. 93. 93. 93. 94.
      93. 93. 93. 93. 93. 93. 93. 93. 93. 93. 93. 93. 93. 93. 93. 93.
      93. 93. 93. 93. 93. 93. 93. 93. 93. 93. 93. 93. 93. 93. 93. 93.
      93. 246. 243. 238. 235. 236. 235. 232. 231. 226. 221. 234. 251.
      245. 224. 209. 203. 201. 189. 183. 193. 207. 213. 218. 226. 236.
      239. 231. 221. 232. 244. 250. 249. 250. 242. 230. 221. 217. 219.
      219. 229. 241. 233. 216. 207. 214. 213. 213. 207. 199. 190. 176.
      166. 153. 143. 138. 139. 141. 144. 140. 138. 122. 113. 100. 98.
      100. 100. 100. 100. 100. 100. 100. 99. 100. 100. 100. 100. 100.
      100. 100. 100. 100. 100. 100. 100. 100. 100. 100. 100. 100. 100.
      100. 100. 100. 100. 100. 100. 100. 100. 100. 100. 100. 100. 100.
      242. 241. 235. 233. 235. 234. 230. 228. 223. 233. 248. 247. 226.
      208. 202. 199. 195. 191. 191. 201. 216. 227. 238. 251. 253. 253.
      253. 236. 229. 228. 223. 232. 241. 248. 228. 217. 211. 218. 216.
      239. 239. 236. 218. 212. 208. 214. 213. 214. 216. 210. 204. 195.
      185. 169. 159. 154. 145. 141. 132. 129. 117. 111. 104. 106. 101.
      101. 101. 101. 101. 101. 101. 100. 101. 101. 101. 101. 101. 101.
      101. 101. 101. 101. 101. 101. 101. 101. 101. 101. 101. 101. 101.
      101. 101. 101. 101. 101. 101. 101. 101. 101. 101. 101. 101. 238.
      240. 236. 233. 236. 233. 226. 224. 231. 248. 246. 224. 210. 205.
      200. 198. 191. 198. 203. 208. 215. 223. 227. 230. 251. 253. 249.
      239. 235. 221. 229. 230. 250. 241. 230. 216. 214. 220. 229. 231.
      242. 240. 236. 222. 221. 215. 219. 215. 209. 205. 203. 198. 200.
      193. 186. 176. 164. 158. 150. 148. 142. 139. 132. 130. 131. 131.
      131. 131. 131. 131. 130. 130. 130. 130. 130. 130. 130. 130. 130.
      130. 130. 130. 130. 130. 130. 130. 130. 130. 130. 130. 130. 130.
      130. 130. 130. 130. 130. 130. 130. 130. 130. 130. 130. 238. 238.
      236. 234. 230. 223. 222. 228. 246. 242. 225. 209. 204. 201. 196.
      195. 199. 205. 213. 223. 232. 236. 236. 235. 249. 251. 255. 241.
      230. 221. 225. 237. 242. 252. 248. 250. 240. 243. 235. 233. 212.
      212. 206. 210. 209. 219. 214. 211. 209. 203. 200. 196. 202. 203.
      203. 197. 195. 187. 175. 168. 164. 164. 158. 154. 149. 149. 150.
      150. 150. 149. 149. 149. 150. 150. 150. 150. 150. 150. 150. 150.
      150. 150. 150. 150. 150. 150. 150. 150. 150. 150. 150. 150. 150.
      150. 150. 150. 150. 150. 150. 150. 150. 150. 150. 236. 231. 231.
